{"learner":{"attributes":{"best_iteration":"94","best_score":"0.526091"},"feature_names":["MCV","MCH","HBA2","HBF"],"feature_types":["float","float","float","float"],"gradient_booster":{"model":{"cats":{"enc":[],"feature_segments":[],"sorted_idx":[]},"gbtree_model_param":{"num_parallel_tree":"1","num_trees":"95"},"iteration_indptr":[0,1,2,3,4,5,6,7,8,9,10,11,12,13,14,15,16,17,18,19,20,21,22,23,24,25,26,27,28,29,30,31,32,33,34,35,36,37,38,39,40,41,42,43,44,45,46,47,48,49,50,51,52,53,54,55,56,57,58,59,60,61,62,63,64,65,66,67,68,69,70,71,72,73,74,75,76,77,78,79,80,81,82,83,84,85,86,87,88,89,90,91,92,93,94,95],"tree_info":[0,0,0,0,0,0,0,0,0,0,0,0,0,0,0,0,0,0,0,0,0,0,0,0,0,0,0,0,0,0,0,0,0,0,0,0,0,0,0,0,0,0,0,0,0,0,0,0,0,0,0,0,0,0,0,0,0,0,0,0,0,0,0,0,0,0,0,0,0,0,0,0,0,0,0,0,0,0,0,0,0,0,0,0,0,0,0,0,0,0,0,0,0,0,0],"trees":[{"base_weights":[-6.912733E-1,-1.5716091E0,7.6308334E-1,4E-1,-1.6066899E0,-1.1967213E0,9.1568977E-1,8.666667E-1,-2.7272728E-1,-1.7325684E0,-9.7480834E-1,-1.3333334E0,1.5384616E-1,8.533035E-1,1.2884835E0,6.1290324E-2,4.2424244E-1,-2.727273E-2,-1.6216215E-1,4.4444446E-2,-1.748831E0,-1.4503816E0,-8.9058524E-1,-1.5294118E0,-1.0654205E0,2.5E-2,-0E0,8.357101E-1,1.1902834E0,9.589041E-1,1.3396481E0,3.846154E-2,8.333334E-3,-1.3043478E-2,-0E0,-1.2E-2,1.6666668E-2,-9.290323E-2,-8.2193546E-2,2.0000001E-2,-7.76E-2,-4.5882355E-2,4E-3,-1.1111111E-2,-7.894737E-2,-2.6315792E-2,-5.652174E-2,4.239417E-2,2.4210526E-2,2.727273E-2,6.216216E-2,3.3333335E-2,5.7894737E-2,6.890244E-2,4.725275E-2],"categories":[],"categories_nodes":[],"categories_segments":[],"categories_sizes":[],"default_left":[0,0,0,0,0,0,0,0,0,0,0,0,0,0,0,0,0,0,0,0,0,0,0,0,0,0,0,0,0,0,0,0,0,0,0,0,0,0,0,0,0,0,0,0,0,0,0,0,0,0,0,0,0,0,0],"id":0,"left_children":[1,3,5,7,9,11,13,15,17,19,21,23,25,27,29,-1,31,-1,33,35,37,39,41,43,45,-1,-1,47,49,51,53,-1,-1,-1,-1,-1,-1,-1,-1,-1,-1,-1,-1,-1,-1,-1,-1,-1,-1,-1,-1,-1,-1,-1,-1],"loss_changes":[2.8455952E3,9.638501E1,2.5183594E2,8.084848E0,1.0650586E2,1.1459854E1,1.7003418E1,1.8633442E0,2.4324328E-1,3.282007E1,7.8506927E0,1.2860565E0,3.4615386E-1,2.9759521E0,5.6399536E-1,0E0,6.048951E-1,0E0,1.480611E-1,1.0044444E0,9.818359E0,6.7788773E0,5.2346344E0,1.5755157E0,3.426075E-1,0E0,0E0,2.3273926E0,3.762474E-1,2.8935242E-1,9.739685E-2,0E0,0E0,0E0,0E0,0E0,0E0,0E0,0E0,0E0,0E0,0E0,0E0,0E0,0E0,0E0,0E0,0E0,0E0,0E0,0E0,0E0,0E0,0E0,0E0],"parents":[2147483647,0,0,1,1,2,2,3,3,4,4,5,5,6,6,7,7,8,8,9,9,10,10,11,11,12,12,13,13,14,14,16,16,18,18,19,19,20,20,21,21,22,22,23,23,24,24,27,27,28,28,29,29,30,30],"right_children":[2,4,6,8,10,12,14,16,18,20,22,24,26,28,30,-1,32,-1,34,36,38,40,42,44,46,-1,-1,48,50,52,54,-1,-1,-1,-1,-1,-1,-1,-1,-1,-1,-1,-1,-1,-1,-1,-1,-1,-1,-1,-1,-1,-1,-1,-1],"split_conditions":[7E1,5.52E1,2.2E1,1.76E1,2.156E1,7.88E1,7.88E1,4.71E0,4.91E0,3.42E0,4.5E0,4.84E0,4.45E0,2.53E1,4.04E0,6.1290324E-2,1.67E1,-2.727273E-2,1.81E1,2.081E1,6.29E1,3.42E0,2.496E1,3.75E0,5.01E0,2.5E-2,-0E0,2.496E1,4.04E0,8.19E1,2.74E1,3.846154E-2,8.333334E-3,-1.3043478E-2,-0E0,-1.2E-2,1.6666668E-2,-9.290323E-2,-8.2193546E-2,2.0000001E-2,-7.76E-2,-4.5882355E-2,4E-3,-1.1111111E-2,-7.894737E-2,-2.6315792E-2,-5.652174E-2,4.239417E-2,2.4210526E-2,2.727273E-2,6.216216E-2,3.3333335E-2,5.7894737E-2,6.890244E-2,4.725275E-2],"split_indices":[0,0,1,1,1,0,0,2,2,2,2,2,2,1,2,0,1,0,1,1,0,2,1,2,2,0,0,1,2,0,1,0,0,0,0,0,0,0,0,0,0,0,0,0,0,0,0,0,0,0,0,0,0,0,0],"split_type":[0,0,0,0,0,0,0,0,0,0,0,0,0,0,0,0,0,0,0,0,0,0,0,0,0,0,0,0,0,0,0,0,0,0,0,0,0,0,0,0,0,0,0,0,0,0,0,0,0,0,0,0,0,0,0],"sum_hessian":[2.220625E3,1.38325E3,8.37375E2,2.4E1,1.35925E3,6E1,7.77375E2,1.4E1,1E1,1.132E3,2.2725E2,5.45E1,5.5E0,6.6875E2,1.08625E2,6.75E0,7.25E0,1.75E0,8.25E0,1.025E1,1.12175E3,3.175E1,1.955E2,2.875E1,2.575E1,1E0,4.5E0,6.38875E2,2.9875E1,1.725E1,9.1375E1,2.25E0,5E0,4.75E0,3.5E0,5.25E0,5E0,5.415E2,5.8025E2,1.5E0,3.025E1,1.9025E2,5.25E0,1.25E0,2.75E1,3.75E0,2.2E1,6.16125E2,2.275E1,3.125E0,2.675E1,8.75E0,8.5E0,8.1E1,1.0375E1],"tree_param":{"num_deleted":"0","num_feature":"4","num_nodes":"55","size_leaf_vector":"1"}},{"base_weights":[-6.771432E-1,-1.4905819E0,6.8964666E-1,4.0072328E-1,-1.5208865E0,7.9975766E-1,-2.969672E-1,9.0407264E-1,-1.7001699E-1,-1.6562815E0,-1.2003278E0,5.05642E-1,9.3195343E-1,-5.256608E-1,3.825134E-2,5.7648297E-2,2.1953264E-1,2.8228185E-3,-2.8152564E-1,2.0736521E-1,-1.6687021E0,-9.113952E-1,-1.5381671E0,-2.3000729E-1,6.0184354E-1,1.0300878E0,5.8273727E-1,-8.622751E-1,-4.471934E-1,-1.3301294E-1,4.1788638E-1,-1.7254273E-4,1.9964075E-2,-1.6774414E-2,1.4599248E-2,-5.0915927E-3,-2.2876557E-2,3.843726E-2,-9.9503845E-3,-8.735894E-2,-7.772056E-2,-6.37325E-2,-3.406165E-2,8.515614E-3,-7.775764E-2,1.8627135E-2,-1.5561859E-2,4.1753143E-2,2.1617142E-2,4.5423694E-2,5.8873385E-2,2.3112519E-2,4.7695708E-2,-2.0550555E-2,-6.868686E-2,-3.36052E-2,-1.9972084E-2,-1.4064188E-2,-3.95072E-3,1.2967581E-2,3.6107045E-2],"categories":[],"categories_nodes":[],"categories_segments":[],"categories_sizes":[],"default_left":[0,0,0,0,0,0,0,0,0,0,0,0,0,0,0,0,0,0,0,0,0,0,0,0,0,0,0,0,0,0,0,0,0,0,0,0,0,0,0,0,0,0,0,0,0,0,0,0,0,0,0,0,0,0,0,0,0,0,0,0,0],"id":1,"left_children":[1,3,5,7,9,11,13,15,17,19,21,23,25,27,29,-1,31,33,35,37,39,41,43,45,47,49,51,53,55,57,59,-1,-1,-1,-1,-1,-1,-1,-1,-1,-1,-1,-1,-1,-1,-1,-1,-1,-1,-1,-1,-1,-1,-1,-1,-1,-1,-1,-1,-1,-1],"loss_changes":[2.4690203E3,8.038818E1,9.028598E1,6.6872754E0,5.7480713E1,2.8531647E1,6.455908E0,1.8328362E0,2.2242808E-1,2.2583252E1,3.8668823E1,1.6663155E1,1.6995575E1,9.343195E-1,2.329776E0,0E0,1.8173149E-1,6.359752E-1,1.7479539E-1,1.8068553E0,5.8447266E0,1.7836578E1,5.7142944E0,1.4730421E0,7.812767E0,6.090912E0,4.699215E0,1.3670712E0,1.8908024E-1,1.7683381E-1,3.4886312E-1,0E0,0E0,0E0,0E0,0E0,0E0,0E0,0E0,0E0,0E0,0E0,0E0,0E0,0E0,0E0,0E0,0E0,0E0,0E0,0E0,0E0,0E0,0E0,0E0,0E0,0E0,0E0,0E0,0E0,0E0],"parents":[2147483647,0,0,1,1,2,2,3,3,4,4,5,5,6,6,7,7,8,8,9,9,10,10,11,11,12,12,13,13,14,14,16,16,17,17,18,18,19,19,20,20,21,21,22,22,23,23,24,24,25,25,26,26,27,27,28,28,29,29,30,30],"right_children":[2,4,6,8,10,12,14,16,18,20,22,24,26,28,30,-1,32,34,36,38,40,42,44,46,48,50,52,54,56,58,60,-1,-1,-1,-1,-1,-1,-1,-1,-1,-1,-1,-1,-1,-1,-1,-1,-1,-1,-1,-1,-1,-1,-1,-1,-1,-1,-1,-1,-1,-1],"split_conditions":[7E1,5.52E1,5.01E0,5.38E1,6.58E1,7.2E1,7.53E1,4.91E0,5.21E0,3.42E0,7.1E-1,4.38E0,1.62E0,4.08E0,7.88E1,5.7648297E-2,5.31E0,5.01E0,2E-1,6.121E1,6.29E1,4.89E0,3.42E0,3.79E0,4.9E-1,7.53E1,7.79E1,3.92E0,7.04E1,4.53E0,5.01E0,-1.7254273E-4,1.9964075E-2,-1.6774414E-2,1.4599248E-2,-5.0915927E-3,-2.2876557E-2,3.843726E-2,-9.9503845E-3,-8.735894E-2,-7.772056E-2,-6.37325E-2,-3.406165E-2,8.515614E-3,-7.775764E-2,1.8627135E-2,-1.5561859E-2,4.1753143E-2,2.1617142E-2,4.5423694E-2,5.8873385E-2,2.3112519E-2,4.7695708E-2,-2.0550555E-2,-6.868686E-2,-3.36052E-2,-1.9972084E-2,-1.4064188E-2,-3.95072E-3,1.2967581E-2,3.6107045E-2],"split_indices":[0,0,3,0,0,0,0,2,2,2,3,2,3,2,0,0,2,2,3,0,0,2,2,2,3,0,0,2,0,2,2,0,0,0,0,0,0,0,0,0,0,0,0,0,0,0,0,0,0,0,0,0,0,0,0,0,0,0,0,0,0],"split_type":[0,0,0,0,0,0,0,0,0,0,0,0,0,0,0,0,0,0,0,0,0,0,0,0,0,0,0,0,0,0,0,0,0,0,0,0,0,0,0,0,0,0,0,0,0,0,0,0,0,0,0,0,0,0,0,0,0,0,0,0,0],"sum_hessian":[2.2188174E3,1.3909244E3,8.278929E2,2.1742716E1,1.3691818E3,7.4494293E2,8.294995E1,1.1243113E1,1.0499603E1,9.5967535E2,4.0950638E2,2.3249709E2,5.1244586E2,4.8972023E1,3.3977924E1,7.743387E0,3.4997253E0,4.499699E0,5.999904E0,6.2496915E0,9.5342566E2,2.2272311E2,1.8678326E2,2.6726864E1,2.0577022E2,3.985097E2,1.1393615E2,7.369393E0,4.160263E1,2.3862495E1,1.0115428E1,1.999764E0,1.4999614E0,1.9997929E0,2.4999063E0,3.7499468E0,2.2499576E0,2.2498856E0,3.999806E0,5.5681055E2,3.966151E2,8.462508E1,1.3809804E2,1.7498555E0,1.8503342E2,2.748995E0,2.3977869E1,8.495389E1,1.2081633E2,2.2226596E2,1.7624374E2,8.771013E1,2.6226025E1,4.8732843E0,2.4961085E0,4.996093E0,3.6606537E1,5.2467384E0,1.8615757E1,7.8680964E0,2.2473316E0],"tree_param":{"num_deleted":"0","num_feature":"4","num_nodes":"61","size_leaf_vector":"1"}},{"base_weights":[-6.467637E-1,-1.4202231E0,6.7020285E-1,3.9978018E-1,-1.454935E0,-1.1775186E0,8.2451576E-1,8.3786845E-1,-2.5325337E-1,-1.5736911E0,-8.8166326E-1,-1.3102922E0,2.870058E-2,1.0433697E0,3.610879E-1,1.0144935E0,2.75206E-1,-5.315798E-4,-3.1946585E-1,-8.232272E-2,-1.4425049E0,-4.5493084E-1,-1.3215975E0,-6.360124E-1,-1.342514E0,1.8300546E-2,-2.5875768E-1,1.1623644E0,7.93967E-1,5.528823E-1,-8.866757E-2,5.362261E-2,1.8260451E-2,6.1134333E-3,1.972583E-2,-1.7956534E-2,-6.938723E-3,-6.48783E-2,-7.8405164E-2,-3.9611805E-2,-1.5333647E-2,-6.778784E-2,-1.1845775E-2,-3.7590098E-2,-9.287626E-3,-5.9752136E-2,-7.945167E-2,-1.8697855E-3,-2.1040445E-2,5.6069434E-2,6.847992E-2,3.5568025E-2,6.648331E-2,2.3913493E-2,5.1800497E-2,-8.900072E-3,1.8659802E-2],"categories":[],"categories_nodes":[],"categories_segments":[],"categories_sizes":[],"default_left":[0,0,0,0,0,0,0,0,0,0,0,0,0,0,0,0,0,0,0,0,0,0,0,0,0,0,0,0,0,0,0,0,0,0,0,0,0,0,0,0,0,0,0,0,0,0,0,0,0,0,0,0,0,0,0,0,0],"id":2,"left_children":[1,3,5,7,9,11,13,15,17,19,21,23,25,27,29,31,33,-1,35,-1,37,39,41,43,45,-1,47,49,51,53,55,-1,-1,-1,-1,-1,-1,-1,-1,-1,-1,-1,-1,-1,-1,-1,-1,-1,-1,-1,-1,-1,-1,-1,-1,-1,-1],"loss_changes":[2.2416194E3,8.8151855E1,2.3322803E2,7.858325E0,9.122876E1,1.0158958E1,7.593143E1,1.3335438E0,1.8132585E-1,8.370117E0,4.3653046E1,3.8352203E-1,7.9722136E-1,1.4227844E1,2.099888E1,5.9106827E-2,4.754749E-2,0E0,1.46586895E-2,0E0,5.423218E0,5.817257E0,3.9599152E0,9.483969E-2,4.434967E-2,0E0,1.4559743E-1,1.3806152E0,6.490837E0,5.6469345E0,3.097727E0,0E0,0E0,0E0,0E0,0E0,0E0,0E0,0E0,0E0,0E0,0E0,0E0,0E0,0E0,0E0,0E0,0E0,0E0,0E0,0E0,0E0,0E0,0E0,0E0,0E0,0E0],"parents":[2147483647,0,0,1,1,2,2,3,3,4,4,5,5,6,6,7,7,8,8,9,9,10,10,11,11,12,12,13,13,14,14,15,15,16,16,18,18,20,20,21,21,22,22,23,23,24,24,26,26,27,27,28,28,29,29,30,30],"right_children":[2,4,6,8,10,12,14,16,18,20,22,24,26,28,30,32,34,-1,36,-1,38,40,42,44,46,-1,48,50,52,54,56,-1,-1,-1,-1,-1,-1,-1,-1,-1,-1,-1,-1,-1,-1,-1,-1,-1,-1,-1,-1,-1,-1,-1,-1,-1,-1],"split_conditions":[7E1,5.52E1,2.2E1,1.76E1,2.16E1,7.56E1,1.6E0,5.38E1,5.38E1,6.41E1,7.1E-1,7.01E1,2E-1,4.9E-1,5.07E0,1.73E1,1.73E1,-5.315798E-4,7.1E-1,-8.232272E-2,4.9E-1,6.644E1,2.424E1,1.51E0,8.2E-1,1.8300546E-2,1.981E1,7.95E1,2.517E1,7.79E1,7.88E1,5.362261E-2,1.8260451E-2,6.1134333E-3,1.972583E-2,-1.7956534E-2,-6.938723E-3,-6.48783E-2,-7.8405164E-2,-3.9611805E-2,-1.5333647E-2,-6.778784E-2,-1.1845775E-2,-3.7590098E-2,-9.287626E-3,-5.9752136E-2,-7.945167E-2,-1.8697855E-3,-2.1040445E-2,5.6069434E-2,6.847992E-2,3.5568025E-2,6.648331E-2,2.3913493E-2,5.1800497E-2,-8.900072E-3,1.8659802E-2],"split_indices":[0,0,1,1,1,0,3,0,0,0,3,0,3,3,3,1,1,0,3,0,3,0,1,3,3,0,1,0,1,0,0,0,0,0,0,0,0,0,0,0,0,0,0,0,0,0,0,0,0,0,0,0,0,0,0,0,0],"split_type":[0,0,0,0,0,0,0,0,0,0,0,0,0,0,0,0,0,0,0,0,0,0,0,0,0,0,0,0,0,0,0,0,0,0,0,0,0,0,0,0,0,0,0,0,0,0,0,0,0,0,0,0,0,0,0,0,0],"sum_hessian":[2.1987087E3,1.3851353E3,8.1357355E2,2.5726662E1,1.3594086E3,6.219758E1,7.51376E2,1.5227941E1,1.0498721E1,1.1246802E3,2.3472838E2,5.595238E1,6.2451954E0,5.0950888E2,2.4186711E2,1.0978625E1,4.2493153E0,2.4996917E0,7.9990296E0,7.1599786E2,4.086823E2,1.201845E2,1.1454387E2,3.4976914E0,5.245469E1,2.7477062E0,3.4974895E0,3.4245612E2,1.6705275E2,1.6939903E2,7.246808E1,9.48059E0,1.4980357E0,2.7495806E0,1.4997345E0,5.7494025E0,2.2496269E0,1.9499348E2,2.1368881E2,3.536991E1,8.48146E1,1.1080445E2,3.7394233E0,2.2495E0,1.2481915E0,3.647968E1,1.5975012E1,1.9984168E0,1.4990727E0,2.9127457E2,5.1181553E1,1.4675116E2,2.0301598E1,1.4846118E2,2.0937845E1,6.1237995E1,1.123008E1],"tree_param":{"num_deleted":"0","num_feature":"4","num_nodes":"57","size_leaf_vector":"1"}},{"base_weights":[-6.1208755E-1,-1.3648366E0,6.2832606E-1,4.2409262E-1,-1.3984845E0,-1.1383183E0,7.750829E-1,8.580693E-1,-2.5346187E-1,-1.5104294E0,-8.720626E-1,-1.2324183E0,-1.8780278E-1,7.2972226E-1,1.0447965E0,6.213648E-2,5.618922E-1,-2.6826395E-4,-3.0800307E-1,2.0443027E-1,-1.5272992E0,-9.0442675E-1,1.4697689E-1,-1.5378994E0,-1.0355198E0,-4.0471435E-1,1.822394E-2,8.733961E-2,7.322533E-1,9.1476727E-1,5.8135193E-2,4.077746E-2,1.3059813E-2,-2.2722162E-2,-4.064639E-3,3.996898E-2,-1.0512017E-3,-7.927673E-2,-6.764802E-2,-6.49451E-2,-4.1718584E-2,1.8860994E-2,-9.2856365E-4,-7.0751086E-3,-8.2901716E-2,-1.2035566E-2,-5.5689212E-2,-3.3993527E-2,-2.6479594E-3,-7.021317E-3,1.3916545E-2,3.1958397E-2,3.783877E-2,4.7356788E-2,4.5957915E-3],"categories":[],"categories_nodes":[],"categories_segments":[],"categories_sizes":[],"default_left":[0,0,0,0,0,0,0,0,0,0,0,0,0,0,0,0,0,0,0,0,0,0,0,0,0,0,0,0,0,0,0,0,0,0,0,0,0,0,0,0,0,0,0,0,0,0,0,0,0,0,0,0,0,0,0],"id":3,"left_children":[1,3,5,7,9,11,13,15,17,19,21,23,25,27,29,-1,31,-1,33,35,37,39,41,43,45,47,-1,49,51,53,-1,-1,-1,-1,-1,-1,-1,-1,-1,-1,-1,-1,-1,-1,-1,-1,-1,-1,-1,-1,-1,-1,-1,-1,-1],"loss_changes":[2.0665103E3,8.3485596E1,2.1767844E2,7.9187326E0,7.8351074E1,5.5412674E0,8.69046E0,1.1465683E0,1.4716291E-1,3.252417E1,8.029648E0,1.9289703E0,9.853209E-1,1.0168152E0,6.06308E-1,0E0,6.2401867E-1,0E0,2.6178563E-1,1.5900517E0,9.050537E0,5.3332825E0,3.2072294E-1,3.268982E0,2.1368523E0,4.9586982E-1,0E0,2.0196547E-1,1.0274048E0,1.41745E0,0E0,0E0,0E0,0E0,0E0,0E0,0E0,0E0,0E0,0E0,0E0,0E0,0E0,0E0,0E0,0E0,0E0,0E0,0E0,0E0,0E0,0E0,0E0,0E0,0E0],"parents":[2147483647,0,0,1,1,2,2,3,3,4,4,5,5,6,6,7,7,8,8,9,9,10,10,11,11,12,12,13,13,14,14,16,16,18,18,19,19,20,20,21,21,22,22,23,23,24,24,25,25,27,27,28,28,29,29],"right_children":[2,4,6,8,10,12,14,16,18,20,22,24,26,28,30,-1,32,-1,34,36,38,40,42,44,46,48,-1,50,52,54,-1,-1,-1,-1,-1,-1,-1,-1,-1,-1,-1,-1,-1,-1,-1,-1,-1,-1,-1,-1,-1,-1,-1,-1,-1],"split_conditions":[7E1,5.52E1,2.2E1,1.76E1,2.156E1,7.56E1,7.88E1,4.51E0,5.38E1,3.42E0,2.517E1,4.43E0,2.121E1,3.7E0,5.01E0,6.213648E-2,1.67E1,-2.6826395E-4,5.61E0,6.121E1,2.07E1,4.5E0,5.01E0,3.75E0,4.6E0,7.95E1,1.822394E-2,2.332E1,7.12E1,4.94E0,5.8135193E-2,4.077746E-2,1.3059813E-2,-2.2722162E-2,-4.064639E-3,3.996898E-2,-1.0512017E-3,-7.927673E-2,-6.764802E-2,-6.49451E-2,-4.1718584E-2,1.8860994E-2,-9.2856365E-4,-7.0751086E-3,-8.2901716E-2,-1.2035566E-2,-5.5689212E-2,-3.3993527E-2,-2.6479594E-3,-7.021317E-3,1.3916545E-2,3.1958397E-2,3.783877E-2,4.7356788E-2,4.5957915E-3],"split_indices":[0,0,1,1,1,0,0,2,0,2,1,2,1,2,2,0,1,0,2,0,1,2,2,2,2,0,0,1,0,2,0,0,0,0,0,0,0,0,0,0,0,0,0,0,0,0,0,0,0,0,0,0,0,0,0],"split_type":[0,0,0,0,0,0,0,0,0,0,0,0,0,0,0,0,0,0,0,0,0,0,0,0,0,0,0,0,0,0,0,0,0,0,0,0,0,0,0,0,0,0,0,0,0,0,0,0,0,0,0,0,0,0,0],"sum_hessian":[2.2112827E3,1.3760948E3,8.351879E2,2.5190893E1,1.3509039E3,6.3540253E1,7.7164764E2,1.5193175E1,9.997717E0,1.1124662E3,2.3843771E2,5.754662E1,5.993633E0,6.63727E2,1.07920654E2,5.2190404E0,9.974134E0,1.9997301E0,7.9979873E0,1.0728919E1,1.1017373E3,2.3120718E2,7.2305317E0,1.988505E1,3.766157E1,4.495282E0,1.4983507E0,2.744266E0,6.609827E2,5.5487247E1,5.2433403E1,4.4814935E0,5.4926414E0,4.2489376E0,3.7490497E0,2.2488394E0,8.48008E0,8.1980035E2,2.8193692E2,3.2222652E1,1.9898453E2,2.4895186E0,4.741013E0,1.747754E0,1.8137295E1,3.74142E0,3.392015E1,1.9988843E0,2.496398E0,1.3723843E0,1.3718817E0,1.4346306E2,5.1751965E2,5.3241833E1,2.2454143E0],"tree_param":{"num_deleted":"0","num_feature":"4","num_nodes":"55","size_leaf_vector":"1"}},{"base_weights":[-5.7594377E-1,-1.3009021E0,6.142783E-1,5.2772623E-1,-1.3353055E0,7.166426E-1,-2.3409045E-1,5.236509E-2,1.809614E-1,-1.4966834E0,-1.0664612E0,8.8408196E-1,5.429759E-1,-4.434773E-1,4.523651E-2,4.762272E-1,-9.404182E-2,2.6875365E-1,-1.5092584E0,-8.213463E-1,-1.3539152E0,5.1070535E-1,9.65521E-1,4.6736187E-1,9.559426E-1,-7.098579E-1,-3.6083567E-1,-2.6678678E-2,2.9818186E-1,7.817607E-3,3.7028994E-2,-1.3321518E-2,1.3256733E-3,3.857289E-2,-7.7339136E-3,-7.157975E-2,-7.811167E-2,-6.0497493E-2,-3.386238E-2,1.1051948E-2,-6.8516776E-2,-2.119807E-3,3.297293E-2,3.9731666E-2,5.5399884E-2,3.3752935E-3,2.4923583E-2,2.0586144E-2,5.0628163E-2,-4.512351E-2,-1.9042596E-2,-3.1038923E-2,-1.2035204E-2,2.3266306E-2,-4.11583E-3,2.0994766E-2,3.8554743E-3],"categories":[],"categories_nodes":[],"categories_segments":[],"categories_sizes":[],"default_left":[0,0,0,0,0,0,0,0,0,0,0,0,0,0,0,0,0,0,0,0,0,0,0,0,0,0,0,0,0,0,0,0,0,0,0,0,0,0,0,0,0,0,0,0,0,0,0,0,0,0,0,0,0,0,0,0,0],"id":4,"left_children":[1,3,5,7,9,11,13,-1,15,17,19,21,23,25,27,29,31,33,35,37,39,41,43,45,47,49,51,53,55,-1,-1,-1,-1,-1,-1,-1,-1,-1,-1,-1,-1,-1,-1,-1,-1,-1,-1,-1,-1,-1,-1,-1,-1,-1,-1,-1,-1],"loss_changes":[1.8920356E3,8.64187E1,7.2277954E1,4.4726467E0,5.643579E1,2.1072998E1,5.2931128E0,0E0,1.403075E0,1.890686E1,3.4484985E1,1.09331665E1,1.0995239E1,8.802767E-1,7.2711635E-1,5.8027756E-1,2.044179E-1,1.5546248E0,1.1687012E0,1.4592743E1,6.2762756E0,5.738592E0,6.6030884E0,3.8433762E0,1.3010635E0,3.653655E-1,1.1444182E0,9.060835E-1,2.0532352E-1,0E0,0E0,0E0,0E0,0E0,0E0,0E0,0E0,0E0,0E0,0E0,0E0,0E0,0E0,0E0,0E0,0E0,0E0,0E0,0E0,0E0,0E0,0E0,0E0,0E0,0E0,0E0,0E0],"parents":[2147483647,0,0,1,1,2,2,3,3,4,4,5,5,6,6,8,8,9,9,10,10,11,11,12,12,13,13,14,14,15,15,16,16,17,17,18,18,19,19,20,20,21,21,22,22,23,23,24,24,25,25,26,26,27,27,28,28],"right_children":[2,4,6,8,10,12,14,-1,16,18,20,22,24,26,28,30,32,34,36,38,40,42,44,46,48,50,52,54,56,-1,-1,-1,-1,-1,-1,-1,-1,-1,-1,-1,-1,-1,-1,-1,-1,-1,-1,-1,-1,-1,-1,-1,-1,-1,-1,-1,-1],"split_conditions":[7E1,5.52E1,4.96E0,4.71E0,6.49E1,4.9E-1,7.53E1,5.236509E-2,5.38E1,3.42E0,7.1E-1,7.12E1,7.79E1,4.19E0,8.06E1,4.9E-1,5.01E0,6.121E1,3.6E-1,4.56E0,3.42E0,4.38E0,4.93E0,7.04E1,5.9E-1,8.7E0,7.09E1,7.56E1,7.3E0,7.817607E-3,3.7028994E-2,-1.3321518E-2,1.3256733E-3,3.857289E-2,-7.7339136E-3,-7.157975E-2,-7.811167E-2,-6.0497493E-2,-3.386238E-2,1.1051948E-2,-6.8516776E-2,-2.119807E-3,3.297293E-2,3.9731666E-2,5.5399884E-2,3.3752935E-3,2.4923583E-2,2.0586144E-2,5.0628163E-2,-4.512351E-2,-1.9042596E-2,-3.1038923E-2,-1.2035204E-2,2.3266306E-2,-4.11583E-3,2.0994766E-2,3.8554743E-3],"split_indices":[0,0,3,2,0,3,0,0,0,2,3,0,0,2,0,3,2,0,3,2,2,2,2,0,3,3,0,0,3,0,0,0,0,0,0,0,0,0,0,0,0,0,0,0,0,0,0,0,0,0,0,0,0,0,0,0,0],"split_type":[0,0,0,0,0,0,0,0,0,0,0,0,0,0,0,0,0,0,0,0,0,0,0,0,0,0,0,0,0,0,0,0,0,0,0,0,0,0,0,0,0,0,0,0,0,0,0,0,0,0,0,0,0,0,0,0,0],"sum_hessian":[2.1908193E3,1.361465E3,8.2935455E2,2.4876423E1,1.3365885E3,7.4019745E2,8.915705E1,9.14852E0,1.5727903E1,8.323752E2,5.0421335E2,3.7477264E2,3.6542484E2,5.06223E1,3.8534748E1,7.2316747E0,8.496228E0,5.742885E0,8.2663226E2,2.742311E2,2.2998222E2,6.840851E1,3.0636414E2,3.1067252E2,5.475231E1,1.0189303E1,4.0433E1,3.070072E1,7.8340297E0,3.9923084E0,3.239366E0,2.998494E0,5.4977345E0,2.24988E0,3.493005E0,3.4657037E2,4.800619E2,7.218009E1,2.0205103E2,2.2444391E0,2.277378E2,1.4650249E1,5.3758255E1,1.4228435E2,1.6407979E2,2.2655088E1,2.8801743E2,5.9391103E0,4.88132E1,5.327416E0,4.861887E0,1.1462583E1,2.8970415E1,2.3709545E0,2.8329765E1,4.4723687E0,3.3616607E0],"tree_param":{"num_deleted":"0","num_feature":"4","num_nodes":"57","size_leaf_vector":"1"}},{"base_weights":[-5.7049286E-1,-1.2586812E0,5.912638E-1,4.153616E-1,-1.2906672E0,-1.0569661E0,7.265622E-1,7.376399E-1,-1.7691211E-1,-1.4027617E0,-7.6316804E-1,-1.14987E0,9.481697E-2,6.772358E-1,1.0265418E0,5.7068415E-2,3.72375E-1,-2.891567E-1,1.223079E-3,1.1815847E-1,-1.4158305E0,-7.976763E-1,2.538656E-1,-5.510395E-3,-1.190763E0,1.6119665E-2,-3.5530166E-3,7.0634574E-1,5.8835536E-1,6.9438285E-1,5.419704E-2,1.019554E-4,3.3871558E-2,-1.5769784E-3,-1.800436E-2,3.7245825E-2,-7.5999484E-3,-7.530461E-2,-6.640833E-2,-5.907158E-2,-3.5703555E-2,-5.700966E-3,1.6639275E-2,-7.377562E-2,-5.1375207E-2,3.966334E-2,3.139333E-2,2.1787299E-2,3.8295873E-2,4.591276E-2,1.7519245E-2],"categories":[],"categories_nodes":[],"categories_segments":[],"categories_sizes":[],"default_left":[0,0,0,0,0,0,0,0,0,0,0,0,0,0,0,0,0,0,0,0,0,0,0,0,0,0,0,0,0,0,0,0,0,0,0,0,0,0,0,0,0,0,0,0,0,0,0,0,0,0,0],"id":5,"left_children":[1,3,5,7,9,11,13,15,17,19,21,23,25,27,29,-1,31,33,-1,35,37,39,41,-1,43,-1,-1,45,47,49,-1,-1,-1,-1,-1,-1,-1,-1,-1,-1,-1,-1,-1,-1,-1,-1,-1,-1,-1,-1,-1],"loss_changes":[1.7194531E3,7.284033E1,1.7925558E2,5.107335E0,7.729126E1,6.649658E0,1.0258331E1,2.0935783E0,2.3298216E-1,2.1868896E1,8.430954E0,2.2767334E0,2.3001102E-1,1.2368469E0,1.2033539E0,0E0,1.1792839E0,1.0733479E-1,0E0,1.8444841E0,6.565674E0,6.4395447E0,2.8335387E-1,0E0,1.0125046E0,0E0,0E0,2.74971E0,4.098179E0,1.0567045E0,0E0,0E0,0E0,0E0,0E0,0E0,0E0,0E0,0E0,0E0,0E0,0E0,0E0,0E0,0E0,0E0,0E0,0E0,0E0,0E0,0E0],"parents":[2147483647,0,0,1,1,2,2,3,3,4,4,5,5,6,6,7,7,8,8,9,9,10,10,11,11,12,12,13,13,14,14,16,16,17,17,19,19,20,20,21,21,22,22,24,24,27,27,28,28,29,29],"right_children":[2,4,6,8,10,12,14,16,18,20,22,24,26,28,30,-1,32,34,-1,36,38,40,42,-1,44,-1,-1,46,48,50,-1,-1,-1,-1,-1,-1,-1,-1,-1,-1,-1,-1,-1,-1,-1,-1,-1,-1,-1,-1,-1],"split_conditions":[7E1,5.52E1,2.2E1,1.76E1,2.16E1,7.88E1,7.88E1,4.51E0,5.61E0,3.42E0,2.517E1,3.75E0,4.51E0,2.407E1,4.04E0,5.7068415E-2,5.01E0,5.38E1,1.223079E-3,6.121E1,6.29E1,4.59E0,4.75E0,-5.510395E-3,4.43E0,1.6119665E-2,-3.5530166E-3,5.21E0,5.35E0,3.92E0,5.419704E-2,1.019554E-4,3.3871558E-2,-1.5769784E-3,-1.800436E-2,3.7245825E-2,-7.5999484E-3,-7.530461E-2,-6.640833E-2,-5.907158E-2,-3.5703555E-2,-5.700966E-3,1.6639275E-2,-7.377562E-2,-5.1375207E-2,3.966334E-2,3.139333E-2,2.1787299E-2,3.8295873E-2,4.591276E-2,1.7519245E-2],"split_indices":[0,0,1,1,1,0,0,2,2,2,1,2,2,1,2,0,2,0,0,0,0,2,2,0,2,0,0,2,2,2,0,0,0,0,0,0,0,0,0,0,0,0,0,0,0,0,0,0,0,0,0],"split_type":[0,0,0,0,0,0,0,0,0,0,0,0,0,0,0,0,0,0,0,0,0,0,0,0,0,0,0,0,0,0,0,0,0,0,0,0,0,0,0,0,0,0,0,0,0,0,0,0,0,0,0],"sum_hessian":[2.1487097E3,1.349327E3,7.993826E2,2.5073542E1,1.3242535E3,6.0124382E1,7.3925824E2,1.6078947E1,8.994595E0,1.0907979E3,2.334557E2,5.563821E1,4.486173E0,6.3766327E2,1.0159498E2,6.62811E0,9.450837E0,5.4955072E0,3.4990869E0,9.224565E0,1.0815732E3,2.2600304E2,7.452664E0,2.2454264E0,5.3392784E1,1.4935391E0,2.992634E0,4.7510934E2,1.625539E2,1.6899204E1,8.469577E1,4.723377E0,4.72746E0,1.4983186E0,3.997189E0,2.2491813E0,6.975383E0,5.2491943E2,5.566538E2,3.808024E1,1.8792279E2,1.2378201E0,6.2148438E0,1.6527803E1,3.686498E1,2.2110855E2,2.540008E2,8.927699E1,7.327691E1,9.225758E0,7.6734467E0],"tree_param":{"num_deleted":"0","num_feature":"4","num_nodes":"51","size_leaf_vector":"1"}},{"base_weights":[-5.457207E-1,-1.2192184E0,5.454856E-1,3.8209432E-1,-1.2455207E0,6.434179E-1,-2.8965414E-1,7.3554766E-1,-2.4519386E-2,-1.3690945E0,-9.5949286E-1,7.6128805E-1,4.0053698E-1,-4.8286685E-1,5.448877E-3,5.162555E-2,3.0145276E-1,1.5363283E-1,-2.2141238E-1,2.1597736E-2,-1.3826672E0,-7.062494E-1,-1.2516992E0,5.921315E-1,8.4389865E-1,3.0402976E-1,7.023059E-1,-6.9910496E-1,-3.7919214E-1,-6.877411E-2,2.7933457E-1,-2.1828495E-3,2.7202994E-2,-5.360089E-4,1.742859E-2,-4.19661E-3,-1.8326622E-2,1.3748936E-2,-2.0572526E-2,-7.2753996E-2,-6.389575E-2,-5.6280028E-2,-2.780602E-2,3.9354343E-2,-6.39207E-2,1.2558335E-2,4.0145393E-2,4.8453644E-2,2.9522423E-2,-3.239485E-3,1.7063107E-2,2.6313538E-2,4.153392E-2,-4.6405476E-2,-1.9291855E-2,-4.6225812E-2,-1.5604341E-2,2.3752911E-2,-6.10817E-3,2.2668814E-2,2.0976185E-3],"categories":[],"categories_nodes":[],"categories_segments":[],"categories_sizes":[],"default_left":[0,0,0,0,0,0,0,0,0,0,0,0,0,0,0,0,0,0,0,0,0,0,0,0,0,0,0,0,0,0,0,0,0,0,0,0,0,0,0,0,0,0,0,0,0,0,0,0,0,0,0,0,0,0,0,0,0,0,0,0,0],"id":6,"left_children":[1,3,5,7,9,11,13,15,17,19,21,23,25,27,29,-1,31,33,35,37,39,41,43,45,47,49,51,53,55,57,59,-1,-1,-1,-1,-1,-1,-1,-1,-1,-1,-1,-1,-1,-1,-1,-1,-1,-1,-1,-1,-1,-1,-1,-1,-1,-1,-1,-1,-1,-1],"loss_changes":[1.5679417E3,5.6029297E1,6.680879E1,3.19136E0,4.45614E1,2.05766E1,4.9167323E0,1.2156172E0,4.2812708E-1,1.7093262E1,2.8339111E1,6.3471375E0,6.7885017E0,9.028053E-1,7.325433E-1,0E0,5.448369E-1,2.1163295E-1,8.388984E-2,1.1799028E0,4.9315186E0,1.28376465E1,1.0921936E1,1.1593292E1,9.79715E0,2.547903E0,8.62133E-1,7.680292E-1,1.0800252E0,8.8293326E-1,2.9824936E-1,0E0,0E0,0E0,0E0,0E0,0E0,0E0,0E0,0E0,0E0,0E0,0E0,0E0,0E0,0E0,0E0,0E0,0E0,0E0,0E0,0E0,0E0,0E0,0E0,0E0,0E0,0E0,0E0,0E0,0E0],"parents":[2147483647,0,0,1,1,2,2,3,3,4,4,5,5,6,6,7,7,8,8,9,9,10,10,11,11,12,12,13,13,14,14,16,16,17,17,18,18,19,19,20,20,21,21,22,22,23,23,24,24,25,25,26,26,27,27,28,28,29,29,30,30],"right_children":[2,4,6,8,10,12,14,16,18,20,22,24,26,28,30,-1,32,34,36,38,40,42,44,46,48,50,52,54,56,58,60,-1,-1,-1,-1,-1,-1,-1,-1,-1,-1,-1,-1,-1,-1,-1,-1,-1,-1,-1,-1,-1,-1,-1,-1,-1,-1,-1,-1,-1,-1],"split_conditions":[7E1,5.52E1,4.96E0,5.38E1,6.58E1,1.02E0,7.53E1,4.91E0,5.21E0,3.42E0,7.1E-1,4.89E0,7.6E1,4.45E0,8.06E1,5.162555E-2,2E-1,5.11E0,2E-1,3.62E0,6.29E1,4.56E0,3.75E0,7.33E1,4.9E-1,4.51E0,7.83E1,7.177E1,5.3E0,7.56E1,7.3E0,-2.1828495E-3,2.7202994E-2,-5.360089E-4,1.742859E-2,-4.19661E-3,-1.8326622E-2,1.3748936E-2,-2.0572526E-2,-7.2753996E-2,-6.389575E-2,-5.6280028E-2,-2.780602E-2,3.9354343E-2,-6.39207E-2,1.2558335E-2,4.0145393E-2,4.8453644E-2,2.9522423E-2,-3.239485E-3,1.7063107E-2,2.6313538E-2,4.153392E-2,-4.6405476E-2,-1.9291855E-2,-4.6225812E-2,-1.5604341E-2,2.3752911E-2,-6.10817E-3,2.2668814E-2,2.0976185E-3],"split_indices":[0,0,3,0,0,3,0,2,2,2,3,2,0,2,0,0,3,2,3,3,0,2,2,0,3,2,0,0,3,0,3,0,0,0,0,0,0,0,0,0,0,0,0,0,0,0,0,0,0,0,0,0,0,0,0,0,0,0,0,0,0],"split_type":[0,0,0,0,0,0,0,0,0,0,0,0,0,0,0,0,0,0,0,0,0,0,0,0,0,0,0,0,0,0,0,0,0,0,0,0,0,0,0,0,0,0,0,0,0,0,0,0,0,0,0,0,0,0,0,0,0,0,0,0,0],"sum_hessian":[2.131567E3,1.3179839E3,8.135831E2,2.1080065E1,1.2969038E3,7.2839746E2,8.518564E1,1.084445E1,1.0235616E1,9.029932E2,3.9391058E2,4.8896716E2,2.394303E2,5.109558E1,3.4090057E1,5.620763E0,5.223687E0,5.488888E0,4.7467275E0,8.722041E0,8.942712E2,2.1285486E2,1.8105573E2,1.6312134E2,3.2584586E2,1.8293445E2,5.6495857E1,1.4697409E1,3.6398174E1,2.7410666E1,6.679392E0,2.4948301E0,2.7288573E0,3.490801E0,1.9980867E0,3.248042E0,1.4986854E0,5.7327604E0,2.9892812E0,5.2113385E2,3.731373E2,5.4400883E1,1.5845398E2,1.9735969E0,1.7908214E2,6.3152912E1,9.996842E1,2.1623029E2,1.09615555E2,1.6706055E1,1.662284E2,2.5975555E1,3.0520304E1,7.35679E0,7.3406186E0,2.5882182E0,3.3809956E1,1.7443554E0,2.566631E1,3.328865E0,3.3505266E0],"tree_param":{"num_deleted":"0","num_feature":"4","num_nodes":"61","size_leaf_vector":"1"}},{"base_weights":[-5.1190466E-1,-1.2252333E0,4.5017293E-1,3.792935E-1,-1.2577196E0,-5.5937195E-1,6.5212256E-1,7.4887955E-1,-1.596967E-1,1.6461678E-1,-1.2721957E0,-6.061217E-1,2.3294379E-1,6.1249727E-1,8.9496845E-1,5.884568E-2,3.2800648E-1,-2.1523386E-2,-7.1756266E-2,3.5520125E-2,-1.6417142E-2,-1.3649794E0,-1.0838212E0,-6.9689296E-2,-5.673061E-1,3.8311154E-1,4.5684267E-2,-1.0130071E-2,6.1624193E-1,5.925695E-1,4.7212627E-2,2.6273683E-2,5.3730346E-3,-8.786179E-3,1.7922804E-3,-9.60724E-3,2.0182103E-2,-6.8406135E-2,-4.0669744E-3,-6.551134E-2,-5.0691962E-2,-2.2112925E-2,-3.7644014E-2,2.6394753E-2,8.439782E-3,-4.165861E-3,5.3215446E-3,3.3396147E-2,2.8516576E-2,3.7353184E-2,1.63738E-2],"categories":[],"categories_nodes":[],"categories_segments":[],"categories_sizes":[],"default_left":[0,0,0,0,0,0,0,0,0,0,0,0,0,0,0,0,0,0,0,0,0,0,0,0,0,0,0,0,0,0,0,0,0,0,0,0,0,0,0,0,0,0,0,0,0,0,0,0,0,0,0],"id":7,"left_children":[1,3,5,7,9,11,13,15,17,19,21,23,25,27,29,-1,31,-1,33,-1,35,37,39,-1,41,43,45,-1,47,49,-1,-1,-1,-1,-1,-1,-1,-1,-1,-1,-1,-1,-1,-1,-1,-1,-1,-1,-1,-1,-1],"loss_changes":[1.4588406E3,6.409448E1,1.8496529E2,5.097371E0,2.484497E1,5.7518005E0,6.716858E0,2.316102E0,2.3077601E-1,1.2902297E0,1.9224243E1,3.5908127E0,2.4013239E-1,2.1156616E0,9.86557E-1,0E0,3.3328438E-1,0E0,1.1251958E-1,0E0,8.669843E-1,3.0753174E0,4.94223E0,0E0,2.8755722E0,6.446117E-2,4.9716808E-2,0E0,1.1601257E0,4.607253E-1,0E0,0E0,0E0,0E0,0E0,0E0,0E0,0E0,0E0,0E0,0E0,0E0,0E0,0E0,0E0,0E0,0E0,0E0,0E0,0E0,0E0],"parents":[2147483647,0,0,1,1,2,2,3,3,4,4,5,5,6,6,7,7,8,8,9,9,10,10,11,11,12,12,13,13,14,14,16,16,18,18,20,20,21,21,22,22,24,24,25,25,26,26,28,28,29,29],"right_children":[2,4,6,8,10,12,14,16,18,20,22,24,26,28,30,-1,32,-1,34,-1,36,38,40,-1,42,44,46,-1,48,50,-1,-1,-1,-1,-1,-1,-1,-1,-1,-1,-1,-1,-1,-1,-1,-1,-1,-1,-1,-1,-1],"split_conditions":[2.2E1,5.52E1,7E1,1.76E1,3.42E0,2.517E1,7.88E1,4.71E0,4.91E0,6.121E1,2.07E1,6.411E1,6.511E1,3.7E0,4.04E0,5.884568E-2,1.67E1,-2.1523386E-2,1.81E1,3.5520125E-2,6.744E1,7.88E1,6.41E1,-6.9689296E-2,5.41E0,5.01E0,5.11E0,-1.0130071E-2,5.21E0,3.92E0,4.7212627E-2,2.6273683E-2,5.3730346E-3,-8.786179E-3,1.7922804E-3,-9.60724E-3,2.0182103E-2,-6.8406135E-2,-4.0669744E-3,-6.551134E-2,-5.0691962E-2,-2.2112925E-2,-3.7644014E-2,2.6394753E-2,8.439782E-3,-4.165861E-3,5.3215446E-3,3.3396147E-2,2.8516576E-2,3.7353184E-2,1.63738E-2],"split_indices":[1,0,0,1,2,1,0,2,2,0,1,0,0,2,2,0,1,0,1,0,0,0,0,0,2,2,2,0,2,2,0,0,0,0,0,0,0,0,0,0,0,0,0,0,0,0,0,0,0,0,0],"split_type":[0,0,0,0,0,0,0,0,0,0,0,0,0,0,0,0,0,0,0,0,0,0,0,0,0,0,0,0,0,0,0,0,0,0,0,0,0,0,0,0,0,0,0,0,0,0,0,0,0,0,0],"sum_hessian":[2.123926E3,1.2194764E3,9.044496E2,2.3988441E1,1.195488E3,1.5047185E2,7.539777E2,1.39995365E1,9.988905E0,1.1940209E1,1.1835479E3,1.4230998E2,8.161858E0,6.5123724E2,1.027405E2,6.0501156E0,7.9494205E0,1.493962E0,8.494943E0,2.2456937E0,9.694516E0,7.8878595E2,3.9476184E2,5.0441456E0,1.3726584E2,3.9490988E0,4.212759E0,2.7353482E0,6.485019E2,1.622291E1,8.6517586E1,3.4646854E0,4.484735E0,3.998456E0,4.496487E0,7.2176566E0,2.476859E0,7.867935E2,1.9924598E0,8.9025185E1,3.0573663E2,8.402768E1,5.323816E1,1.4836435E0,2.4654553E0,1.2297373E0,2.983022E0,2.9870468E2,3.497972E2,9.100883E0,7.1220274E0],"tree_param":{"num_deleted":"0","num_feature":"4","num_nodes":"51","size_leaf_vector":"1"}},{"base_weights":[-5.0339717E-1,-1.2022179E0,4.2482245E-1,2.8577152E-1,-1.2317084E0,-5.5799824E-1,6.2334543E-1,7.5404567E-1,-2.0528983E-1,-1.3813938E0,-1.11695E0,-8.8451463E-1,-4.451349E-1,5.7435983E-1,9.0665203E-1,9.2148185E-1,8.223354E-3,-2.7754558E-2,-9.681432E-2,-9.307924E-3,-6.925883E-2,-7.978321E-2,-1.1273783E0,2.4826252E-1,-9.858682E-1,-2.3282466E-2,-6.1326015E-1,3.3179935E-2,5.7705176E-1,6.34916E-1,9.4448346E-1,5.149243E-2,5.3977943E-3,-8.137286E-3,1.5436611E-3,-1.2021652E-2,9.043743E-4,-6.1749425E-2,-5.107681E-2,-1.7417205E-2,4.3286696E-2,-5.8321666E-2,-3.419309E-2,-1.3471353E-2,1.906534E-2,-3.3156555E-2,6.6198655E-3,1.2871648E-2,-9.048022E-3,3.7158303E-2,2.8206572E-2,1.7241737E-2,4.6418708E-2,4.9089167E-2,3.0233731E-2],"categories":[],"categories_nodes":[],"categories_segments":[],"categories_sizes":[],"default_left":[0,0,0,0,0,0,0,0,0,0,0,0,0,0,0,0,0,0,0,0,0,0,0,0,0,0,0,0,0,0,0,0,0,0,0,0,0,0,0,0,0,0,0,0,0,0,0,0,0,0,0,0,0,0,0],"id":8,"left_children":[1,3,5,7,9,11,13,15,17,19,21,23,25,27,29,31,-1,-1,33,-1,-1,35,37,39,41,43,45,47,49,51,53,-1,-1,-1,-1,-1,-1,-1,-1,-1,-1,-1,-1,-1,-1,-1,-1,-1,-1,-1,-1,-1,-1,-1,-1],"loss_changes":[1.3551072E3,5.2642456E1,1.7549518E2,5.6666465E0,1.8531738E1,5.184902E0,9.850159E0,1.0807757E0,4.200446E-1,2.0159912E0,7.121399E0,4.592863E0,8.107119E0,9.1300964E-1,5.150757E-1,7.2678566E-1,0E0,0E0,9.5456414E-2,0E0,0E0,1.2562263E-1,6.2558594E0,1.741632E0,1.1089096E0,3.455922E0,3.1310616E0,2.4962202E-1,9.4711304E-1,1.0676513E0,5.86792E-1,0E0,0E0,0E0,0E0,0E0,0E0,0E0,0E0,0E0,0E0,0E0,0E0,0E0,0E0,0E0,0E0,0E0,0E0,0E0,0E0,0E0,0E0,0E0,0E0],"parents":[2147483647,0,0,1,1,2,2,3,3,4,4,5,5,6,6,7,7,8,8,9,9,10,10,11,11,12,12,13,13,14,14,15,15,18,18,21,21,22,22,23,23,24,24,25,25,26,26,27,27,28,28,29,29,30,30],"right_children":[2,4,6,8,10,12,14,16,18,20,22,24,26,28,30,32,-1,-1,34,-1,-1,36,38,40,42,44,46,48,50,52,54,-1,-1,-1,-1,-1,-1,-1,-1,-1,-1,-1,-1,-1,-1,-1,-1,-1,-1,-1,-1,-1,-1,-1,-1],"split_conditions":[2.2E1,5.52E1,7E1,1.76E1,6.29E1,4.89E0,7.88E1,5.38E1,4.91E0,3.42E0,3.42E0,3.82E0,5.21E0,3.7E0,4.04E0,5.41E0,8.223354E-3,-2.7754558E-2,5.61E0,-9.307924E-3,-6.925883E-2,6.411E1,5.2E0,2.213E1,4.6E0,2.271E1,2.474E1,3.42E0,4.1E0,8.19E1,2.74E1,5.149243E-2,5.3977943E-3,-8.137286E-3,1.5436611E-3,-1.2021652E-2,9.043743E-4,-6.1749425E-2,-5.107681E-2,-1.7417205E-2,4.3286696E-2,-5.8321666E-2,-3.419309E-2,-1.3471353E-2,1.906534E-2,-3.3156555E-2,6.6198655E-3,1.2871648E-2,-9.048022E-3,3.7158303E-2,2.8206572E-2,1.7241737E-2,4.6418708E-2,4.9089167E-2,3.0233731E-2],"split_indices":[1,0,0,1,0,2,0,0,2,2,2,2,2,2,2,2,0,0,2,0,0,0,2,1,2,1,1,2,2,0,1,0,0,0,0,0,0,0,0,0,0,0,0,0,0,0,0,0,0,0,0,0,0,0,0],"split_type":[0,0,0,0,0,0,0,0,0,0,0,0,0,0,0,0,0,0,0,0,0,0,0,0,0,0,0,0,0,0,0,0,0,0,0,0,0,0,0,0,0,0,0,0,0,0,0,0,0,0,0,0,0,0,0],"sum_hessian":[2.0873022E3,1.1906287E3,8.966735E2,2.2969631E1,1.167659E3,1.5038033E2,7.462932E2,1.1483483E1,1.1486147E1,5.0192908E2,6.6573004E2,3.6871925E1,1.135084E2,6.388577E2,1.0743548E2,8.505135E0,2.9783487E0,1.7442513E0,9.741896E0,1.7418959E0,5.0018716E2,6.713189E0,6.5901685E2,2.9090862E0,3.396284E1,3.2670784E1,8.0837616E1,3.228028E0,6.356297E2,1.5302593E1,9.213288E1,7.270723E0,1.2344123E0,6.2435036E0,3.498392E0,1.9900241E0,4.723165E0,3.2148923E2,3.3752762E2,1.7012125E0,1.2078736E0,1.9463575E1,1.4499264E1,2.0520542E1,1.2150244E1,7.587372E1,4.9638934E0,1.47803E0,1.7499982E0,4.1792446E1,5.938373E2,8.789403E0,6.51319E0,8.131765E1,1.0815228E1],"tree_param":{"num_deleted":"0","num_feature":"4","num_nodes":"55","size_leaf_vector":"1"}},{"base_weights":[-4.6736923E-1,-1.1510645E0,4.180642E-1,2.4426074E-1,-1.1807804E0,-5.1193327E-1,6.105637E-1,6.172571E-1,-2.6931852E-1,-1.2805241E0,-9.80456E-1,-5.569441E-1,2.2032277E-1,5.7172287E-1,8.6529636E-1,7.6429963E-1,2.0109406E-1,-2.6872579E-2,-1.6342548E-1,8.612625E-2,-1.2887791E0,1.3805634E-1,-9.948229E-1,-6.9442433E-1,-3.3275717E-1,4.5756558E-1,7.565343E-2,3.1631404E-1,5.8587456E-1,8.949738E-1,2.6543746E-2,4.2233065E-2,4.2122854E-3,3.01064E-3,1.6591353E-2,1.5692167E-3,-1.1875862E-2,2.4845926E-2,-1.7606238E-2,-6.4745806E-2,9.228852E-3,2.2247192E-2,-3.7373153E-3,-6.0883295E-2,-4.47233E-2,-5.183006E-2,-2.8378863E-2,9.243104E-3,-2.3873461E-2,-2.6972278E-3,3.8006008E-2,-4.7591077E-3,1.0890211E-2,-6.1374035E-4,2.0613184E-2,1.6223614E-3,2.9437363E-2,2.6016766E-2,4.6169445E-2],"categories":[],"categories_nodes":[],"categories_segments":[],"categories_sizes":[],"default_left":[0,0,0,0,0,0,0,0,0,0,0,0,0,0,0,0,0,0,0,0,0,0,0,0,0,0,0,0,0,0,0,0,0,0,0,0,0,0,0,0,0,0,0,0,0,0,0,0,0,0,0,0,0,0,0,0,0,0,0],"id":9,"left_children":[1,3,5,7,9,11,13,15,17,19,21,23,25,27,29,31,33,-1,35,37,39,41,43,45,47,49,51,53,55,57,-1,-1,-1,-1,-1,-1,-1,-1,-1,-1,-1,-1,-1,-1,-1,-1,-1,-1,-1,-1,-1,-1,-1,-1,-1,-1,-1,-1,-1],"loss_changes":[1.2464473E3,4.8455566E1,1.6099127E2,4.9654064E0,2.1475342E1,5.213711E0,6.867035E0,7.529731E-1,2.3120314E-1,8.642456E0,6.282593E0,4.2627068E0,2.9697734E-1,2.158905E0,4.8257446E-1,5.0764465E-1,7.625911E-2,0E0,1.4446044E-1,1.1611289E0,7.036255E0,4.0732384E-1,7.357422E0,3.2944908E0,4.3836155E0,5.767275E-1,1.9557112E-1,1.1470883E0,9.5602417E-1,4.4750977E-1,0E0,0E0,0E0,0E0,0E0,0E0,0E0,0E0,0E0,0E0,0E0,0E0,0E0,0E0,0E0,0E0,0E0,0E0,0E0,0E0,0E0,0E0,0E0,0E0,0E0,0E0,0E0,0E0,0E0],"parents":[2147483647,0,0,1,1,2,2,3,3,4,4,5,5,6,6,7,7,8,8,9,9,10,10,11,11,12,12,13,13,14,14,15,15,16,16,18,18,19,19,20,20,21,21,22,22,23,23,24,24,25,25,26,26,27,27,28,28,29,29],"right_children":[2,4,6,8,10,12,14,16,18,20,22,24,26,28,30,32,34,-1,36,38,40,42,44,46,48,50,52,54,56,58,-1,-1,-1,-1,-1,-1,-1,-1,-1,-1,-1,-1,-1,-1,-1,-1,-1,-1,-1,-1,-1,-1,-1,-1,-1,-1,-1,-1,-1],"split_conditions":[2.2E1,5.52E1,7E1,1.76E1,2.07E1,2.517E1,7.88E1,5.38E1,4.91E0,3.42E0,3.42E0,6.86E1,5.01E0,7.03E1,2.74E1,5.41E0,1.73E1,-2.6872579E-2,5.21E0,1.957E1,7.56E1,2.092E1,4.86E0,4.81E0,2.229E1,4.75E0,6.62E1,4.71E0,3.7E0,3.9E0,2.6543746E-2,4.2233065E-2,4.2122854E-3,3.01064E-3,1.6591353E-2,1.5692167E-3,-1.1875862E-2,2.4845926E-2,-1.7606238E-2,-6.4745806E-2,9.228852E-3,2.2247192E-2,-3.7373153E-3,-6.0883295E-2,-4.47233E-2,-5.183006E-2,-2.8378863E-2,9.243104E-3,-2.3873461E-2,-2.6972278E-3,3.8006008E-2,-4.7591077E-3,1.0890211E-2,-6.1374035E-4,2.0613184E-2,1.6223614E-3,2.9437363E-2,2.6016766E-2,4.6169445E-2],"split_indices":[1,0,0,1,1,1,0,0,2,2,2,0,2,0,1,2,1,0,2,1,0,1,2,2,1,2,0,2,2,2,0,0,0,0,0,0,0,0,0,0,0,0,0,0,0,0,0,0,0,0,0,0,0,0,0,0,0,0,0],"split_type":[0,0,0,0,0,0,0,0,0,0,0,0,0,0,0,0,0,0,0,0,0,0,0,0,0,0,0,0,0,0,0,0,0,0,0,0,0,0,0,0,0,0,0,0,0,0,0,0,0,0,0,0,0,0,0,0,0,0,0],"sum_hessian":[2.057201E3,1.1606753E3,8.965257E2,2.4052658E1,1.1366227E3,1.5346262E2,7.4306305E2,1.3816383E1,1.0236276E1,7.552057E2,3.8141696E2,1.4480128E2,8.661326E0,6.475683E2,9.549477E1,9.591048E0,4.2253356E0,1.7442423E0,8.492033E0,4.477703E0,7.5072797E2,4.727855E0,3.7668912E2,8.8457886E1,5.6343403E1,2.4616454E0,6.1996813E0,3.5222683E1,6.1234564E2,8.6171486E1,9.323276E0,8.360984E0,1.2300639E0,2.7367365E0,1.4885991E0,2.4986734E0,5.9933596E0,2.2421594E0,2.2355437E0,7.477345E2,2.9934468E0,1.4892701E0,3.238585E0,1.1350887E2,2.6318024E2,2.1983679E1,6.6474205E1,1.2249789E1,4.4093613E1,1.2202864E0,1.2413589E0,2.9658105E0,3.2338707E0,8.157747E0,2.7064934E1,3.2256274E0,6.0912E2,7.436538E0,7.873495E1],"tree_param":{"num_deleted":"0","num_feature":"4","num_nodes":"59","size_leaf_vector":"1"}},{"base_weights":[-4.5321593E-1,-1.0542781E0,4.7862074E-1,-1.1563025E0,-5.80186E-1,-8.175359E-1,5.7681924E-1,2.809562E-1,-1.1875762E0,-8.614126E-1,-4.9244618E-1,-9.1047084E-1,1.22731775E-1,5.397812E-1,8.0832934E-1,6.012916E-1,-1.4429359E-1,2.9169747E-1,-1.2031265E0,-9.5148313E-1,8.786914E-3,-4.2954883E-1,-1.058851E0,1.549633E-2,-9.586884E-1,1.7275028E-2,-2.8173454E-2,5.8039737E-1,4.9270228E-1,5.270648E-1,8.696555E-1,5.3807236E-2,1.3734992E-2,-1.2076403E-2,1.9457337E-3,3.405085E-2,5.9103463E-3,-6.4942636E-2,-5.5680245E-2,-5.2011203E-2,-1.7418213E-2,-1.5339844E-2,-3.7574094E-2,-6.0335882E-2,-1.8605262E-2,-6.284519E-2,-3.884587E-2,-2.4419702E-3,3.9386642E-4,3.1092355E-2,1.56213185E-2,2.3520838E-2,4.740539E-2,3.5354E-2,1.1229651E-2,4.5569994E-2,2.4139574E-2],"categories":[],"categories_nodes":[],"categories_segments":[],"categories_sizes":[],"default_left":[0,0,0,0,0,0,0,0,0,0,0,0,0,0,0,0,0,0,0,0,0,0,0,0,0,0,0,0,0,0,0,0,0,0,0,0,0,0,0,0,0,0,0,0,0,0,0,0,0,0,0,0,0,0,0,0,0],"id":10,"left_children":[1,3,5,7,9,11,13,15,17,19,21,23,25,27,29,31,33,35,37,39,-1,41,43,-1,45,-1,47,49,51,53,55,-1,-1,-1,-1,-1,-1,-1,-1,-1,-1,-1,-1,-1,-1,-1,-1,-1,-1,-1,-1,-1,-1,-1,-1,-1,-1],"loss_changes":[1.1435498E3,5.9350586E1,1.02411804E2,4.6187622E1,5.047653E0,5.0767403E0,5.952591E0,3.1563587E0,2.3322266E1,4.9687805E0,5.649925E0,3.3468246E0,2.111646E-1,9.480438E-1,1.2795029E0,1.7275639E0,1.9623224E-1,6.755283E-1,7.024048E0,2.1771202E0,0E0,5.9308987E0,1.2208557E0,0E0,1.7393036E0,0E0,3.734904E-3,3.591423E0,2.6545792E0,9.6143293E-1,8.7096405E-1,0E0,0E0,0E0,0E0,0E0,0E0,0E0,0E0,0E0,0E0,0E0,0E0,0E0,0E0,0E0,0E0,0E0,0E0,0E0,0E0,0E0,0E0,0E0,0E0,0E0,0E0],"parents":[2147483647,0,0,1,1,2,2,3,3,4,4,5,5,6,6,7,7,8,8,9,9,10,10,11,11,12,12,13,13,14,14,15,15,16,16,17,17,18,18,19,19,21,21,22,22,24,24,26,26,27,27,28,28,29,29,30,30],"right_children":[2,4,6,8,10,12,14,16,18,20,22,24,26,28,30,32,34,36,38,40,-1,42,44,-1,46,-1,48,50,52,54,56,-1,-1,-1,-1,-1,-1,-1,-1,-1,-1,-1,-1,-1,-1,-1,-1,-1,-1,-1,-1,-1,-1,-1,-1,-1,-1],"split_conditions":[7E1,2.16E1,2.2E1,5.52E1,6.603E1,7.88E1,7.88E1,1.76E1,3.42E0,2.74E1,6.97E1,3.75E0,4.81E0,5.38E0,4.04E0,4.41E0,5.61E0,6.121E1,6.29E1,5.81E0,8.786914E-3,5.66E0,2.324E1,1.549633E-2,4.43E0,1.7275028E-2,1.981E1,2.46E1,2.55E1,3.92E0,2.74E1,5.3807236E-2,1.3734992E-2,-1.2076403E-2,1.9457337E-3,3.405085E-2,5.9103463E-3,-6.4942636E-2,-5.5680245E-2,-5.2011203E-2,-1.7418213E-2,-1.5339844E-2,-3.7574094E-2,-6.0335882E-2,-1.8605262E-2,-6.284519E-2,-3.884587E-2,-2.4419702E-3,3.9386642E-4,3.1092355E-2,1.56213185E-2,2.3520838E-2,4.740539E-2,3.5354E-2,1.1229651E-2,4.5569994E-2,2.4139574E-2],"split_indices":[0,1,1,0,0,0,0,1,2,1,0,2,2,2,2,2,2,0,0,2,0,2,1,0,2,0,1,1,1,2,1,0,0,0,0,0,0,0,0,0,0,0,0,0,0,0,0,0,0,0,0,0,0,0,0,0,0],"split_type":[0,0,0,0,0,0,0,0,0,0,0,0,0,0,0,0,0,0,0,0,0,0,0,0,0,0,0,0,0,0,0,0,0,0,0,0,0,0,0,0,0,0,0,0,0,0,0,0,0,0,0,0,0,0,0,0,0],"sum_hessian":[2.0398174E3,1.2399083E3,7.9990906E2,1.0191492E3,2.2075917E2,5.5818317E1,7.440907E2,2.1533688E1,9.976155E2,5.0399437E1,1.7035974E2,5.0826385E1,4.9919324E0,6.443381E2,9.9752625E1,1.2045779E1,9.487907E0,1.0193261E1,9.8742224E2,4.6448273E1,3.9511645E0,1.549153E2,1.5444443E1,1.7255155E0,4.9100872E1,1.4951894E0,3.4967432E0,3.3983E2,3.045081E2,1.9573887E1,8.0178734E1,3.9734468E0,8.072332E0,5.990326E0,3.497582E0,2.2403798E0,7.952881E0,4.7064734E2,5.167749E2,3.9858826E1,6.589445E0,1.1356597E2,4.1349327E1,1.2085171E1,3.3592715E0,1.6354588E1,3.274628E1,1.997148E0,1.4995949E0,2.93163E2,4.6666996E1,2.922401E2,1.226799E1,1.1432307E1,8.141579E0,7.1145905E1,9.032833E0],"tree_param":{"num_deleted":"0","num_feature":"4","num_nodes":"57","size_leaf_vector":"1"}},{"base_weights":[-4.4713184E-1,-1.08992E0,3.6655542E-1,2.8601328E-1,-1.1220168E0,-4.8781103E-1,5.3721774E-1,6.539682E-1,-1.8165816E-1,-1.2061567E0,-9.1451305E-1,-5.24911E-1,1.8158714E-1,4.9778035E-1,7.849369E-1,5.0014712E-2,3.6412084E-1,-2.5645701E-2,-8.010384E-2,9.9973835E-2,-1.22097E0,-9.3609947E-1,1.2068667E-1,-3.0000782E-1,-6.193972E-1,4.0758112E-1,-1.5442379E-1,3.627226E-1,5.1456213E-1,4.799356E-1,8.462819E-1,3.137752E-2,1.9493777E-3,2.4556206E-3,-6.823417E-3,3.293215E-2,-7.7677974E-3,-6.325431E-2,-5.5876773E-2,-5.333486E-2,-3.9111618E-2,-8.74022E-3,1.6428797E-2,-3.145883E-2,-3.9273695E-4,-5.209906E-2,-2.6555581E-2,-4.9781017E-3,3.5940118E-2,-2.4388045E-2,7.186816E-3,9.119219E-3,2.1476842E-2,2.9590795E-2,2.3542296E-2,3.0972598E-2,1.1682622E-2,5.1425066E-2,3.768663E-2],"categories":[],"categories_nodes":[],"categories_segments":[],"categories_sizes":[],"default_left":[0,0,0,0,0,0,0,0,0,0,0,0,0,0,0,0,0,0,0,0,0,0,0,0,0,0,0,0,0,0,0,0,0,0,0,0,0,0,0,0,0,0,0,0,0,0,0,0,0,0,0,0,0,0,0,0,0,0,0],"id":11,"left_children":[1,3,5,7,9,11,13,15,17,19,21,23,25,27,29,-1,31,-1,33,35,37,39,41,43,45,47,49,51,53,55,57,-1,-1,-1,-1,-1,-1,-1,-1,-1,-1,-1,-1,-1,-1,-1,-1,-1,-1,-1,-1,-1,-1,-1,-1,-1,-1,-1,-1],"loss_changes":[1.0584037E3,5.024048E1,1.3054047E2,4.689934E0,1.8185791E1,3.8027878E0,6.8894653E0,1.1499476E0,3.787304E-1,1.5270142E1,7.327881E0,2.8254166E0,7.146542E-1,1.2766113E0,1.4763107E0,0E0,8.135325E-1,0E0,8.489778E-2,1.4865628E0,2.1188965E0,5.5233154E0,5.1698244E-1,4.2129827E0,3.134262E0,9.2481226E-1,4.851897E-1,8.2223797E-1,1.6526337E0,5.1352644E-1,6.1530685E-1,0E0,0E0,0E0,0E0,0E0,0E0,0E0,0E0,0E0,0E0,0E0,0E0,0E0,0E0,0E0,0E0,0E0,0E0,0E0,0E0,0E0,0E0,0E0,0E0,0E0,0E0,0E0,0E0],"parents":[2147483647,0,0,1,1,2,2,3,3,4,4,5,5,6,6,7,7,8,8,9,9,10,10,11,11,12,12,13,13,14,14,16,16,18,18,19,19,20,20,21,21,22,22,23,23,24,24,25,25,26,26,27,27,28,28,29,29,30,30],"right_children":[2,4,6,8,10,12,14,16,18,20,22,24,26,28,30,-1,32,-1,34,36,38,40,42,44,46,48,50,52,54,56,58,-1,-1,-1,-1,-1,-1,-1,-1,-1,-1,-1,-1,-1,-1,-1,-1,-1,-1,-1,-1,-1,-1,-1,-1,-1,-1,-1,-1],"split_conditions":[2.2E1,5.52E1,7E1,1.76E1,6.56E1,2.427E1,7.88E1,4.51E0,4.91E0,3.42E0,7.56E1,2.225E1,5.31E0,7.06E1,4.04E0,5.0014712E-2,1.67E1,-2.5645701E-2,1.8E1,6.121E1,2.036E1,5.2E0,2.031E1,2.204E1,4.66E0,4.8E0,2.74E1,4.95E0,2.317E1,3.92E0,2.448E1,3.137752E-2,1.9493777E-3,2.4556206E-3,-6.823417E-3,3.293215E-2,-7.7677974E-3,-6.325431E-2,-5.5876773E-2,-5.333486E-2,-3.9111618E-2,-8.74022E-3,1.6428797E-2,-3.145883E-2,-3.9273695E-4,-5.209906E-2,-2.6555581E-2,-4.9781017E-3,3.5940118E-2,-2.4388045E-2,7.186816E-3,9.119219E-3,2.1476842E-2,2.9590795E-2,2.3542296E-2,3.0972598E-2,1.1682622E-2,5.1425066E-2,3.768663E-2],"split_indices":[1,0,0,1,0,1,0,2,2,2,0,1,2,0,2,0,1,0,1,0,1,2,1,1,2,2,1,2,1,2,1,0,0,0,0,0,0,0,0,0,0,0,0,0,0,0,0,0,0,0,0,0,0,0,0,0,0,0,0],"split_type":[0,0,0,0,0,0,0,0,0,0,0,0,0,0,0,0,0,0,0,0,0,0,0,0,0,0,0,0,0,0,0,0,0,0,0,0,0,0,0,0,0,0,0,0,0,0,0,0,0,0,0,0,0,0,0,0,0,0,0],"sum_hessian":[2.021842E3,1.1293502E3,8.924919E2,2.5563702E1,1.1037865E3,1.4828616E2,7.442057E2,1.4084186E1,1.1479517E1,7.819169E2,3.2186963E2,1.407038E2,7.5823603E0,6.4459436E2,9.9611336E1,5.300155E0,8.78403E0,1.7431083E0,9.736408E0,8.70409E0,7.7321277E2,3.1538873E2,6.4808764E0,4.286011E1,9.784369E1,4.405986E0,3.1763744E0,7.374197E1,5.708524E2,1.8157515E1,8.145382E1,4.3386426E0,4.445388E0,2.9962153E0,6.7401934E0,2.2347698E0,6.4693203E0,5.3415717E2,2.3905563E2,1.673849E2,1.4800385E2,2.7422395E0,3.738637E0,1.9610916E1,2.3249197E1,1.5041989E1,8.28017E1,1.9342185E0,2.4717674E0,1.1994784E0,1.976896E0,2.0943398E1,5.279857E1,2.0176419E2,3.6908823E2,1.0623965E1,7.5335484E0,2.4029442E1,5.7424377E1],"tree_param":{"num_deleted":"0","num_feature":"4","num_nodes":"59","size_leaf_vector":"1"}},{"base_weights":[-4.217477E-1,-1.0481484E0,3.5673285E-1,2.499333E-1,-1.0760958E0,-4.7860384E-1,5.289435E-1,6.298113E-1,-2.4748999E-1,-1.1861671E0,-9.333103E-1,-5.225576E-1,2.4865805E-1,4.9870604E-1,7.1642977E-1,6.754218E-1,4.2312457E-3,3.5798523E-4,-3.2122347E-1,-1.5075931E-1,-1.1918411E0,2.2533478E-1,-9.4835824E-1,-2.9811817E-1,-6.2131417E-1,3.152093E-2,8.050322E-2,4.0223113E-1,5.2535427E-1,7.433624E-1,4.169462E-1,3.801688E-2,1.3075831E-2,-2.5340501E-2,-5.977784E-3,-1.38576925E-2,3.0360282E-3,-5.982239E-2,-2.6244947E-3,-1.08099505E-2,2.2261498E-2,-5.2960046E-2,-4.114474E-2,-2.346519E-2,7.2782785E-3,-5.4229606E-2,-2.7496383E-2,-7.066704E-3,7.2550247E-3,1.7102716E-2,3.7986826E-2,2.6864681E-2,1.4931369E-2,2.437035E-2,3.954662E-2,2.6517464E-2,1.0879772E-2],"categories":[],"categories_nodes":[],"categories_segments":[],"categories_sizes":[],"default_left":[0,0,0,0,0,0,0,0,0,0,0,0,0,0,0,0,0,0,0,0,0,0,0,0,0,0,0,0,0,0,0,0,0,0,0,0,0,0,0,0,0,0,0,0,0,0,0,0,0,0,0,0,0,0,0,0,0],"id":12,"left_children":[1,3,5,7,9,11,13,15,17,19,21,23,25,27,29,31,-1,-1,33,35,37,39,41,43,45,-1,47,49,51,53,55,-1,-1,-1,-1,-1,-1,-1,-1,-1,-1,-1,-1,-1,-1,-1,-1,-1,-1,-1,-1,-1,-1,-1,-1,-1,-1],"loss_changes":[9.7986804E2,4.0656982E1,1.291961E2,4.7429404E0,1.6024414E1,5.0440254E0,3.8583527E0,2.9211426E-1,2.1314341E-1,3.414734E0,8.56839E0,3.0351143E0,5.551872E-1,1.4433899E0,5.0457E-1,2.5168896E-1,0E0,0E0,2.6613396E-1,1.3656184E-1,3.130249E0,7.712051E-1,5.709564E0,3.5862427E0,2.7098236E0,0E0,1.3083686E-1,2.8288784E0,1.1958923E0,7.2704315E-1,1.2444651E-1,0E0,0E0,0E0,0E0,0E0,0E0,0E0,0E0,0E0,0E0,0E0,0E0,0E0,0E0,0E0,0E0,0E0,0E0,0E0,0E0,0E0,0E0,0E0,0E0,0E0,0E0],"parents":[2147483647,0,0,1,1,2,2,3,3,4,4,5,5,6,6,7,7,8,8,9,9,10,10,11,11,12,12,13,13,14,14,15,15,18,18,19,19,20,20,21,21,22,22,23,23,24,24,26,26,27,27,28,28,29,29,30,30],"right_children":[2,4,6,8,10,12,14,16,18,20,22,24,26,28,30,32,-1,-1,34,36,38,40,42,44,46,-1,48,50,52,54,56,-1,-1,-1,-1,-1,-1,-1,-1,-1,-1,-1,-1,-1,-1,-1,-1,-1,-1,-1,-1,-1,-1,-1,-1,-1,-1],"split_conditions":[2.2E1,5.52E1,7E1,1.76E1,2.04E1,2.517E1,7.88E1,5.41E0,5.38E1,3.42E0,3.42E0,2.229E1,5.01E0,7.12E1,2.74E1,5.38E1,4.2312457E-3,3.5798523E-4,5.31E0,6.23E1,7.88E1,2.069E1,5.3E0,6.86E1,4.5E0,3.152093E-2,2.74E1,2.372E1,6.01E0,4.04E0,5.07E0,3.801688E-2,1.3075831E-2,-2.5340501E-2,-5.977784E-3,-1.38576925E-2,3.0360282E-3,-5.982239E-2,-2.6244947E-3,-1.08099505E-2,2.2261498E-2,-5.2960046E-2,-4.114474E-2,-2.346519E-2,7.2782785E-3,-5.4229606E-2,-2.7496383E-2,-7.066704E-3,7.2550247E-3,1.7102716E-2,3.7986826E-2,2.6864681E-2,1.4931369E-2,2.437035E-2,3.954662E-2,2.6517464E-2,1.0879772E-2],"split_indices":[1,0,0,1,1,1,0,2,0,2,2,1,2,0,1,0,0,0,2,0,0,1,2,0,2,0,1,1,2,2,2,0,0,0,0,0,0,0,0,0,0,0,0,0,0,0,0,0,0,0,0,0,0,0,0,0,0],"split_type":[0,0,0,0,0,0,0,0,0,0,0,0,0,0,0,0,0,0,0,0,0,0,0,0,0,0,0,0,0,0,0,0,0,0,0,0,0,0,0,0,0,0,0,0,0,0,0,0,0,0,0,0,0,0,0,0,0],"sum_hessian":[2.0076388E3,1.112292E3,8.9534686E2,2.3275324E1,1.0890167E3,1.5272914E2,7.426177E2,1.3046032E1,1.0229292E1,6.1082983E2,4.781868E2,1.442901E2,8.439038E0,6.4263477E2,9.99829E1,1.1818416E1,1.227616E0,2.4995654E0,7.729727E0,3.4793608E0,6.073505E2,5.951684E0,4.7223514E2,4.5317608E1,9.897249E1,1.7399063E0,6.699132E0,1.4257236E2,5.0006244E2,9.0373436E1,9.609472E0,9.112029E0,2.706387E0,3.2373939E0,4.492333E0,1.9834021E0,1.4959588E0,6.048548E2,2.4957016E0,1.9842534E0,3.9674308E0,2.4677534E2,2.2545978E2,3.2659077E1,1.2658533E1,1.1319429E1,8.765306E1,1.2428977E0,5.4562345E0,1.2370637E2,1.8865986E1,4.737454E2,2.6317049E1,1.592629E1,7.444714E1,5.066788E0,4.5426846E0],"tree_param":{"num_deleted":"0","num_feature":"4","num_nodes":"57","size_leaf_vector":"1"}},{"base_weights":[-4.221763E-1,-9.6893775E-1,4.0107346E-1,-1.0577068E0,-5.6939E-1,-7.624654E-1,4.9950343E-1,1.9302602E-1,-1.0951108E0,-9.125814E-1,-4.5184588E-1,-8.474144E-1,1.6512349E-1,4.708198E-1,6.794751E-1,8.000814E-1,-4.2646906E-1,-1.2030002E0,-9.566414E-1,-9.455071E-1,7.899634E-3,-1.5632966E-1,-6.3916636E-1,8.769963E-3,-8.873783E-1,-2.8310737E-3,2.5161454E-1,4.590232E-1,6.572184E-1,3.7837744E-1,7.220647E-1,6.270229E-2,1.9075312E-2,-1.066359E-2,-3.8003054E-2,-1.1013673E-2,-6.036372E-2,1.3784805E-2,-4.8689824E-2,-4.723697E-3,-4.8202455E-2,-2.287301E-2,5.271749E-3,-3.5528433E-2,-1.3398272E-2,-5.1049232E-2,-2.9237092E-2,1.7891657E-2,1.1897082E-3,2.3610082E-2,6.905559E-3,1.7664816E-2,4.8663966E-2,1.0935121E-2,2.211271E-2,3.7371602E-2,2.487344E-2],"categories":[],"categories_nodes":[],"categories_segments":[],"categories_sizes":[],"default_left":[0,0,0,0,0,0,0,0,0,0,0,0,0,0,0,0,0,0,0,0,0,0,0,0,0,0,0,0,0,0,0,0,0,0,0,0,0,0,0,0,0,0,0,0,0,0,0,0,0,0,0,0,0,0,0,0,0],"id":13,"left_children":[1,3,5,7,9,11,13,15,17,19,21,23,25,27,29,31,33,35,37,39,-1,41,43,-1,45,-1,47,49,51,53,55,-1,-1,-1,-1,-1,-1,-1,-1,-1,-1,-1,-1,-1,-1,-1,-1,-1,-1,-1,-1,-1,-1,-1,-1,-1,-1],"loss_changes":[8.814532E2,4.1125366E1,8.992831E1,4.5191162E1,8.30265E0,4.9766045E0,3.4046936E0,1.1160119E1,1.2797974E1,2.0576286E0,8.9177475E0,2.4607964E0,1.2906349E-1,1.073883E0,9.697647E-1,2.3486347E0,8.9693856E-1,1.9221191E0,9.016205E0,7.3994446E-1,0E0,5.1342883E0,2.443596E0,0E0,1.6041756E0,0E0,1.00149035E-1,2.4369812E0,3.0103397E0,4.7216415E-2,1.05709076E-1,0E0,0E0,0E0,0E0,0E0,0E0,0E0,0E0,0E0,0E0,0E0,0E0,0E0,0E0,0E0,0E0,0E0,0E0,0E0,0E0,0E0,0E0,0E0,0E0,0E0,0E0],"parents":[2147483647,0,0,1,1,2,2,3,3,4,4,5,5,6,6,7,7,8,8,9,9,10,10,11,11,12,12,13,13,14,14,15,15,16,16,17,17,18,18,19,19,21,21,22,22,24,24,26,26,27,27,28,28,29,29,30,30],"right_children":[2,4,6,8,10,12,14,16,18,20,22,24,26,28,30,32,34,36,38,40,-1,42,44,-1,46,-1,48,50,52,54,56,-1,-1,-1,-1,-1,-1,-1,-1,-1,-1,-1,-1,-1,-1,-1,-1,-1,-1,-1,-1,-1,-1,-1,-1,-1,-1],"split_conditions":[7E1,2.16E1,2.2E1,5.58E1,4.89E0,7.66E1,7.88E1,1.76E1,6.36E1,2.517E1,5.38E0,3.75E0,2.031E1,2.53E1,4.04E0,4.51E0,5.52E1,3.42E0,3.42E0,3.42E0,7.899634E-3,6.76E1,2.303E1,8.769963E-3,5.26E0,-2.8310737E-3,4.87E0,7.79E1,5.46E0,8.06E1,2.74E1,6.270229E-2,1.9075312E-2,-1.066359E-2,-3.8003054E-2,-1.1013673E-2,-6.036372E-2,1.3784805E-2,-4.8689824E-2,-4.723697E-3,-4.8202455E-2,-2.287301E-2,5.271749E-3,-3.5528433E-2,-1.3398272E-2,-5.1049232E-2,-2.9237092E-2,1.7891657E-2,1.1897082E-3,2.3610082E-2,6.905559E-3,1.7664816E-2,4.8663966E-2,1.0935121E-2,2.211271E-2,3.7371602E-2,2.487344E-2],"split_indices":[0,1,1,0,2,0,0,1,0,1,2,2,1,1,2,2,0,2,2,2,0,0,1,0,2,0,2,0,2,0,1,0,0,0,0,0,0,0,0,0,0,0,0,0,0,0,0,0,0,0,0,0,0,0,0,0,0],"split_type":[0,0,0,0,0,0,0,0,0,0,0,0,0,0,0,0,0,0,0,0,0,0,0,0,0,0,0,0,0,0,0,0,0,0,0,0,0,0,0,0,0,0,0,0,0,0,0,0,0,0,0,0,0,0,0,0,0],"sum_hessian":[1.956394E3,1.1755051E3,7.8088885E2,9.604672E2,2.1503793E2,6.038091E1,7.2050793E2,2.776851E1,9.3269867E2,5.31355E1,1.6190244E2,5.539431E1,4.986598E0,6.245794E2,9.5928535E1,1.3877839E1,1.3890672E1,5.199152E2,4.1278348E2,5.1663403E1,1.4720988E0,6.3523117E1,9.837932E1,1.9555725E0,5.343874E1,1.4961449E0,3.4904532E0,5.9066095E2,3.3918476E1,1.3112274E1,8.281626E1,5.699967E0,8.177873E0,9.4747305E0,4.415941E0,2.4790804E0,5.1743616E2,5.4604454E0,4.0732303E2,1.2315869E0,5.0431816E1,2.9192665E1,3.4330452E1,8.1741684E1,1.6637634E1,3.5425594E1,1.8013145E1,1.9913356E0,1.4991177E0,5.669091E2,2.3751799E1,1.8370926E1,1.5547549E1,5.0106897E0,8.101584E0,7.232008E1,1.049618E1],"tree_param":{"num_deleted":"0","num_feature":"4","num_nodes":"57","size_leaf_vector":"1"}},{"base_weights":[-3.8936442E-1,-9.131547E-1,3.801326E-1,-1.0219023E0,-5.8474296E-1,4.7203788E-1,-3.8857275E-1,1.2215742E-1,-1.0616413E0,-2.4355645E-1,-9.8211795E-1,6.3630396E-1,3.0770606E-1,-5.5976075E-1,-1.6180177E-1,4.431801E-2,-1.2569728E-1,-1.1682724E0,-9.300379E-1,-6.841647E-1,-1.1103413E-1,-7.911916E-1,-1.2450733E0,4.7806838E-1,7.779097E-1,2.57183E-1,6.36219E-1,-7.764802E-1,-5.088646E-1,-2.309124E-1,1.1081328E-1,3.239056E-3,-3.8159348E-2,-9.722468E-3,-5.8575302E-2,-3.589717E-2,-5.3195126E-2,9.747961E-3,-3.697344E-2,1.5621398E-3,-2.7230293E-2,-4.2476173E-2,6.5752454E-3,-9.652458E-3,-6.377018E-2,7.0850174E-3,3.0820567E-2,4.52299E-2,3.322788E-2,1.8200023E-2,7.0057283E-3,2.4386857E-2,4.0763203E-2,-4.6772975E-2,-2.0861963E-2,-1.1541138E-2,-2.621526E-2,1.2098043E-2,-1.4444949E-2,1.4749828E-2,-6.978436E-3],"categories":[],"categories_nodes":[],"categories_segments":[],"categories_sizes":[],"default_left":[0,0,0,0,0,0,0,0,0,0,0,0,0,0,0,0,0,0,0,0,0,0,0,0,0,0,0,0,0,0,0,0,0,0,0,0,0,0,0,0,0,0,0,0,0,0,0,0,0,0,0,0,0,0,0,0,0,0,0,0,0],"id":14,"left_children":[1,3,5,7,9,11,13,15,17,19,21,23,25,27,29,-1,31,33,35,37,39,41,43,45,47,49,51,53,55,57,59,-1,-1,-1,-1,-1,-1,-1,-1,-1,-1,-1,-1,-1,-1,-1,-1,-1,-1,-1,-1,-1,-1,-1,-1,-1,-1,-1,-1,-1,-1],"loss_changes":[7.910205E2,4.1098267E1,5.636338E1,3.9943787E1,3.945324E1,1.898999E1,3.227394E0,5.8494844E0,1.0791443E1,9.199208E0,5.78833E0,7.5715027E0,5.7655754E0,1.3759995E-1,7.447817E-1,0E0,2.9334686E0,1.2323608E0,1.0131836E1,1.9205074E0,7.623773E0,4.466282E0,1.5090332E0,7.824192E0,2.062523E0,3.8417416E0,8.5022354E-1,2.5681973E-2,5.9348106E-2,9.138113E-1,4.2835188E-1,0E0,0E0,0E0,0E0,0E0,0E0,0E0,0E0,0E0,0E0,0E0,0E0,0E0,0E0,0E0,0E0,0E0,0E0,0E0,0E0,0E0,0E0,0E0,0E0,0E0,0E0,0E0,0E0,0E0,0E0],"parents":[2147483647,0,0,1,1,2,2,3,3,4,4,5,5,6,6,7,7,8,8,9,9,10,10,11,11,12,12,13,13,14,14,16,16,17,17,18,18,19,19,20,20,21,21,22,22,23,23,24,24,25,25,26,26,27,27,28,28,29,29,30,30],"right_children":[2,4,6,8,10,12,14,16,18,20,22,24,26,28,30,-1,32,34,36,38,40,42,44,46,48,50,52,54,56,58,60,-1,-1,-1,-1,-1,-1,-1,-1,-1,-1,-1,-1,-1,-1,-1,-1,-1,-1,-1,-1,-1,-1,-1,-1,-1,-1,-1,-1,-1,-1],"split_conditions":[7E1,6.65E1,4.93E0,5.58E1,7.1E-1,4.9E-1,7.53E1,4.51E0,6.301E1,4.5E0,3.62E0,5E0,7.83E1,4.08E0,8.06E1,4.431801E-2,5.52E1,3.42E0,3E-1,3.42E0,5.72E0,3.12E0,6.658E1,7.23E1,5.45E0,1.62E0,5.41E0,8.7E0,5.07E0,5.01E0,7.3E0,3.239056E-3,-3.8159348E-2,-9.722468E-3,-5.8575302E-2,-3.589717E-2,-5.3195126E-2,9.747961E-3,-3.697344E-2,1.5621398E-3,-2.7230293E-2,-4.2476173E-2,6.5752454E-3,-9.652458E-3,-6.377018E-2,7.0850174E-3,3.0820567E-2,4.52299E-2,3.322788E-2,1.8200023E-2,7.0057283E-3,2.4386857E-2,4.0763203E-2,-4.6772975E-2,-2.0861963E-2,-1.1541138E-2,-2.621526E-2,1.2098043E-2,-1.4444949E-2,1.4749828E-2,-6.978436E-3],"split_indices":[0,0,3,0,3,3,0,2,0,2,3,2,0,2,0,0,0,2,3,2,2,3,0,0,2,3,2,3,3,3,3,0,0,0,0,0,0,0,0,0,0,0,0,0,0,0,0,0,0,0,0,0,0,0,0,0,0,0,0,0,0],"split_type":[0,0,0,0,0,0,0,0,0,0,0,0,0,0,0,0,0,0,0,0,0,0,0,0,0,0,0,0,0,0,0,0,0,0,0,0,0,0,0,0,0,0,0,0,0,0,0,0,0,0,0,0,0,0,0,0,0,0,0,0,0],"sum_hessian":[1.9607007E3,1.1664923E3,7.9420844E2,8.7472974E2,2.9176254E2,7.0973895E2,8.446945E1,2.9294247E1,8.454355E2,1.5784749E2,1.3391507E2,3.535042E2,3.5623477E2,4.729691E1,3.7172543E1,6.5433154E0,2.275093E1,4.6267685E2,3.8275864E2,3.5535835E1,1.2231165E2,7.99059E1,5.4009163E1,1.6901575E2,1.8448845E2,3.1029617E2,4.59386E1,6.2838173E0,4.1013092E1,2.97768E1,7.395743E0,1.8208664E1,4.542268E0,1.7336348E0,4.609432E2,1.5056584E2,2.3219278E2,1.9537306E0,3.3582104E1,9.279036E1,2.9521296E1,7.522929E1,4.676612E0,1.7198582E0,5.2289307E1,4.984544E1,1.1917031E2,8.382301E1,1.00665436E2,1.6114885E2,1.4914732E2,2.7148489E1,1.8790112E1,3.2441535E0,3.0396638E0,2.9968772E0,3.8016212E1,2.9060032E0,2.6870796E1,4.158515E0,3.2372274E0],"tree_param":{"num_deleted":"0","num_feature":"4","num_nodes":"61","size_leaf_vector":"1"}},{"base_weights":[-3.8605785E-1,-9.6941423E-1,3.1857577E-1,2.2789636E-1,-9.969975E-1,-3.5589713E-1,4.5427138E-1,5.228971E-1,-1.3190977E-1,-1.0804603E0,-7.7604187E-1,-3.9546746E-1,2.9253757E-1,4.2507434E-1,6.3564867E-1,5.0811183E-2,3.3822924E-1,3.2723413E-3,-2.0711648E-1,7.796245E-2,-1.0892028E0,2.7714112E-1,-7.920563E-1,-5.6627538E-2,-3.5235298E-1,3.2224905E-2,1.17320426E-1,4.1573554E-1,6.492894E-1,4.531831E-1,6.70354E-1,2.2138974E-2,-5.125704E-3,-2.3231653E-2,-3.8337507E-3,1.8932067E-2,-1.2212264E-2,-5.4728873E-2,8.184674E-3,1.3839429E-3,2.1707041E-2,-4.9693726E-2,-3.468212E-2,-1.0515278E-2,-2.818623E-2,-2.457518E-3,1.2251324E-2,2.3307154E-2,1.7821198E-2,2.000755E-2,4.8684295E-2,3.1959165E-2,9.7453995E-3,4.9475517E-2,3.1560123E-2],"categories":[],"categories_nodes":[],"categories_segments":[],"categories_sizes":[],"default_left":[0,0,0,0,0,0,0,0,0,0,0,0,0,0,0,0,0,0,0,0,0,0,0,0,0,0,0,0,0,0,0,0,0,0,0,0,0,0,0,0,0,0,0,0,0,0,0,0,0,0,0,0,0,0,0],"id":15,"left_children":[1,3,5,7,9,11,13,15,17,19,21,23,25,27,29,-1,31,-1,33,35,37,39,41,-1,43,-1,45,47,49,51,53,-1,-1,-1,-1,-1,-1,-1,-1,-1,-1,-1,-1,-1,-1,-1,-1,-1,-1,-1,-1,-1,-1,-1,-1],"loss_changes":[7.8169836E2,3.4581116E1,7.9029785E1,2.6417265E0,1.791632E1,3.8334503E0,3.53125E0,8.879888E-1,1.8748574E-1,7.534729E0,4.982086E0,3.9541569E0,4.737534E-1,1.0310516E0,3.1371307E-1,0E0,5.677737E-1,0E0,2.574584E-1,7.166993E-1,5.0959473E0,1.8264487E-1,4.84021E0,0E0,3.810667E0,0E0,1.6447166E-1,1.6254883E0,1.4744005E0,7.723079E-1,3.7308502E-1,0E0,0E0,0E0,0E0,0E0,0E0,0E0,0E0,0E0,0E0,0E0,0E0,0E0,0E0,0E0,0E0,0E0,0E0,0E0,0E0,0E0,0E0,0E0,0E0],"parents":[2147483647,0,0,1,1,2,2,3,3,4,4,5,5,6,6,7,7,8,8,9,9,10,10,11,11,12,12,13,13,14,14,16,16,18,18,19,19,20,20,21,21,22,22,24,24,26,26,27,27,28,28,29,29,30,30],"right_children":[2,4,6,8,10,12,14,16,18,20,22,24,26,28,30,-1,32,-1,34,36,38,40,42,-1,44,-1,46,48,50,52,54,-1,-1,-1,-1,-1,-1,-1,-1,-1,-1,-1,-1,-1,-1,-1,-1,-1,-1,-1,-1,-1,-1,-1,-1],"split_conditions":[2.2E1,5.52E1,7E1,1.76E1,2.09E1,2.496E1,7.88E1,4.22E0,1.8E1,3.42E0,3.42E0,6.421E1,5.01E0,2.56E1,4.04E0,5.0811183E-2,1.73E1,3.2723413E-3,5.31E0,1.957E1,7.88E1,2.118E1,4.9E0,-5.6627538E-2,5.41E0,3.2224905E-2,6.62E1,5.38E0,5.31E0,3.92E0,4.19E0,2.2138974E-2,-5.125704E-3,-2.3231653E-2,-3.8337507E-3,1.8932067E-2,-1.2212264E-2,-5.4728873E-2,8.184674E-3,1.3839429E-3,2.1707041E-2,-4.9693726E-2,-3.468212E-2,-1.0515278E-2,-2.818623E-2,-2.457518E-3,1.2251324E-2,2.3307154E-2,1.7821198E-2,2.000755E-2,4.8684295E-2,3.1959165E-2,9.7453995E-3,4.9475517E-2,3.1560123E-2],"split_indices":[1,0,0,1,1,1,0,2,1,2,2,0,2,1,2,0,1,0,2,1,0,1,2,0,2,0,0,2,2,2,2,0,0,0,0,0,0,0,0,0,0,0,0,0,0,0,0,0,0,0,0,0,0,0,0],"split_type":[0,0,0,0,0,0,0,0,0,0,0,0,0,0,0,0,0,0,0,0,0,0,0,0,0,0,0,0,0,0,0,0,0,0,0,0,0,0,0,0,0,0,0,0,0,0,0,0,0,0,0,0,0,0,0],"sum_hessian":[1.8999481E3,1.0392181E3,8.6073004E2,2.3238522E1,1.0159796E3,1.4389238E2,7.1683765E2,1.2520136E1,1.0718386E1,7.3460376E2,2.8137585E2,1.3598415E2,7.90823E0,6.2032495E2,9.6512665E1,2.1836627E0,1.0336473E1,2.9932656E0,7.7251196E0,5.4431376E0,7.291606E2,3.9702282E0,2.7740564E2,6.1182585E0,1.2986589E2,1.7382689E0,6.169961E0,5.98261E2,2.206398E1,1.7669945E1,7.884272E1,8.350906E0,1.9855669E0,1.7359723E0,5.989147E0,2.7250345E0,2.7181034E0,7.261719E2,2.988725E0,1.9878935E0,1.9823346E0,8.7949036E1,1.894566E2,7.886287E1,5.1003017E1,2.945497E0,3.2244637E0,3.1969803E2,2.7856296E2,1.3742887E1,8.3210945E0,9.414881E0,8.255063E0,5.96263E0,7.28801E1],"tree_param":{"num_deleted":"0","num_feature":"4","num_nodes":"55","size_leaf_vector":"1"}},{"base_weights":[-3.67481E-1,-8.699701E-1,3.4911075E-1,-9.853104E-1,-6.345139E-1,5.3624547E-1,-4.0759344E-2,9.263787E-2,-1.0275098E0,-3.6181194E-1,-9.9385965E-1,6.2353843E-1,3.5858893E-1,1.4240715E-1,-4.170448E-1,4.574542E-2,-8.21463E-2,-5.5684713E-3,-1.038883E0,-7.310215E-1,-2.1280056E-1,2.8267786E-2,-1.0196552E0,4.0524554E-1,8.173088E-1,3.0109578E-1,7.6685125E-1,2.5407407E-2,3.0747557E-1,-4.7888422E-1,1.006221E-2,4.145676E-3,-4.1467395E-2,1.06112845E-2,-1.6578235E-2,-5.6253295E-2,-4.5762423E-2,1.005709E-2,-3.8690705E-2,-5.167736E-3,-2.6925897E-2,-4.372986E-2,-6.3933924E-2,4.5421594E-3,2.4735231E-2,4.580749E-2,3.0901475E-2,3.0500287E-2,1.111913E-2,1.3317778E-2,4.6250474E-2,-1.7727993E-2,3.2910295E-3,1.1553552E-2,2.5134219E-2,-2.728411E-2,-1.7230915E-2,-3.926149E-3,9.560639E-3],"categories":[],"categories_nodes":[],"categories_segments":[],"categories_sizes":[],"default_left":[0,0,0,0,0,0,0,0,0,0,0,0,0,0,0,0,0,0,0,0,0,0,0,0,0,0,0,0,0,0,0,0,0,0,0,0,0,0,0,0,0,0,0,0,0,0,0,0,0,0,0,0,0,0,0,0,0,0,0],"id":16,"left_children":[1,3,5,7,9,11,13,15,17,19,21,23,25,27,29,-1,31,33,35,37,39,-1,41,43,45,47,49,51,53,55,57,-1,-1,-1,-1,-1,-1,-1,-1,-1,-1,-1,-1,-1,-1,-1,-1,-1,-1,-1,-1,-1,-1,-1,-1,-1,-1,-1,-1],"loss_changes":[6.8319727E2,2.9657715E1,5.710649E1,3.4058777E1,3.584355E1,7.976227E0,1.7613184E1,4.2495613E0,8.346252E0,1.1486767E1,6.9645996E0,1.4608002E1,3.9133263E0,3.3149326E0,2.2139254E0,0E0,3.1362224E0,7.033031E-1,6.5426636E0,2.5665054E0,5.369221E0,0E0,4.765579E0,4.68211E0,3.099739E0,3.6674986E0,1.427638E0,1.5861393E0,9.468827E-1,4.674015E-1,2.0048547E-1,0E0,0E0,0E0,0E0,0E0,0E0,0E0,0E0,0E0,0E0,0E0,0E0,0E0,0E0,0E0,0E0,0E0,0E0,0E0,0E0,0E0,0E0,0E0,0E0,0E0,0E0,0E0,0E0],"parents":[2147483647,0,0,1,1,2,2,3,3,4,4,5,5,6,6,7,7,8,8,9,9,10,10,11,11,12,12,13,13,14,14,16,16,17,17,18,18,19,19,20,20,22,22,23,23,24,24,25,25,26,26,27,27,28,28,29,29,30,30],"right_children":[2,4,6,8,10,12,14,16,18,20,22,24,26,28,30,-1,32,34,36,38,40,-1,42,44,46,48,50,52,54,56,58,-1,-1,-1,-1,-1,-1,-1,-1,-1,-1,-1,-1,-1,-1,-1,-1,-1,-1,-1,-1,-1,-1,-1,-1,-1,-1,-1,-1],"split_conditions":[7E1,6.56E1,1.62E0,5.58E1,8.2E-1,4.9E-1,5.01E0,4.22E0,3.42E0,4.68E0,3.42E0,5E0,7.83E1,7.42E1,7.88E1,4.574542E-2,5.52E1,3.62E0,6.289E1,3.42E0,5.72E0,2.8267786E-2,4.02E0,7.15E1,5.64E0,5.21E0,5.9E-1,4.43E0,4.33E0,7.53E1,5.01E0,4.145676E-3,-4.1467395E-2,1.06112845E-2,-1.6578235E-2,-5.6253295E-2,-4.5762423E-2,1.005709E-2,-3.8690705E-2,-5.167736E-3,-2.6925897E-2,-4.372986E-2,-6.3933924E-2,4.5421594E-3,2.4735231E-2,4.580749E-2,3.0901475E-2,3.0500287E-2,1.111913E-2,1.3317778E-2,4.6250474E-2,-1.7727993E-2,3.2910295E-3,1.1553552E-2,2.5134219E-2,-2.728411E-2,-1.7230915E-2,-3.926149E-3,9.560639E-3],"split_indices":[0,0,3,0,3,3,3,2,2,2,2,2,0,0,0,0,0,3,0,2,2,0,3,0,2,2,3,2,3,0,2,0,0,0,0,0,0,0,0,0,0,0,0,0,0,0,0,0,0,0,0,0,0,0,0,0,0,0,0],"split_type":[0,0,0,0,0,0,0,0,0,0,0,0,0,0,0,0,0,0,0,0,0,0,0,0,0,0,0,0,0,0,0,0,0,0,0,0,0,0,0,0,0,0,0,0,0,0,0,0,0,0,0,0,0,0,0,0,0,0,0],"sum_hessian":[1.8955076E3,1.1140785E3,7.8142914E2,7.456369E2,3.684415E2,5.2774164E2,2.5368747E2,2.8045427E1,7.175915E2,2.106155E2,1.5782602E2,3.5218365E2,1.75558E2,1.7104736E2,8.264011E1,4.1740665E0,2.387136E1,7.9145913E0,7.096769E2,5.943815E1,1.5117734E2,2.2281544E0,1.5559785E2,1.6706604E2,1.8511761E2,1.5541003E2,2.0147963E1,1.0077349E2,7.027387E1,7.208231E1,1.0557793E1,2.0280378E1,3.5909824E0,4.953926E0,2.9606652E0,4.1340295E2,2.9627396E2,2.4464319E0,5.6991714E1,1.1414146E2,3.7035892E1,1.0254641E2,5.3051453E1,3.7453133E1,1.296129E2,1.21337746E2,6.377987E1,3.0187885E1,1.2522215E2,5.482515E0,1.4665448E1,8.940546E0,9.183294E1,5.207534E1,1.8198528E1,4.608874E1,2.5993572E1,7.470933E0,3.0868602E0],"tree_param":{"num_deleted":"0","num_feature":"4","num_nodes":"59","size_leaf_vector":"1"}},{"base_weights":[-3.6298344E-1,-9.3157977E-1,2.897355E-1,1.23947136E-1,-9.6267176E-1,-3.6821008E-1,4.2258912E-1,6.5406996E-1,-3.69449E-1,-8.2794666E-1,-1.0880113E0,6.593426E-2,-7.590102E-1,6.079162E-1,3.992096E-2,4.2194262E-1,4.3973252E-2,-1.7448442E-1,-7.1265244E-1,-9.9552333E-1,-4.879507E-1,-1.0930147E0,-3.21744E-3,3.7588236E-1,-6.769794E-2,-5.239688E-1,-1.2279575E0,7.06559E-1,4.154123E-1,1.978766E-1,-3.105823E-1,2.836263E-2,8.87126E-3,-1.1836653E-2,-1.8092536E-3,-3.9357495E-2,-1.1089466E-2,-5.5117607E-2,-4.2062473E-2,-2.8870353E-2,-9.880127E-3,-5.7885904E-2,-5.2116703E-2,7.1663144E-3,3.8646117E-2,-1.67819E-2,7.7952477E-3,-3.0927325E-2,1.0387301E-2,6.599031E-3,-6.479894E-2,3.4076605E-2,4.290276E-2,1.6915265E-2,4.6035416E-2,7.549965E-3,2.1861164E-2,-1.9219663E-2,1.8044157E-3],"categories":[],"categories_nodes":[],"categories_segments":[],"categories_sizes":[],"default_left":[0,0,0,0,0,0,0,0,0,0,0,0,0,0,0,0,0,0,0,0,0,0,0,0,0,0,0,0,0,0,0,0,0,0,0,0,0,0,0,0,0,0,0,0,0,0,0,0,0,0,0,0,0,0,0,0,0,0,0],"id":17,"left_children":[1,3,5,7,9,11,13,15,17,19,21,23,25,27,29,31,-1,33,35,37,39,41,-1,43,45,47,49,51,53,55,57,-1,-1,-1,-1,-1,-1,-1,-1,-1,-1,-1,-1,-1,-1,-1,-1,-1,-1,-1,-1,-1,-1,-1,-1,-1,-1,-1,-1],"loss_changes":[6.937677E2,3.2901245E1,7.626444E1,7.9492106E0,1.5486084E1,2.4958773E1,5.1384323E1,3.9101934E-1,9.396651E-1,2.6399933E1,2.4881592E0,2.9442198E0,7.881489E0,8.978958E0,1.3215423E1,2.2261822E-1,0E0,9.0135634E-2,2.4220705E-2,4.2662354E0,3.9833488E0,4.2321777E-1,0E0,1.8635147E0,3.0531645E0,3.8146267E0,2.4909058E0,6.339264E-1,6.2289677E0,1.7784519E0,1.912458E0,0E0,0E0,0E0,0E0,0E0,0E0,0E0,0E0,0E0,0E0,0E0,0E0,0E0,0E0,0E0,0E0,0E0,0E0,0E0,0E0,0E0,0E0,0E0,0E0,0E0,0E0,0E0,0E0],"parents":[2147483647,0,0,1,1,2,2,3,3,4,4,5,5,6,6,7,7,8,8,9,9,10,10,11,11,12,12,13,13,14,14,15,15,17,17,18,18,19,19,20,20,21,21,23,23,24,24,25,25,26,26,27,27,28,28,29,29,30,30],"right_children":[2,4,6,8,10,12,14,16,18,20,22,24,26,28,30,32,-1,34,36,38,40,42,-1,44,46,48,50,52,54,56,58,-1,-1,-1,-1,-1,-1,-1,-1,-1,-1,-1,-1,-1,-1,-1,-1,-1,-1,-1,-1,-1,-1,-1,-1,-1,-1,-1,-1],"split_conditions":[2.2E1,5.58E1,7E1,1.76E1,4.9E-1,6.2E-1,1.62E0,4.9E-1,5.52E1,2.069E1,7.88E1,2.225E1,4.02E0,4.9E-1,5.07E0,1.67E1,4.3973252E-2,1.83E1,1.874E1,1.981E1,2.159E1,6.3E1,-3.21744E-3,6.86E1,6.804E1,2.332E1,6.54E1,7.95E1,2.517E1,7.79E1,2.54E1,2.836263E-2,8.87126E-3,-1.1836653E-2,-1.8092536E-3,-3.9357495E-2,-1.1089466E-2,-5.5117607E-2,-4.2062473E-2,-2.8870353E-2,-9.880127E-3,-5.7885904E-2,-5.2116703E-2,7.1663144E-3,3.8646117E-2,-1.67819E-2,7.7952477E-3,-3.0927325E-2,1.0387301E-2,6.599031E-3,-6.479894E-2,3.4076605E-2,4.290276E-2,1.6915265E-2,4.6035416E-2,7.549965E-3,2.1861164E-2,-1.9219663E-2,1.8044157E-3],"split_indices":[1,0,0,1,3,3,3,3,0,1,0,1,3,3,3,1,0,1,1,1,1,0,0,0,0,1,0,0,1,0,1,0,0,0,0,0,0,0,0,0,0,0,0,0,0,0,0,0,0,0,0,0,0,0,0,0,0,0,0],"split_type":[0,0,0,0,0,0,0,0,0,0,0,0,0,0,0,0,0,0,0,0,0,0,0,0,0,0,0,0,0,0,0,0,0,0,0,0,0,0,0,0,0,0,0,0,0,0,0,0,0,0,0,0,0,0,0,0,0,0,0],"sum_hessian":[1.8675935E3,9.9788715E2,8.6970636E2,2.8467615E1,9.6941956E2,1.4581236E2,7.2389404E2,1.3566077E1,1.4901538E1,4.7088254E2,4.9853702E2,6.946935E1,7.634301E1,4.873033E2,2.3659071E2,8.098105E0,5.4679713E0,1.0465035E1,4.4365025E0,3.1412772E2,1.5675484E2,4.9604474E2,2.4922934E0,2.0382088E1,4.9087265E1,5.226471E1,2.4078304E1,3.2043542E2,1.6686787E2,1.6339264E2,7.319807E1,4.251607E0,3.846499E0,6.7259417E0,3.739094E0,3.3278391E0,1.1086632E0,1.8197296E2,1.3215474E2,1.1907814E2,3.767669E1,2.0828543E2,2.877593E2,1.371176E1,6.6703277E0,2.2101871E1,2.6985394E1,4.641943E1,5.845277E0,1.1021883E0,2.2976116E1,2.797241E2,4.071133E1,1.4622395E2,2.064392E1,1.3799625E2,2.5396404E1,6.0259235E1,1.2938831E1],"tree_param":{"num_deleted":"0","num_feature":"4","num_nodes":"59","size_leaf_vector":"1"}},{"base_weights":[-3.345241E-1,-8.8458174E-1,2.819384E-1,1.6435568E-1,-9.0857786E-1,-3.3390385E-1,4.0469962E-1,6.511303E-1,-7.274676E-2,-1.0111884E0,-7.180753E-1,-3.741807E-1,3.3225057E-1,3.7246233E-1,6.065007E-1,8.4201765E-1,2.8048381E-3,1.0917301E-1,-3.294658E-1,4.247597E-2,-1.0200659E0,2.3825808E-1,-7.351182E-1,-6.8011034E-1,-3.0462894E-1,5.191325E-1,9.938424E-2,4.0117195E-1,2.8482887E-1,4.2044315E-1,6.741483E-1,1.1703002E-2,5.407414E-2,-2.3164875E-3,1.6125007E-2,-3.351893E-2,-5.773415E-3,2.2816876E-2,-1.1065758E-2,-5.133904E-2,6.166786E-3,-7.221989E-3,2.4875676E-2,-4.7981136E-2,-3.1898353E-2,8.002847E-3,-4.1076973E-2,-2.7291427E-4,-2.3769826E-2,9.920798E-3,3.0097758E-2,-2.5292737E-3,7.9170605E-3,2.0548789E-2,-2.0534964E-4,1.0455157E-2,3.010062E-2,2.331057E-2,-1.1556933E-2,3.507543E-2,2.1783648E-2],"categories":[],"categories_nodes":[],"categories_segments":[],"categories_sizes":[],"default_left":[0,0,0,0,0,0,0,0,0,0,0,0,0,0,0,0,0,0,0,0,0,0,0,0,0,0,0,0,0,0,0,0,0,0,0,0,0,0,0,0,0,0,0,0,0,0,0,0,0,0,0,0,0,0,0,0,0,0,0,0,0],"id":18,"left_children":[1,3,5,7,9,11,13,15,17,19,21,23,25,27,29,31,-1,33,35,37,39,41,43,45,47,49,51,53,55,57,59,-1,-1,-1,-1,-1,-1,-1,-1,-1,-1,-1,-1,-1,-1,-1,-1,-1,-1,-1,-1,-1,-1,-1,-1,-1,-1,-1,-1,-1,-1],"loss_changes":[6.289548E2,2.4817932E1,6.6289024E1,2.6749074E0,1.8006348E1,4.0411854E0,4.5234604E0,8.1116414E-1,7.929454E-1,5.8462524E0,5.6991425E0,2.7319794E0,3.3367294E-1,1.4760056E0,9.62204E-1,5.694828E-1,0E0,3.5454547E-1,4.3117136E-1,7.7167207E-1,4.850281E0,7.355635E-1,6.655884E0,3.075407E0,5.8397264E0,4.732728E-3,5.379513E-2,1.8836594E0,3.70333E0,9.739599E-1,1.5711975E-1,0E0,0E0,0E0,0E0,0E0,0E0,0E0,0E0,0E0,0E0,0E0,0E0,0E0,0E0,0E0,0E0,0E0,0E0,0E0,0E0,0E0,0E0,0E0,0E0,0E0,0E0,0E0,0E0,0E0,0E0],"parents":[2147483647,0,0,1,1,2,2,3,3,4,4,5,5,6,6,7,7,8,8,9,9,10,10,11,11,12,12,13,13,14,14,15,15,17,17,18,18,19,19,20,20,21,21,22,22,23,23,24,24,25,25,26,26,27,27,28,28,29,29,30,30],"right_children":[2,4,6,8,10,12,14,16,18,20,22,24,26,28,30,32,-1,34,36,38,40,42,44,46,48,50,52,54,56,58,60,-1,-1,-1,-1,-1,-1,-1,-1,-1,-1,-1,-1,-1,-1,-1,-1,-1,-1,-1,-1,-1,-1,-1,-1,-1,-1,-1,-1,-1,-1],"split_conditions":[2.2E1,5.52E1,7E1,1.67E1,2.069E1,2.496E1,7.88E1,4.91E0,1.8E1,3.42E0,3.7E0,4.66E0,5.31E0,2.407E1,4.4E0,3.99E0,2.8048381E-3,5.11E0,5.31E0,1.931E1,7.88E1,6.744E1,4.9E0,3.82E0,5.21E0,4.91E0,5.56E0,7.79E1,5.72E0,4.38E0,2.74E1,1.1703002E-2,5.407414E-2,-2.3164875E-3,1.6125007E-2,-3.351893E-2,-5.773415E-3,2.2816876E-2,-1.1065758E-2,-5.133904E-2,6.166786E-3,-7.221989E-3,2.4875676E-2,-4.7981136E-2,-3.1898353E-2,8.002847E-3,-4.1076973E-2,-2.7291427E-4,-2.3769826E-2,9.920798E-3,3.0097758E-2,-2.5292737E-3,7.9170605E-3,2.0548789E-2,-2.0534964E-4,1.0455157E-2,3.010062E-2,2.331057E-2,-1.1556933E-2,3.507543E-2,2.1783648E-2],"split_indices":[1,0,0,1,1,1,0,2,1,2,2,2,2,1,2,2,0,2,2,1,0,0,2,2,2,2,2,0,2,2,1,0,0,0,0,0,0,0,0,0,0,0,0,0,0,0,0,0,0,0,0,0,0,0,0,0,0,0,0,0,0],"split_type":[0,0,0,0,0,0,0,0,0,0,0,0,0,0,0,0,0,0,0,0,0,0,0,0,0,0,0,0,0,0,0,0,0,0,0,0,0,0,0,0,0,0,0,0,0,0,0,0,0,0,0,0,0,0,0,0,0,0,0,0,0],"sum_hessian":[1.8530964E3,9.7906274E2,8.7403375E2,2.1765924E1,9.572968E2,1.4498483E2,7.2904895E2,6.557365E0,1.520856E1,6.193747E2,3.379221E2,1.371319E2,7.852936E0,6.310809E2,9.796806E1,4.6504273E0,1.9069378E0,9.237379E0,5.971181E0,5.143256E0,6.1423145E2,5.6894393E0,3.3223267E2,2.3775366E1,1.1335654E2,3.674627E0,4.1783085E0,4.7265613E2,1.5842473E2,2.8045921E1,6.992214E1,1.8729023E0,2.7775252E0,5.795574E0,3.441805E0,1.4803057E0,4.4908752E0,1.7179875E0,3.4252687E0,6.107467E2,3.4847407E0,2.4765565E0,3.2128825E0,9.766443E1,2.3456824E2,3.4065957E0,2.0368769E1,4.156684E1,7.1789696E1,1.4511133E0,2.2235138E0,1.219145E0,2.9591634E0,4.6147876E2,1.1177356E1,1.2923087E2,2.9193865E1,2.6471043E1,1.5748792E0,6.0983833E1,8.93831E0],"tree_param":{"num_deleted":"0","num_feature":"4","num_nodes":"61","size_leaf_vector":"1"}},{"base_weights":[-3.525829E-1,-8.811456E-1,2.458983E-1,1.6924056E-1,-9.0472656E-1,5.6210583E-1,9.322732E-3,4.5485765E-1,-1.1933916E-1,-7.456433E-1,-1.052493E0,4.8313286E-2,6.55208E-1,-5.946219E-1,1.4013216E-1,6.1114967E-1,1.1598397E-3,-1.8239092E-2,-4.0611107E-2,-9.1635597E-1,-4.0254083E-1,-1.0555967E0,-1.7742993E-3,-4.0593648E-1,1.7131369E-1,7.3312896E-1,5.9672856E-1,-3.78724E-1,-1.167919E0,2.598874E-1,-3.5063985E-1,1.6631862E-2,3.784794E-2,1.0396864E-2,-8.77863E-3,-5.0763357E-2,-3.8454175E-2,1.727398E-2,-2.1189613E-2,-5.582709E-2,-4.9269367E-2,2.1642916E-2,-2.7348762E-2,4.0851114E-4,1.6960671E-2,2.2786558E-2,3.792677E-2,-2.8459774E-3,3.0787552E-2,1.0463885E-2,-2.6230326E-2,-1.18979225E-2,-6.0050428E-2,1.0292763E-2,2.8990189E-2,-2.0289032E-2,-1.6622652E-3],"categories":[],"categories_nodes":[],"categories_segments":[],"categories_sizes":[],"default_left":[0,0,0,0,0,0,0,0,0,0,0,0,0,0,0,0,0,0,0,0,0,0,0,0,0,0,0,0,0,0,0,0,0,0,0,0,0,0,0,0,0,0,0,0,0,0,0,0,0,0,0,0,0,0,0,0,0],"id":19,"left_children":[1,3,5,7,9,11,13,15,17,19,21,23,25,27,29,31,-1,-1,33,35,37,39,-1,41,43,45,47,49,51,53,55,-1,-1,-1,-1,-1,-1,-1,-1,-1,-1,-1,-1,-1,-1,-1,-1,-1,-1,-1,-1,-1,-1,-1,-1,-1,-1],"loss_changes":[5.670016E2,2.3724792E1,6.2912476E1,1.8459845E0,2.109845E1,1.7185951E1,3.817248E1,7.3690104E-1,2.094316E-1,2.6089401E1,1.4782715E0,3.2149904E0,9.5069885E-1,1.0205347E1,2.3430035E1,7.852602E-2,0E0,0E0,3.689968E-1,3.6017456E0,2.5605564E0,9.480591E-1,0E0,1.6909888E0,1.2299685E0,5.4397583E-1,2.2657738E0,5.597207E0,4.2362022E-1,5.4084167E0,1.3571873E0,0E0,0E0,0E0,0E0,0E0,0E0,0E0,0E0,0E0,0E0,0E0,0E0,0E0,0E0,0E0,0E0,0E0,0E0,0E0,0E0,0E0,0E0,0E0,0E0,0E0,0E0],"parents":[2147483647,0,0,1,1,2,2,3,3,4,4,5,5,6,6,7,7,8,8,9,9,10,10,11,11,12,12,13,13,14,14,15,15,18,18,19,19,20,20,21,21,23,23,24,24,25,25,26,26,27,27,28,28,29,29,30,30],"right_children":[2,4,6,8,10,12,14,16,18,20,22,24,26,28,30,32,-1,-1,34,36,38,40,-1,42,44,46,48,50,52,54,56,-1,-1,-1,-1,-1,-1,-1,-1,-1,-1,-1,-1,-1,-1,-1,-1,-1,-1,-1,-1,-1,-1,-1,-1,-1,-1],"split_conditions":[2.2E1,5.52E1,4.9E-1,5.38E1,4.9E-1,7E1,7E1,1.76E1,1.73E1,2.069E1,7.88E1,6.603E1,7.32E1,4.01E0,5.07E0,4.9E-1,1.1598397E-3,-1.8239092E-2,1.8E1,1.987E1,6.146E1,2.038E1,-1.7742993E-3,2.201E1,2.257E1,7.016E1,7.33E1,6.2E-1,6.54E1,7.79E1,2.53E1,1.6631862E-2,3.784794E-2,1.0396864E-2,-8.77863E-3,-5.0763357E-2,-3.8454175E-2,1.727398E-2,-2.1189613E-2,-5.582709E-2,-4.9269367E-2,2.1642916E-2,-2.7348762E-2,4.0851114E-4,1.6960671E-2,2.2786558E-2,3.792677E-2,-2.8459774E-3,3.0787552E-2,1.0463885E-2,-2.6230326E-2,-1.18979225E-2,-6.0050428E-2,1.0292763E-2,2.8990189E-2,-2.0289032E-2,-1.6622652E-3],"split_indices":[1,0,3,0,3,0,0,1,1,1,0,0,0,3,3,3,0,0,1,1,0,1,0,1,1,0,0,3,0,0,1,0,0,0,0,0,0,0,0,0,0,0,0,0,0,0,0,0,0,0,0,0,0,0,0,0,0],"split_type":[0,0,0,0,0,0,0,0,0,0,0,0,0,0,0,0,0,0,0,0,0,0,0,0,0,0,0,0,0,0,0,0,0,0,0,0,0,0,0,0,0,0,0,0,0,0,0,0,0,0,0,0,0,0,0,0,0],"sum_hessian":[1.7907245E3,9.506571E2,8.400674E2,2.0737812E1,9.299193E2,3.5893625E2,4.8113113E2,1.0132823E1,1.060499E1,4.5072327E2,4.79196E2,5.5296482E1,3.0363977E2,8.502529E1,3.9610587E2,7.1339974E0,2.9988253E0,1.6931094E0,8.9118805E0,2.9985693E2,1.5086636E2,4.7770023E2,1.4957917E0,1.1292424E1,4.400406E1,1.2523437E2,1.7840541E2,6.2971478E1,2.2053814E1,3.1878766E2,7.731819E1,3.5790038E0,3.5549936E0,2.945908E0,5.9659724E0,1.7585522E2,1.2400169E2,3.7462647E0,1.4712009E2,2.477439E2,2.2995631E2,1.3276238E0,9.964801E0,2.2850008E1,2.1154049E1,1.2096561E1,1.131378E2,4.9887924E0,1.7341663E2,1.2431173E1,5.0540306E1,1.0391952E0,2.1014618E1,2.7413177E2,4.4655895E1,6.563669E1,1.16814995E1],"tree_param":{"num_deleted":"0","num_feature":"4","num_nodes":"57","size_leaf_vector":"1"}},{"base_weights":[-3.2344815E-1,-8.3062893E-1,2.5251144E-1,3.2817551E-1,-8.5099655E-1,4.7958413E-1,-7.103433E-2,8.465662E-1,7.5082585E-2,-6.9938E-1,-9.952646E-1,5.515521E-1,2.543431E-1,7.792533E-2,-4.6721563E-1,5.5779643E-2,-6.279231E-3,-1.8761817E-1,2.9989693E-1,-8.8684356E-1,-3.2912996E-1,5.107949E-2,-1.0076953E0,4.145525E-1,6.4881706E-1,4.078324E-1,-7.708547E-2,-1.4797767E-1,2.4153475E-1,-7.982861E-1,-2.609324E-1,2.1290554E-2,-3.5435054E-2,-8.603881E-3,3.4292437E-2,-4.5063894E-2,9.784879E-3,-3.1700265E-2,-2.9655835E-3,1.8540312E-2,-1.2362889E-2,-4.5808714E-2,-5.36547E-2,1.2890018E-2,2.8468436E-2,3.9637033E-2,1.860028E-2,1.2304881E-2,3.3861738E-2,-1.54719865E-2,2.640906E-3,4.383753E-2,-9.021352E-3,6.539921E-3,2.0806814E-2,-9.946912E-3,-4.1176222E-2,-2.059893E-2,-3.528442E-3],"categories":[],"categories_nodes":[],"categories_segments":[],"categories_sizes":[],"default_left":[0,0,0,0,0,0,0,0,0,0,0,0,0,0,0,0,0,0,0,0,0,0,0,0,0,0,0,0,0,0,0,0,0,0,0,0,0,0,0,0,0,0,0,0,0,0,0,0,0,0,0,0,0,0,0,0,0,0,0],"id":20,"left_children":[1,3,5,7,9,11,13,15,17,19,21,23,25,27,29,-1,-1,31,33,35,37,39,41,43,45,47,49,51,53,55,57,-1,-1,-1,-1,-1,-1,-1,-1,-1,-1,-1,-1,-1,-1,-1,-1,-1,-1,-1,-1,-1,-1,-1,-1,-1,-1,-1,-1],"loss_changes":[5.087019E2,2.213153E1,5.997404E1,2.1293225E0,1.9211975E1,7.633003E0,1.9943853E1,1.5486867E0,7.843491E-1,3.0743088E1,6.086792E0,4.562233E0,6.03279E0,9.128256E0,6.0964813E0,0E0,0E0,2.3156056E0,1.3982202E0,4.8055267E0,1.2456623E1,7.0211613E-1,1.7618103E0,3.5735092E0,8.081703E0,3.3534985E0,1.1688302E0,3.614828E0,2.7115383E0,3.649025E-1,1.6491017E0,0E0,0E0,0E0,0E0,0E0,0E0,0E0,0E0,0E0,0E0,0E0,0E0,0E0,0E0,0E0,0E0,0E0,0E0,0E0,0E0,0E0,0E0,0E0,0E0,0E0,0E0,0E0,0E0],"parents":[2147483647,0,0,1,1,2,2,3,3,4,4,5,5,6,6,7,7,8,8,9,9,10,10,11,11,12,12,13,13,14,14,17,17,18,18,19,19,20,20,21,21,22,22,23,23,24,24,25,25,26,26,27,27,28,28,29,29,30,30],"right_children":[2,4,6,8,10,12,14,16,18,20,22,24,26,28,30,-1,-1,32,34,36,38,40,42,44,46,48,50,52,54,56,58,-1,-1,-1,-1,-1,-1,-1,-1,-1,-1,-1,-1,-1,-1,-1,-1,-1,-1,-1,-1,-1,-1,-1,-1,-1,-1,-1,-1],"split_conditions":[2.2E1,1.73E1,1.02E0,4.51E0,4.9E-1,5.7E0,4.98E0,1.67E1,5.07E0,2.069E1,3.42E0,4.9E0,6E-1,2.32E1,2.324E1,5.5779643E-2,-6.279231E-3,1.67E1,1.67E1,6.33E0,5E0,4.67E0,1.15E0,2.332E1,4.9E-1,2.372E1,2.283E1,3.75E0,2.457E1,3.82E0,2.484E1,2.1290554E-2,-3.5435054E-2,-8.603881E-3,3.4292437E-2,-4.5063894E-2,9.784879E-3,-3.1700265E-2,-2.9655835E-3,1.8540312E-2,-1.2362889E-2,-4.5808714E-2,-5.36547E-2,1.2890018E-2,2.8468436E-2,3.9637033E-2,1.860028E-2,1.2304881E-2,3.3861738E-2,-1.54719865E-2,2.640906E-3,4.383753E-2,-9.021352E-3,6.539921E-3,2.0806814E-2,-9.946912E-3,-4.1176222E-2,-2.059893E-2,-3.528442E-3],"split_indices":[1,1,3,2,3,2,3,1,2,1,2,2,3,1,1,0,0,1,1,2,2,3,3,1,3,1,1,2,1,2,1,0,0,0,0,0,0,0,0,0,0,0,0,0,0,0,0,0,0,0,0,0,0,0,0,0,0,0,0],"split_type":[0,0,0,0,0,0,0,0,0,0,0,0,0,0,0,0,0,0,0,0,0,0,0,0,0,0,0,0,0,0,0,0,0,0,0,0,0,0,0,0,0,0,0,0,0,0,0,0,0,0,0,0,0,0,0,0,0,0,0],"sum_hessian":[1.7397222E3,9.248617E2,8.148605E2,1.5713934E1,9.0914777E2,4.7853214E2,3.3632837E2,4.3858514E0,1.1328083E1,4.4613547E2,4.630123E2,3.6155957E2,1.1697256E2,2.4501051E2,9.1317856E1,3.3196437E0,1.0662074E0,5.3001676E0,6.027915E0,2.952502E2,1.5088524E2,5.399565E0,4.5761273E2,1.5230173E2,2.0925784E2,7.979009E1,3.718246E1,1.0295348E2,1.4205702E2,3.3954063E1,5.7363796E1,2.51835E0,2.7818177E0,2.9610453E0,3.0668697E0,2.9153046E2,3.7197506E0,7.020681E1,8.067843E1,2.489099E0,2.9104662E0,1.9697247E2,2.6064026E2,7.7002014E1,7.529971E1,1.364494E2,7.280844E1,5.1053684E1,2.8736412E1,1.2837815E1,2.4344646E1,2.361452E0,1.0059203E2,8.7996635E1,5.4060394E1,1.7309381E0,3.2223125E1,3.1335838E1,2.6027956E1],"tree_param":{"num_deleted":"0","num_feature":"4","num_nodes":"59","size_leaf_vector":"1"}},{"base_weights":[-3.014439E-1,-7.437275E-1,2.929146E-1,2.305885E-1,-7.722188E-1,4.626319E-1,-3.5922036E-2,4.7862805E-2,-1.03171915E-2,-9.3682617E-1,-5.444728E-1,4.1400596E-1,6.2893844E-1,1.1065902E-1,-3.4876454E-1,3.4542134E-1,-2.3281151E-1,3.952463E-2,-9.480057E-1,-2.9737177E-1,-8.685966E-1,4.4569805E-1,1.1685848E-1,2.7966055E-1,6.5249455E-1,-8.818798E-3,2.8756425E-1,-3.899363E-1,-6.5074556E-2,3.7983567E-3,3.4047496E-2,-2.765779E-2,-2.6077721E-3,1.3098902E-2,-1.1304914E-2,-4.278027E-2,-5.0706275E-2,-3.2864712E-2,-8.84763E-3,-3.6721498E-2,-5.6613773E-2,1.425217E-2,2.5654132E-2,1.8747387E-2,-1.9709591E-3,2.1381078E-2,9.641457E-3,2.7451871E-2,3.8238022E-2,-1.5557671E-2,1.2981099E-3,1.0349485E-2,2.6440028E-2,-2.2094214E-2,-1.3939494E-2,4.93403E-4,-6.5897885E-3],"categories":[],"categories_nodes":[],"categories_segments":[],"categories_sizes":[],"default_left":[0,0,0,0,0,0,0,0,0,0,0,0,0,0,0,0,0,0,0,0,0,0,0,0,0,0,0,0,0,0,0,0,0,0,0,0,0,0,0,0,0,0,0,0,0,0,0,0,0,0,0,0,0,0,0,0,0],"id":21,"left_children":[1,3,5,7,9,11,13,-1,15,17,19,21,23,25,27,29,31,33,35,37,39,41,43,45,47,49,51,53,55,-1,-1,-1,-1,-1,-1,-1,-1,-1,-1,-1,-1,-1,-1,-1,-1,-1,-1,-1,-1,-1,-1,-1,-1,-1,-1,-1,-1],"loss_changes":[4.6139084E2,2.8107971E1,4.182939E1,5.1488776E0,3.614557E1,3.7364044E0,1.1776686E1,0E0,1.903733E0,6.2173157E0,3.278768E1,3.5768127E0,7.2164536E-1,3.7027063E0,9.313364E-1,7.860588E-1,8.25902E-1,4.946862E-1,2.5524902E0,1.0096682E1,5.4642334E0,3.6194992E0,1.5673554E0,2.922684E-2,7.6708984E-1,1.1170614E0,1.2628512E0,2.886486E-1,5.921008E-2,0E0,0E0,0E0,0E0,0E0,0E0,0E0,0E0,0E0,0E0,0E0,0E0,0E0,0E0,0E0,0E0,0E0,0E0,0E0,0E0,0E0,0E0,0E0,0E0,0E0,0E0,0E0,0E0],"parents":[2147483647,0,0,1,1,2,2,3,3,4,4,5,5,6,6,8,8,9,9,10,10,11,11,12,12,13,13,14,14,15,15,16,16,17,17,18,18,19,19,20,20,21,21,22,22,23,23,24,24,25,25,26,26,27,27,28,28],"right_children":[2,4,6,8,10,12,14,-1,16,18,20,22,24,26,28,30,32,34,36,38,40,42,44,46,48,50,52,54,56,-1,-1,-1,-1,-1,-1,-1,-1,-1,-1,-1,-1,-1,-1,-1,-1,-1,-1,-1,-1,-1,-1,-1,-1,-1,-1,-1,-1],"split_conditions":[7E1,5.58E1,1.6E0,4.51E0,6.49E1,7.66E1,5.01E0,4.7862805E-2,5.38E1,3.42E0,7.1E-1,5.98E0,3.9E0,7.42E1,7.88E1,4.9E-1,5.01E0,3.62E0,3.6E-1,4.56E0,3.91E0,4.9E0,7.21E1,3.7E0,7.95E1,4.51E0,4.33E0,7.53E1,4.41E0,3.7983567E-3,3.4047496E-2,-2.765779E-2,-2.6077721E-3,1.3098902E-2,-1.1304914E-2,-4.278027E-2,-5.0706275E-2,-3.2864712E-2,-8.84763E-3,-3.6721498E-2,-5.6613773E-2,1.425217E-2,2.5654132E-2,1.8747387E-2,-1.9709591E-3,2.1381078E-2,9.641457E-3,2.7451871E-2,3.8238022E-2,-1.5557671E-2,1.2981099E-3,1.0349485E-2,2.6440028E-2,-2.2094214E-2,-1.3939494E-2,4.93403E-4,-6.5897885E-3],"split_indices":[0,0,3,2,0,0,3,0,0,2,3,2,2,0,0,3,2,3,3,2,3,2,0,2,0,2,3,0,2,0,0,0,0,0,0,0,0,0,0,0,0,0,0,0,0,0,0,0,0,0,0,0,0,0,0,0,0],"split_type":[0,0,0,0,0,0,0,0,0,0,0,0,0,0,0,0,0,0,0,0,0,0,0,0,0,0,0,0,0,0,0,0,0,0,0,0,0,0,0,0,0,0,0,0,0,0,0,0,0,0,0,0,0,0,0,0,0],"sum_hessian":[1.7533433E3,1.0051348E3,7.482084E2,2.8355936E1,9.767789E2,4.9323553E2,2.5497284E2,6.319683E0,2.2036253E1,5.651753E2,4.1160358E2,3.843468E2,1.0888876E2,1.7406274E2,8.0910095E1,8.266591E0,1.3769663E1,6.369485E0,5.5880585E2,2.3463966E2,1.769639E2,3.4685342E2,3.749336E1,7.692997E0,1.0119576E2,1.0446176E2,6.9600975E1,7.0328804E1,1.0581293E1,5.2648983E0,3.001692E0,4.2217007E0,9.547962E0,3.4738955E0,2.8955894E0,2.3889612E2,3.199097E2,5.770527E1,1.769344E2,1.1979461E2,5.7169292E1,1.0403908E2,2.4281435E2,1.3612825E1,2.3880535E1,1.3935876E0,6.2994094E0,5.572949E1,4.5466274E1,9.9577465E0,9.450402E1,5.3567207E1,1.6033772E1,4.5900146E1,2.4428656E1,5.38493E0,5.1963625E0],"tree_param":{"num_deleted":"0","num_feature":"4","num_nodes":"57","size_leaf_vector":"1"}},{"base_weights":[-2.9960343E-1,-8.1230664E-1,2.5338766E-1,1.4925024E-1,-8.4283775E-1,-2.254355E-1,3.5021862E-1,6.227957E-1,-2.403311E-1,-9.484554E-1,-6.579844E-1,-9.758111E-2,-4.21169E-1,3.2649407E-1,5.553899E-1,4.1129634E-2,2.694648E-1,-1.0210966E-1,-5.650239E-1,-9.5484394E-1,1.6675054E-1,3.682062E-1,-6.760594E-1,-4.7735727E-1,1.6642407E-1,-5.417952E-1,1.1591562E-1,3.124379E-1,5.7042074E-1,2.9860902E-1,6.1330616E-1,-1.845966E-2,2.4964845E-2,-6.3416763E-4,-6.731532E-3,-4.2091575E-2,-2.159276E-3,-4.8163246E-2,-1.7472794E-2,-3.315185E-3,1.6649093E-2,2.3811497E-2,-1.9921507E-3,-4.304144E-2,-2.744544E-2,3.285361E-2,-2.7212027E-2,-3.420799E-2,1.1732778E-2,-7.371028E-3,-3.574096E-2,2.5127891E-2,-2.3206323E-2,1.8660134E-2,1.2174664E-2,1.7619146E-2,5.3660333E-2,2.343285E-2,3.1997287E-3,3.323146E-2,1.2232966E-2],"categories":[],"categories_nodes":[],"categories_segments":[],"categories_sizes":[],"default_left":[0,0,0,0,0,0,0,0,0,0,0,0,0,0,0,0,0,0,0,0,0,0,0,0,0,0,0,0,0,0,0,0,0,0,0,0,0,0,0,0,0,0,0,0,0,0,0,0,0,0,0,0,0,0,0,0,0,0,0,0,0],"id":22,"left_children":[1,3,5,7,9,11,13,15,17,19,21,23,25,27,29,-1,31,33,35,37,39,41,43,45,47,49,51,53,55,57,59,-1,-1,-1,-1,-1,-1,-1,-1,-1,-1,-1,-1,-1,-1,-1,-1,-1,-1,-1,-1,-1,-1,-1,-1,-1,-1,-1,-1,-1,-1],"loss_changes":[4.901339E2,2.6456726E1,3.865955E1,5.3985558E0,1.6351013E1,3.4769087E0,3.1896362E0,7.045655E-1,6.7524314E-1,4.085144E0,6.1734314E0,8.735619E0,3.6417818E0,1.9584503E0,8.631363E-1,0E0,1.0982757E0,3.5155624E-2,6.361636E-1,2.457428E0,1.766568E-1,2.912053E-1,6.909897E0,3.0635214E0,3.1593897E0,2.9848557E0,2.6902127E0,2.386879E0,3.2112818E0,5.643145E-1,9.055538E-1,0E0,0E0,0E0,0E0,0E0,0E0,0E0,0E0,0E0,0E0,0E0,0E0,0E0,0E0,0E0,0E0,0E0,0E0,0E0,0E0,0E0,0E0,0E0,0E0,0E0,0E0,0E0,0E0,0E0,0E0],"parents":[2147483647,0,0,1,1,2,2,3,3,4,4,5,5,6,6,7,7,8,8,9,9,10,10,11,11,12,12,13,13,14,14,16,16,17,17,18,18,19,19,20,20,21,21,22,22,23,23,24,24,25,25,26,26,27,27,28,28,29,29,30,30],"right_children":[2,4,6,8,10,12,14,16,18,20,22,24,26,28,30,-1,32,34,36,38,40,42,44,46,48,50,52,54,56,58,60,-1,-1,-1,-1,-1,-1,-1,-1,-1,-1,-1,-1,-1,-1,-1,-1,-1,-1,-1,-1,-1,-1,-1,-1,-1,-1,-1,-1,-1,-1],"split_conditions":[2.2E1,5.58E1,7E1,1.73E1,2.07E1,5.41E0,7.95E1,4.91E0,5.52E1,7.56E1,3.42E0,4.89E0,2.318E1,2.56E1,4.02E0,4.1129634E-2,5.01E0,5.38E1,5.51E0,6.35E0,1.921E1,2.121E1,5.01E0,3.42E0,6.35E1,2.229E1,5.81E0,5.38E0,5.71E0,3.92E0,2.74E1,-1.845966E-2,2.4964845E-2,-6.3416763E-4,-6.731532E-3,-4.2091575E-2,-2.159276E-3,-4.8163246E-2,-1.7472794E-2,-3.315185E-3,1.6649093E-2,2.3811497E-2,-1.9921507E-3,-4.304144E-2,-2.744544E-2,3.285361E-2,-2.7212027E-2,-3.420799E-2,1.1732778E-2,-7.371028E-3,-3.574096E-2,2.5127891E-2,-2.3206323E-2,1.8660134E-2,1.2174664E-2,1.7619146E-2,5.3660333E-2,2.343285E-2,3.1997287E-3,3.323146E-2,1.2232966E-2],"split_indices":[1,0,0,1,1,2,0,2,0,0,2,2,1,1,2,0,2,0,2,2,1,1,2,2,0,1,2,2,2,2,1,0,0,0,0,0,0,0,0,0,0,0,0,0,0,0,0,0,0,0,0,0,0,0,0,0,0,0,0,0,0],"split_type":[0,0,0,0,0,0,0,0,0,0,0,0,0,0,0,0,0,0,0,0,0,0,0,0,0,0,0,0,0,0,0,0,0,0,0,0,0,0,0,0,0,0,0,0,0,0,0,0,0,0,0,0,0,0,0,0,0,0,0,0,0],"sum_hessian":[1.7270175E3,8.959097E2,8.311077E2,2.7451603E1,8.684581E2,1.395775E2,6.915302E2,1.2120372E1,1.5331231E1,5.500508E2,3.1840738E2,8.53348E1,5.42427E1,6.221773E2,6.935288E1,6.893957E0,5.2264147E0,1.1675473E1,3.6557574E0,5.470607E2,2.9900677E0,5.1759734E0,3.1323138E2,3.466313E1,5.0671673E1,4.428726E1,9.955439E0,5.9043463E2,3.174268E1,1.3896489E1,5.545639E1,1.2226238E0,4.003791E0,3.4843092E0,8.191164E0,1.9880167E0,1.6677408E0,5.389724E2,8.088308E0,1.4950966E0,1.494971E0,3.9604306E0,1.2155428E0,1.2533306E2,1.8789833E2,1.4385877E0,3.3224545E1,3.0925417E0,4.757913E1,1.4069832E1,3.0217428E1,6.053742E0,3.9016962E0,3.114889E2,2.7894577E2,2.3327396E1,8.415284E0,7.4785166E0,6.417973E0,4.7974487E1,7.4819016E0],"tree_param":{"num_deleted":"0","num_feature":"4","num_nodes":"61","size_leaf_vector":"1"}},{"base_weights":[-2.900563E-1,-7.1817493E-1,2.6379696E-1,-8.22882E-1,-4.352885E-1,4.2285618E-1,-5.5776533E-2,1.156747E-1,-8.6102337E-1,-1.4753738E-1,-8.4711534E-1,5.159606E-1,2.4719448E-1,1.0315666E-1,-3.3561003E-1,4.7594275E-2,-3.8019855E-2,-7.10093E-1,-9.75464E-1,-4.3340734E-1,-6.5654293E-3,5.122417E-1,-8.9708096E-1,3.0708563E-1,6.580927E-1,6.894025E-1,1.9579707E-1,5.2090142E-2,3.8004446E-1,-4.4719088E-1,-1.9748199E-1,1.4495176E-2,-1.3032145E-2,-4.382096E-2,-2.6120234E-2,-3.1314392E-3,-4.929422E-2,-2.5211085E-2,5.908158E-2,1.3134657E-2,-1.8177101E-2,5.2916396E-2,-1.1047566E-2,-3.596854E-2,-5.5899084E-2,1.3919113E-3,2.0365713E-2,3.8083546E-2,2.7672896E-2,-2.4187902E-3,4.063974E-2,-3.4995668E-3,1.2282054E-2,3.2775404E-4,7.182075E-3,1.3463381E-2,3.4473926E-2,-2.680925E-2,-1.7572584E-2,1.128558E-2,-1.1733231E-2],"categories":[],"categories_nodes":[],"categories_segments":[],"categories_sizes":[],"default_left":[0,0,0,0,0,0,0,0,0,0,0,0,0,0,0,0,0,0,0,0,0,0,0,0,0,0,0,0,0,0,0,0,0,0,0,0,0,0,0,0,0,0,0,0,0,0,0,0,0,0,0,0,0,0,0,0,0,0,0,0,0],"id":23,"left_children":[1,3,5,7,9,11,13,15,17,19,21,23,25,27,29,-1,31,33,35,37,39,41,43,45,47,49,51,53,55,57,59,-1,-1,-1,-1,-1,-1,-1,-1,-1,-1,-1,-1,-1,-1,-1,-1,-1,-1,-1,-1,-1,-1,-1,-1,-1,-1,-1,-1,-1,-1],"loss_changes":[4.0181183E2,2.79469E1,3.759726E1,2.502658E1,3.0718605E1,7.9461517E0,1.0998998E1,3.6442983E0,1.0867065E1,6.2206144E0,7.716614E0,9.349297E0,3.7954159E0,2.2142048E0,1.2916393E0,0E0,1.8770508E0,8.666672E0,3.5334778E0,6.4271603E0,1.01343565E1,2.0053926E0,3.2556992E0,3.687374E0,1.643898E0,1.642456E0,2.0881066E0,5.599787E-1,6.5220356E-1,2.2679901E-1,7.1069217E-1,0E0,0E0,0E0,0E0,0E0,0E0,0E0,0E0,0E0,0E0,0E0,0E0,0E0,0E0,0E0,0E0,0E0,0E0,0E0,0E0,0E0,0E0,0E0,0E0,0E0,0E0,0E0,0E0,0E0,0E0],"parents":[2147483647,0,0,1,1,2,2,3,3,4,4,5,5,6,6,7,7,8,8,9,9,10,10,11,11,12,12,13,13,14,14,16,16,17,17,18,18,19,19,20,20,21,21,22,22,23,23,24,24,25,25,26,26,27,27,28,28,29,29,30,30],"right_children":[2,4,6,8,10,12,14,16,18,20,22,24,26,28,30,-1,32,34,36,38,40,42,44,46,48,50,52,54,56,58,60,-1,-1,-1,-1,-1,-1,-1,-1,-1,-1,-1,-1,-1,-1,-1,-1,-1,-1,-1,-1,-1,-1,-1,-1,-1,-1,-1,-1,-1,-1],"split_conditions":[7E1,6.65E1,1.62E0,5.58E1,8.2E-1,4.9E-1,4.9E0,4.22E0,3.6E-1,4.88E0,3.82E0,4.8E0,5.01E0,7.79E1,7.53E1,4.7594275E-2,5.38E1,6.298E1,3.42E0,5.9E-1,5.51E0,3.31E0,3.49E0,7.2E1,5.31E0,7.1E1,5.9E-1,7.4E1,4.22E0,7.177E1,7.56E1,1.4495176E-2,-1.3032145E-2,-4.382096E-2,-2.6120234E-2,-3.1314392E-3,-4.929422E-2,-2.5211085E-2,5.908158E-2,1.3134657E-2,-1.8177101E-2,5.2916396E-2,-1.1047566E-2,-3.596854E-2,-5.5899084E-2,1.3919113E-3,2.0365713E-2,3.8083546E-2,2.7672896E-2,-2.4187902E-3,4.063974E-2,-3.4995668E-3,1.2282054E-2,3.2775404E-4,7.182075E-3,1.3463381E-2,3.4473926E-2,-2.680925E-2,-1.7572584E-2,1.128558E-2,-1.1733231E-2],"split_indices":[0,0,3,0,3,3,3,2,3,2,2,2,2,0,0,0,0,0,2,3,2,3,3,0,2,0,3,0,3,0,0,0,0,0,0,0,0,0,0,0,0,0,0,0,0,0,0,0,0,0,0,0,0,0,0,0,0,0,0,0,0],"split_type":[0,0,0,0,0,0,0,0,0,0,0,0,0,0,0,0,0,0,0,0,0,0,0,0,0,0,0,0,0,0,0,0,0,0,0,0,0,0,0,0,0,0,0,0,0,0,0,0,0,0,0,0,0,0,0,0,0,0,0,0,0],"sum_hessian":[1.692788E3,9.546015E2,7.381865E2,6.953259E2,2.5927554E2,4.926566E2,2.4552994E2,2.707406E1,6.682519E2,1.5342964E2,1.0584591E2,3.207272E2,1.7192938E2,1.5699501E2,8.8534935E1,3.3972387E0,2.3676823E1,2.9128906E2,3.769628E2,4.9987694E1,1.03441956E2,3.4246078E0,1.024213E2,1.3115079E2,1.8957642E2,1.660987E1,1.5531952E2,1.3355208E2,2.3442932E1,4.7735962E1,4.0798973E1,9.451928E0,1.4224894E1,1.5248764E2,1.3880142E2,4.3337417E0,3.7262906E2,4.8546864E1,1.4408302E0,5.911619E1,4.432576E1,1.7085898E0,1.716018E0,5.9118324E1,4.3302975E1,3.4977516E1,9.617327E1,9.21136E1,9.746281E1,2.4670455E0,1.4142824E1,2.4463898E1,1.3085562E2,8.990665E1,4.3645424E1,1.8640028E1,4.802903E0,2.2355242E1,2.5380718E1,2.8856483E0,3.7913326E1],"tree_param":{"num_deleted":"0","num_feature":"4","num_nodes":"61","size_leaf_vector":"1"}},{"base_weights":[-2.7311638E-1,-6.800277E-1,2.5308487E-1,-8.376139E-1,-4.6265677E-1,3.8082367E-1,-9.897839E-2,2.2400591E-1,-8.8523936E-1,-2.3873265E-1,-7.977961E-1,4.71161E-1,2.4755904E-1,7.538037E-2,-3.0813044E-1,7.0953995E-1,5.358639E-2,-7.7024955E-1,-9.69453E-1,-5.6247336E-1,-1.409397E-1,-6.927052E-1,-5.6667514E-2,3.3618945E-1,5.66645E-1,6.740161E-1,1.9904597E-1,-1.4571361E-2,2.565474E-1,-4.22627E-1,-1.325779E-1,1.5048881E-2,4.2424172E-2,-7.1470006E-3,6.668722E-3,-5.1342726E-2,-3.6004208E-2,-6.273627E-3,-4.8826136E-2,1.4639442E-2,-3.1152407E-2,-2.5817745E-3,-2.2566777E-2,3.1076128E-2,-3.5882417E-2,8.810896E-3,2.6150245E-2,3.1808943E-2,1.2893791E-2,-1.6117541E-2,3.9118145E-2,-3.7133943E-3,1.1748518E-2,-9.398085E-3,1.3617659E-3,6.442893E-3,2.6942624E-2,-4.695747E-3,-2.158908E-2,1.0884151E-2,-8.433152E-3],"categories":[],"categories_nodes":[],"categories_segments":[],"categories_sizes":[],"default_left":[0,0,0,0,0,0,0,0,0,0,0,0,0,0,0,0,0,0,0,0,0,0,0,0,0,0,0,0,0,0,0,0,0,0,0,0,0,0,0,0,0,0,0,0,0,0,0,0,0,0,0,0,0,0,0,0,0,0,0,0,0],"id":24,"left_children":[1,3,5,7,9,11,13,15,17,19,21,23,25,27,29,31,33,35,37,39,41,43,-1,45,47,49,51,53,55,57,59,-1,-1,-1,-1,-1,-1,-1,-1,-1,-1,-1,-1,-1,-1,-1,-1,-1,-1,-1,-1,-1,-1,-1,-1,-1,-1,-1,-1,-1,-1],"loss_changes":[3.6138596E2,3.2209167E1,3.315478E1,2.8028137E1,2.9990707E1,6.390877E0,7.2016625E0,1.9834903E0,4.3565674E0,7.5986195E0,4.880249E0,3.947113E0,4.427561E0,1.766264E0,1.7467489E0,1.0030103E-1,3.195845E-1,2.1911469E0,1.6694946E0,3.0798683E0,5.1765394E0,4.5407906E0,0E0,3.9566736E0,3.8416595E0,2.6381645E0,1.9751983E0,5.358646E-1,1.2260144E0,1.2142944E-1,5.026222E-1,0E0,0E0,0E0,0E0,0E0,0E0,0E0,0E0,0E0,0E0,0E0,0E0,0E0,0E0,0E0,0E0,0E0,0E0,0E0,0E0,0E0,0E0,0E0,0E0,0E0,0E0,0E0,0E0,0E0,0E0],"parents":[2147483647,0,0,1,1,2,2,3,3,4,4,5,5,6,6,7,7,8,8,9,9,10,10,11,11,12,12,13,13,14,14,15,15,16,16,17,17,18,18,19,19,20,20,21,21,23,23,24,24,25,25,26,26,27,27,28,28,29,29,30,30],"right_children":[2,4,6,8,10,12,14,16,18,20,22,24,26,28,30,32,34,36,38,40,42,44,-1,46,48,50,52,54,56,58,60,-1,-1,-1,-1,-1,-1,-1,-1,-1,-1,-1,-1,-1,-1,-1,-1,-1,-1,-1,-1,-1,-1,-1,-1,-1,-1,-1,-1,-1,-1],"split_conditions":[7E1,6.49E1,2.31E0,5.52E1,8.2E-1,4.9E-1,4.9E0,4.51E0,3.6E-1,4.56E0,4.99E0,4.8E0,5.01E0,7.53E1,7.53E1,3.99E0,5.01E0,4.4E0,3.42E0,3.42E0,5.71E0,3.75E0,-5.6667514E-2,7.51E1,5.83E0,7.03E1,5.9E-1,4.61E0,4.17E0,4.91E0,7.56E1,1.5048881E-2,4.2424172E-2,-7.1470006E-3,6.668722E-3,-5.1342726E-2,-3.6004208E-2,-6.273627E-3,-4.8826136E-2,1.4639442E-2,-3.1152407E-2,-2.5817745E-3,-2.2566777E-2,3.1076128E-2,-3.5882417E-2,8.810896E-3,2.6150245E-2,3.1808943E-2,1.2893791E-2,-1.6117541E-2,3.9118145E-2,-3.7133943E-3,1.1748518E-2,-9.398085E-3,1.3617659E-3,6.442893E-3,2.6942624E-2,-4.695747E-3,-2.158908E-2,1.0884151E-2,-8.433152E-3],"split_indices":[0,0,3,0,3,3,3,2,3,2,3,2,2,0,0,2,2,2,2,2,2,2,0,0,2,0,3,2,3,3,0,0,0,0,0,0,0,0,0,0,0,0,0,0,0,0,0,0,0,0,0,0,0,0,0,0,0,0,0,0,0],"split_type":[0,0,0,0,0,0,0,0,0,0,0,0,0,0,0,0,0,0,0,0,0,0,0,0,0,0,0,0,0,0,0,0,0,0,0,0,0,0,0,0,0,0,0,0,0,0,0,0,0,0,0,0,0,0,0,0,0,0,0,0,0],"sum_hessian":[1.685991E3,9.5059985E2,7.3539105E2,5.494296E2,4.0117023E2,5.3954626E2,1.9584482E2,2.3430779E1,5.2599884E2,2.4151425E2,1.5965598E2,3.2005328E2,2.1949295E2,1.07155045E2,8.868978E1,5.2655277E0,1.816525E1,2.266564E2,2.9934244E2,5.4927322E1,1.8658694E2,1.2391264E2,3.574333E1,1.344799E2,1.8557338E2,2.1101902E1,1.9839105E2,7.2217636E1,3.4937405E1,5.2827747E1,3.586203E1,2.1397614E0,3.125766E0,5.016813E0,1.3148438E1,3.3880795E1,1.927756E2,2.642391E0,2.9670004E2,3.379421E0,5.15479E1,1.4580394E2,4.0783005E1,1.8624873E0,1.22050156E2,7.349168E1,6.0988228E1,1.5059866E2,3.4974712E1,1.8758864E0,1.9226015E1,2.292321E1,1.7546783E2,1.3350672E1,5.8866966E1,2.5059278E1,9.878126E0,1.7364429E0,5.1091305E1,2.8795133E0,3.2982517E1],"tree_param":{"num_deleted":"0","num_feature":"4","num_nodes":"61","size_leaf_vector":"1"}},{"base_weights":[-2.6236185E-1,-7.420293E-1,2.1991186E-1,1.4310162E-1,-7.667748E-1,-2.3598538E-1,3.088624E-1,3.9600027E-1,-1.9866757E-1,-9.491313E-1,-6.657452E-1,-7.5308126E-1,-1.6461527E-1,2.937213E-1,4.424829E-1,3.8165703E-2,2.2339259E-1,2.373852E-3,-3.309889E-1,8.404857E-3,-9.5740336E-1,2.2796093E-1,-6.7961234E-1,-9.586634E-1,-3.9398897E-2,1.7215991E-2,-3.8616112E-1,3.712594E-1,2.570701E-1,2.54636E-1,7.7404857E-1,1.9424642E-2,2.1009764E-3,2.7224633E-3,-2.3282848E-3,-3.427984E-2,-4.430113E-3,-4.8980765E-2,-3.175852E-2,-4.1478043E-3,1.8673992E-2,-3.9921768E-2,-2.883975E-2,-9.754601E-3,-5.331397E-2,3.2359507E-2,-4.2341698E-2,-2.6746446E-2,3.4214847E-3,-2.727038E-2,-3.645258E-3,3.567217E-2,1.6727483E-2,1.1757138E-2,2.621058E-2,1.7154371E-2,5.3311684E-3,4.9338717E-2,1.0810262E-2],"categories":[],"categories_nodes":[],"categories_segments":[],"categories_sizes":[],"default_left":[0,0,0,0,0,0,0,0,0,0,0,0,0,0,0,0,0,0,0,0,0,0,0,0,0,0,0,0,0,0,0,0,0,0,0,0,0,0,0,0,0,0,0,0,0,0,0,0,0,0,0,0,0,0,0,0,0,0,0],"id":25,"left_children":[1,3,5,7,9,11,13,15,17,19,21,23,25,27,29,-1,31,33,35,-1,37,39,41,43,45,47,49,51,53,55,57,-1,-1,-1,-1,-1,-1,-1,-1,-1,-1,-1,-1,-1,-1,-1,-1,-1,-1,-1,-1,-1,-1,-1,-1,-1,-1,-1,-1],"loss_changes":[3.8519604E2,1.8392029E1,3.3760834E1,2.1136076E0,1.43307495E1,4.9021344E0,1.2772217E0,7.085433E-1,2.8485414E-1,2.815094E0,6.673233E0,2.3446102E0,4.879076E0,1.6884575E0,4.08914E0,0E0,3.08465E-1,1.5868088E-2,4.9338645E-1,0E0,1.41922E0,4.284619E-1,5.8700714E0,8.243418E-1,3.1393209E0,1.942148E0,2.6821852E0,2.2639122E0,2.39258E0,5.580559E-1,2.6819096E0,0E0,0E0,0E0,0E0,0E0,0E0,0E0,0E0,0E0,0E0,0E0,0E0,0E0,0E0,0E0,0E0,0E0,0E0,0E0,0E0,0E0,0E0,0E0,0E0,0E0,0E0,0E0,0E0],"parents":[2147483647,0,0,1,1,2,2,3,3,4,4,5,5,6,6,7,7,8,8,9,9,10,10,11,11,12,12,13,13,14,14,16,16,17,17,18,18,20,20,21,21,22,22,23,23,24,24,25,25,26,26,27,27,28,28,29,29,30,30],"right_children":[2,4,6,8,10,12,14,16,18,20,22,24,26,28,30,-1,32,34,36,-1,38,40,42,44,46,48,50,52,54,56,58,-1,-1,-1,-1,-1,-1,-1,-1,-1,-1,-1,-1,-1,-1,-1,-1,-1,-1,-1,-1,-1,-1,-1,-1,-1,-1,-1,-1],"split_conditions":[2.2E1,5.52E1,7E1,1.76E1,1.981E1,4.56E0,2.55E1,4.51E0,1.8E1,3.42E0,3.42E0,6.902E1,5.41E0,2.3E1,5.46E0,3.8165703E-2,1.67E1,5.11E0,5.31E0,8.404857E-3,6.64E1,2.069E1,5.2E0,6.54E1,6.97E1,6.432E1,2.283E1,4.1E0,7.95E1,4.84E0,8.06E1,1.9424642E-2,2.1009764E-3,2.7224633E-3,-2.3282848E-3,-3.427984E-2,-4.430113E-3,-4.8980765E-2,-3.175852E-2,-4.1478043E-3,1.8673992E-2,-3.9921768E-2,-2.883975E-2,-9.754601E-3,-5.331397E-2,3.2359507E-2,-4.2341698E-2,-2.6746446E-2,3.4214847E-3,-2.727038E-2,-3.645258E-3,3.567217E-2,1.6727483E-2,1.1757138E-2,2.621058E-2,1.7154371E-2,5.3311684E-3,4.9338717E-2,1.0810262E-2],"split_indices":[1,0,0,1,1,2,1,2,1,2,2,0,2,1,2,0,1,2,2,0,0,1,2,0,0,0,1,2,0,2,0,0,0,0,0,0,0,0,0,0,0,0,0,0,0,0,0,0,0,0,0,0,0,0,0,0,0,0,0],"split_type":[0,0,0,0,0,0,0,0,0,0,0,0,0,0,0,0,0,0,0,0,0,0,0,0,0,0,0,0,0,0,0,0,0,0,0,0,0,0,0,0,0,0,0,0,0,0,0,0,0,0,0,0,0,0,0,0,0,0,0],"sum_hessian":[1.6634241E3,8.3369543E2,8.297286E2,2.2543509E1,8.111519E2,1.3518962E2,6.94539E2,1.2865073E1,9.678434E0,2.8618982E2,5.249621E2,1.523756E1,1.19952065E2,6.267208E2,6.7818146E1,3.0187798E0,9.846293E0,4.231459E0,5.4469757E0,1.9614025E0,2.8422842E2,7.785186E0,5.171769E2,1.1563372E1,3.6741886E0,6.6387535E1,5.3564537E1,1.9822748E2,4.2849335E2,4.442012E1,2.3398026E1,4.556578E0,5.289716E0,1.995506E0,2.2359533E0,1.4691325E0,3.977843E0,2.6399115E2,2.0237284E1,2.6191068E0,5.166079E0,2.3677605E2,2.8040085E2,1.7758654E0,9.787506E0,2.0929472E0,1.5812415E0,4.833338E0,6.1554195E1,3.502047E1,1.8544065E1,1.7419523E1,1.8080795E2,3.9772754E2,3.0765808E1,2.6979422E1,1.7440699E1,1.638205E1,7.0159755E0],"tree_param":{"num_deleted":"0","num_feature":"4","num_nodes":"59","size_leaf_vector":"1"}},{"base_weights":[-2.3863055E-1,-7.122839E-1,2.3679441E-1,1.9008574E-1,-7.417667E-1,5.116085E-1,-2.5315238E-2,6.0004103E-1,-1.3745457E-1,-9.3642396E-1,-6.0242724E-1,3.0959508E-1,5.783171E-1,-6.2437195E-1,8.916886E-2,3.5460886E-2,3.0033588E-1,-3.884014E-2,-4.170344E-1,-8.806312E-1,-1.1144512E0,-4.0524915E-1,-8.03452E-1,-4.0282235E-1,3.5128677E-1,6.676934E-1,4.9697968E-1,-3.622152E-1,-1.0084664E0,1.8490437E-1,-2.510747E-1,3.1858113E-2,-1.5997408E-2,1.1442304E-3,-1.49767E-2,-3.604157E-2,1.582289E-3,-4.4461604E-2,5.4252893E-3,-1.07638305E-2,-5.6339085E-2,-3.269079E-2,-9.918361E-3,-4.0585496E-2,-2.1074372E-3,-4.8525136E-2,1.6318185E-2,2.8719192E-2,1.4518547E-2,8.046357E-3,3.4669563E-2,-6.043808E-3,2.5633827E-2,-2.1449607E-2,4.9167395E-2,7.347591E-3,-5.4963615E-2,7.070129E-3,2.9324645E-2,-1.5403288E-2,3.2632795E-4],"categories":[],"categories_nodes":[],"categories_segments":[],"categories_sizes":[],"default_left":[0,0,0,0,0,0,0,0,0,0,0,0,0,0,0,0,0,0,0,0,0,0,0,0,0,0,0,0,0,0,0,0,0,0,0,0,0,0,0,0,0,0,0,0,0,0,0,0,0,0,0,0,0,0,0,0,0,0,0,0,0],"id":26,"left_children":[1,3,5,7,9,11,13,15,17,19,21,23,25,27,29,-1,31,33,35,37,39,41,43,45,47,49,51,53,55,57,59,-1,-1,-1,-1,-1,-1,-1,-1,-1,-1,-1,-1,-1,-1,-1,-1,-1,-1,-1,-1,-1,-1,-1,-1,-1,-1,-1,-1,-1,-1],"loss_changes":[3.6472256E2,2.1722656E1,5.826389E1,3.635679E0,2.0748047E1,5.141609E0,2.8508081E1,1.7763996E-1,4.1178194E-1,2.2565918E0,1.7937317E1,3.1165886E0,1.8175049E0,6.349718E0,1.14202795E1,0E0,1.2322683E0,2.0925212E-1,5.605374E-1,2.2486725E0,5.781479E-1,1.19352E1,1.3937073E0,2.8018694E0,1.1264696E0,1.6850014E0,1.6011238E0,4.1234074E0,2.9410439E0,4.687682E0,1.1338959E0,0E0,0E0,0E0,0E0,0E0,0E0,0E0,0E0,0E0,0E0,0E0,0E0,0E0,0E0,0E0,0E0,0E0,0E0,0E0,0E0,0E0,0E0,0E0,0E0,0E0,0E0,0E0,0E0,0E0,0E0],"parents":[2147483647,0,0,1,1,2,2,3,3,4,4,5,5,6,6,7,7,8,8,9,9,10,10,11,11,12,12,13,13,14,14,16,16,17,17,18,18,19,19,20,20,21,21,22,22,23,23,24,24,25,25,26,26,27,27,28,28,29,29,30,30],"right_children":[2,4,6,8,10,12,14,16,18,20,22,24,26,28,30,-1,32,34,36,38,40,42,44,46,48,50,52,54,56,58,60,-1,-1,-1,-1,-1,-1,-1,-1,-1,-1,-1,-1,-1,-1,-1,-1,-1,-1,-1,-1,-1,-1,-1,-1,-1,-1,-1,-1,-1,-1],"split_conditions":[2.2E1,5.58E1,6.9E-1,1.73E1,6.301E1,7.07E1,7E1,1.67E1,5.52E1,1.3E0,4.9E-1,6.334E1,7.39E1,3.1E0,5.07E0,3.5460886E-2,6.2E-1,1.883E1,1.83E1,2.156E1,1.79E1,2.069E1,7.88E1,2.496E1,6.724E1,2.21E1,7.4E1,3E0,6.55E1,7.83E1,2.54E1,3.1858113E-2,-1.5997408E-2,1.1442304E-3,-1.49767E-2,-3.604157E-2,1.582289E-3,-4.4461604E-2,5.4252893E-3,-1.07638305E-2,-5.6339085E-2,-3.269079E-2,-9.918361E-3,-4.0585496E-2,-2.1074372E-3,-4.8525136E-2,1.6318185E-2,2.8719192E-2,1.4518547E-2,8.046357E-3,3.4669563E-2,-6.043808E-3,2.5633827E-2,-2.1449607E-2,4.9167395E-2,7.347591E-3,-5.4963615E-2,7.070129E-3,2.9324645E-2,-1.5403288E-2,3.2632795E-4],"split_indices":[1,0,3,1,0,0,0,1,0,3,3,0,0,3,3,0,3,1,1,1,1,1,0,1,0,1,0,3,0,0,1,0,0,0,0,0,0,0,0,0,0,0,0,0,0,0,0,0,0,0,0,0,0,0,0,0,0,0,0,0,0],"split_type":[0,0,0,0,0,0,0,0,0,0,0,0,0,0,0,0,0,0,0,0,0,0,0,0,0,0,0,0,0,0,0,0,0,0,0,0,0,0,0,0,0,0,0,0,0,0,0,0,0,0,0,0,0,0,0,0,0,0,0,0,0],"sum_hessian":[1.6178966E3,8.1020874E2,8.0768787E2,2.546174E1,7.84747E2,3.938237E2,4.1386414E2,1.0938704E1,1.4523038E1,3.2500064E2,4.5974637E2,9.916474E1,2.9465897E2,6.5687874E1,3.4817627E2,7.016389E0,3.922315E0,1.1578094E1,2.9449446E0,2.5197858E2,7.302206E1,2.3361633E2,2.2613002E2,5.003539E0,9.41612E1,1.369571E2,1.5770186E2,4.019591E1,2.549196E1,2.7207745E2,7.6098816E1,2.524339E0,1.3979759E0,1.0099129E1,1.4789644E0,1.3943108E0,1.5506337E0,2.4990657E2,2.0720055E0,1.2375227E0,7.178453E1,1.0513608E2,1.2848027E2,2.23638E2,2.4920123E0,2.6272516E0,2.3762875E0,1.8388035E1,7.577317E1,6.9603453E0,1.2999677E2,3.7411876E0,1.5396066E2,3.8944378E1,1.2515317E0,1.8124126E0,2.3679548E1,2.4670538E2,2.5372074E1,6.2152454E1,1.3946362E1],"tree_param":{"num_deleted":"0","num_feature":"4","num_nodes":"61","size_leaf_vector":"1"}},{"base_weights":[-2.4359888E-1,-6.235408E-1,2.2258359E-1,-7.626613E-1,-3.7721315E-1,2.910686E-1,-2.6857364E-1,1.3241261E-1,-8.044983E-1,-1.6278473E-1,-7.824009E-1,4.1167146E-1,1.6852488E-1,-3.6969668E-1,-8.883465E-2,6.338795E-1,-1.110491E-1,1.5788996E-1,-8.17766E-1,-3.40338E-1,-4.6597593E-2,3.6354855E-2,-8.1226903E-1,2.748438E-1,