{"learner":{"attributes":{"best_iteration":"110","best_score":"0.495754"},"feature_names":["MCV","MCH","HBA2","HBF"],"feature_types":["float","float","float","float"],"gradient_booster":{"model":{"cats":{"enc":[],"feature_segments":[],"sorted_idx":[]},"gbtree_model_param":{"num_parallel_tree":"1","num_trees":"111"},"iteration_indptr":[0,1,2,3,4,5,6,7,8,9,10,11,12,13,14,15,16,17,18,19,20,21,22,23,24,25,26,27,28,29,30,31,32,33,34,35,36,37,38,39,40,41,42,43,44,45,46,47,48,49,50,51,52,53,54,55,56,57,58,59,60,61,62,63,64,65,66,67,68,69,70,71,72,73,74,75,76,77,78,79,80,81,82,83,84,85,86,87,88,89,90,91,92,93,94,95,96,97,98,99,100,101,102,103,104,105,106,107,108,109,110,111],"tree_info":[0,0,0,0,0,0,0,0,0,0,0,0,0,0,0,0,0,0,0,0,0,0,0,0,0,0,0,0,0,0,0,0,0,0,0,0,0,0,0,0,0,0,0,0,0,0,0,0,0,0,0,0,0,0,0,0,0,0,0,0,0,0,0,0,0,0,0,0,0,0,0,0,0,0,0,0,0,0,0,0,0,0,0,0,0,0,0,0,0,0,0,0,0,0,0,0,0,0,0,0,0,0,0,0,0,0,0,0,0,0,0],"trees":[{"base_weights":[-8.3652186E-1,-1.5801499E0,5.8535945E-1,-1.6982905E0,-9.707602E-1,-1.2260778E0,7.482295E-1,2.0224719E-1,-1.7344315E0,-1.4566929E0,-8.860923E-1,-1.3458823E0,-1.8803419E-1,6.820682E-1,1.1560013E0,7.230047E-1,-5.157233E-1,-1.5189873E-1,-1.7469008E0,1.3513513E-2,-1.5400411E0,-8.4659284E-1,-8.235294E-2,-1.5436242E0,-1.0835322E0,-3.5789475E-1,1.5789473E-2,6.6183156E-1,1.0750893E0,7.654321E-1,1.2187115E0,5.636364E-2,1.2605043E-2,-9.803922E-3,-2.9032258E-2,-2.0454546E-2,6.9767446E-3,-9.2872016E-2,-8.2001954E-2,-8.337662E-2,-4.5762714E-2,-5.8998436E-2,-3.7521224E-2,-1.4285715E-2,-7.943925E-2,-4.4444446E-2,-6.734694E-2,-5E-2,-1.2658228E-3,3.3929333E-2,1.7671518E-2,1.7948719E-2,5.7029177E-2,2.2137405E-2,5E-2,6.321627E-2,3.8360655E-2],"categories":[],"categories_nodes":[],"categories_segments":[],"categories_sizes":[],"default_left":[0,0,0,0,0,0,0,0,0,0,0,0,0,0,0,0,0,0,0,0,0,0,0,0,0,0,0,0,0,0,0,0,0,0,0,0,0,0,0,0,0,0,0,0,0,0,0,0,0,0,0,0,0,0,0,0,0],"id":0,"left_children":[1,3,5,7,9,11,13,15,17,19,21,23,25,27,29,31,33,35,37,-1,39,41,-1,43,45,47,-1,49,51,53,55,-1,-1,-1,-1,-1,-1,-1,-1,-1,-1,-1,-1,-1,-1,-1,-1,-1,-1,-1,-1,-1,-1,-1,-1,-1,-1],"loss_changes":[2.2030232E3,9.68208E1,2.1213036E2,7.895068E1,7.9432526E0,7.1387177E0,1.6949188E1,8.691889E0,2.1895996E1,4.9862976E0,4.427429E0,1.0834274E0,7.388214E-1,3.8070068E0,1.2799149E0,2.250132E0,9.237051E-2,7.972576E-1,1.0114746E1,0E0,8.982773E-1,5.083725E0,0E0,1.1331406E0,1.4536476E-1,1.2426382E0,0E0,2.5655212E0,8.202534E-1,7.0681286E-1,5.983963E-1,0E0,0E0,0E0,0E0,0E0,0E0,0E0,0E0,0E0,0E0,0E0,0E0,0E0,0E0,0E0,0E0,0E0,0E0,0E0,0E0,0E0,0E0,0E0,0E0,0E0,0E0],"parents":[2147483647,0,0,1,1,2,2,3,3,4,4,5,5,6,6,7,7,8,8,9,9,10,10,11,11,12,12,13,13,14,14,15,15,16,16,17,17,18,18,20,20,21,21,23,23,24,24,25,25,27,27,28,28,29,29,30,30],"right_children":[2,4,6,8,10,12,14,16,18,20,22,24,26,28,30,32,34,36,38,-1,40,42,-1,44,46,48,-1,50,52,54,56,-1,-1,-1,-1,-1,-1,-1,-1,-1,-1,-1,-1,-1,-1,-1,-1,-1,-1,-1,-1,-1,-1,-1,-1,-1,-1],"split_conditions":[7E1,2.156E1,2.2E1,5.52E1,4.5E0,7.56E1,7.88E1,1.76E1,3.42E0,3.42E0,6.12E0,4.84E0,2.121E1,2.53E1,4.04E0,4.71E0,5.38E1,2.081E1,6.29E1,1.3513513E-2,6.91E1,6.593E1,-8.235294E-2,3.75E0,2.156E1,7.88E1,1.5789473E-2,6.01E0,4.04E0,8.19E1,2.74E1,5.636364E-2,1.2605043E-2,-9.803922E-3,-2.9032258E-2,-2.0454546E-2,6.9767446E-3,-9.2872016E-2,-8.2001954E-2,-8.337662E-2,-4.5762714E-2,-5.8998436E-2,-3.7521224E-2,-1.4285715E-2,-7.943925E-2,-4.4444446E-2,-6.734694E-2,-5E-2,-1.2658228E-3,3.3929333E-2,1.7671518E-2,1.7948719E-2,5.7029177E-2,2.2137405E-2,5E-2,6.321627E-2,3.8360655E-2],"split_indices":[0,1,1,0,2,0,0,1,2,2,2,2,1,1,2,2,0,1,0,0,0,0,0,2,1,0,0,2,2,0,1,0,0,0,0,0,0,0,0,0,0,0,0,0,0,0,0,0,0,0,0,0,0,0,0,0,0],"split_type":[0,0,0,0,0,0,0,0,0,0,0,0,0,0,0,0,0,0,0,0,0,0,0,0,0,0,0,0,0,0,0,0,0,0,0,0,0,0,0,0,0,0,0,0,0,0,0,0,0,0,0,0,0,0,0,0,0],"sum_hessian":[2.0816562E3,1.36675E3,7.1490625E2,1.1433125E3,2.234375E2,5.84375E1,6.5646875E2,2.125E1,1.1220625E3,3.075E1,1.926875E2,5.2125E1,6.3125E0,5.67125E2,8.934375E1,1.23125E1,8.9375E0,8.875E0,1.1131875E3,1.3125E0,2.94375E1,1.851875E2,7.5E0,2.69375E1,2.51875E1,4.9375E0,1.375E0,5.4190625E2,2.521875E1,1.41875E1,7.515625E1,5.875E0,6.4375E0,2.1875E0,6.75E0,4.5E0,4.375E0,5.39125E2,5.740625E2,2.30625E1,6.375E0,3.89375E1,1.4625E2,1.1875E0,2.575E1,1.7E1,8.1875E0,1E0,3.9375E0,5.1284375E2,2.90625E1,2.65625E0,2.25625E1,7.1875E0,7E0,6.6625E1,8.53125E0],"tree_param":{"num_deleted":"0","num_feature":"4","num_nodes":"57","size_leaf_vector":"1"}},{"base_weights":[-8.134414E-1,-1.4982103E0,5.171946E-1,2.1523145E-1,-1.5226825E0,7.2536653E-1,4.096669E-2,7.66447E-1,-3.7625125E-1,-1.6640184E0,-1.2101092E0,3.815496E-1,8.7787E-1,2.5324017E-1,-4.1327298E-1,5.2726924E-2,2.8507542E-2,-1.6446778E-1,-2.4270685E-2,4.7051296E-2,-1.6740023E0,-9.373758E-1,-1.5393827E0,-4.2066482E-1,5.0742185E-1,7.4848574E-1,1.0388937E0,1.574398E-1,7.749983E-1,-6.23454E-1,-1.4464479E-2,-9.135657E-3,1.3368043E-2,-2.0607091E-2,9.684445E-3,3.2182228E-2,-1.7924258E-2,-8.706833E-2,-7.754465E-2,-6.522038E-2,-3.5290405E-2,-1.4677937E-2,-7.798731E-2,-2.9118782E-2,7.968439E-3,3.4092296E-2,1.3757127E-2,4.2611104E-2,2.7313447E-2,4.7401357E-2,5.8958333E-2,-1.8002063E-2,8.884297E-3,2.8490111E-2,6.0627796E-2,-4.6813555E-2,-2.7496403E-2,-8.7184375E-3,2.3656327E-2],"categories":[],"categories_nodes":[],"categories_segments":[],"categories_sizes":[],"default_left":[0,0,0,0,0,0,0,0,0,0,0,0,0,0,0,0,0,0,0,0,0,0,0,0,0,0,0,0,0,0,0,0,0,0,0,0,0,0,0,0,0,0,0,0,0,0,0,0,0,0,0,0,0,0,0,0,0,0,0],"id":1,"left_children":[1,3,5,7,9,11,13,15,17,19,21,23,25,27,29,-1,31,33,-1,35,37,39,41,43,45,47,49,51,53,55,57,-1,-1,-1,-1,-1,-1,-1,-1,-1,-1,-1,-1,-1,-1,-1,-1,-1,-1,-1,-1,-1,-1,-1,-1,-1,-1,-1,-1],"loss_changes":[1.8985767E3,5.8000244E1,7.0200226E1,6.888465E0,5.7897705E1,2.5508148E1,2.0983637E1,2.2675924E0,1.6142869E-1,1.5986816E1,3.680774E1,1.5684454E1,6.3197327E0,7.285321E0,5.8034334E0,0E0,2.5380147E-1,5.288536E-1,0E0,1.7730197E0,4.977539E0,1.9097366E1,4.3980713E0,2.0931845E0,5.1963425E0,3.571846E0,7.837982E-1,1.3888795E0,1.3502388E0,5.290203E-1,2.0282724E0,0E0,0E0,0E0,0E0,0E0,0E0,0E0,0E0,0E0,0E0,0E0,0E0,0E0,0E0,0E0,0E0,0E0,0E0,0E0,0E0,0E0,0E0,0E0,0E0,0E0,0E0,0E0,0E0],"parents":[2147483647,0,0,1,1,2,2,3,3,4,4,5,5,6,6,7,7,8,8,9,9,10,10,11,11,12,12,13,13,14,14,16,16,17,17,19,19,20,20,21,21,22,22,23,23,24,24,25,25,26,26,27,27,28,28,29,29,30,30],"right_children":[2,4,6,8,10,12,14,16,18,20,22,24,26,28,30,-1,32,34,-1,36,38,40,42,44,46,48,50,52,54,56,58,-1,-1,-1,-1,-1,-1,-1,-1,-1,-1,-1,-1,-1,-1,-1,-1,-1,-1,-1,-1,-1,-1,-1,-1,-1,-1,-1,-1],"split_conditions":[7E1,5.52E1,1.62E0,5.38E1,6.56E1,7.2E1,5.01E0,4.91E0,5.21E0,3.42E0,7.1E-1,4.38E0,7.53E1,7.79E1,7.62E1,5.2726924E-2,5.31E0,5.11E0,-2.4270685E-2,6.121E1,6.301E1,4.89E0,3.82E0,7.16E1,4.9E-1,4.9E-1,7.95E1,3.92E0,4.22E0,4.08E0,8.06E1,-9.135657E-3,1.3368043E-2,-2.0607091E-2,9.684445E-3,3.2182228E-2,-1.7924258E-2,-8.706833E-2,-7.754465E-2,-6.522038E-2,-3.5290405E-2,-1.4677937E-2,-7.798731E-2,-2.9118782E-2,7.968439E-3,3.4092296E-2,1.3757127E-2,4.2611104E-2,2.7313447E-2,4.7401357E-2,5.8958333E-2,-1.8002063E-2,8.884297E-3,2.8490111E-2,6.0627796E-2,-4.6813555E-2,-2.7496403E-2,-8.7184375E-3,2.3656327E-2],"split_indices":[0,0,3,0,0,0,3,2,2,2,3,2,0,0,0,0,2,2,0,0,0,2,2,0,3,3,0,2,3,2,0,0,0,0,0,0,0,0,0,0,0,0,0,0,0,0,0,0,0,0,0,0,0,0,0,0,0,0,0],"split_type":[0,0,0,0,0,0,0,0,0,0,0,0,0,0,0,0,0,0,0,0,0,0,0,0,0,0,0,0,0,0,0,0,0,0,0,0,0,0,0,0,0,0,0,0,0,0,0,0,0,0,0,0,0,0,0,0,0,0,0],"sum_hessian":[2.0818E3,1.374389E3,7.0741095E2,1.9243528E1,1.3551455E3,4.9187576E2,2.1553516E2,9.807708E0,9.435822E0,9.3021E2,4.2493555E2,1.5221385E2,3.3966193E2,1.4719232E2,6.8342834E1,6.7453084E0,3.062399E0,4.061954E0,5.3738675E0,5.37464E0,9.248354E2,2.345266E2,1.9040895E2,2.032645E1,1.318874E2,1.9146552E2,1.481964E2,1.25458534E2,2.1733786E1,4.438674E1,2.3956097E1,1.7499442E0,1.3124547E0,2.3122478E0,1.749706E0,1.9373782E0,3.4372618E0,5.8925555E2,3.3557983E2,8.893416E1,1.4559244E2,3.310187E0,1.8709875E2,1.5891838E1,4.4346128E0,7.421908E1,5.7668324E1,1.2442279E2,6.704273E1,9.464525E1,5.355115E1,4.0917683E0,1.2136677E2,1.6362633E1,5.371152E0,6.214246E0,3.8172497E1,1.8523687E1,5.43241E0],"tree_param":{"num_deleted":"0","num_feature":"4","num_nodes":"59","size_leaf_vector":"1"}},{"base_weights":[-7.759135E-1,-1.4285179E0,5.0728905E-1,-1.5388285E0,-8.790936E-1,-1.2003794E0,6.7219764E-1,2.2864199E-1,-1.5750511E0,-4.673748E-1,-1.3160716E0,-1.3024416E0,-1.5471242E-1,9.029637E-1,1.7902844E-1,7.224201E-1,-4.7715336E-1,-8.2363844E-2,-1.4439008E0,-8.165611E-1,-3.1550875E-1,-1.1657608E0,-1.6133677E0,-6.1276203E-1,-6.679031E-2,1.230313E-2,-2.2858715E-2,1.0393418E0,6.203266E-1,3.324601E-1,-1.9141167E-1,4.631244E-2,6.2755025E-3,-1.0313355E-2,-2.6217198E-2,-6.5320335E-2,-7.825919E-2,-4.542437E-2,6.561531E-3,-3.0089159E-2,-7.13261E-3,-6.1578322E-2,-1.8062944E-2,-4.2727213E-2,-8.52071E-2,-3.7267514E-2,-6.767766E-3,4.9790185E-2,6.331547E-2,2.6418144E-2,6.173349E-2,1.2429256E-2,4.481066E-2,-1.3609017E-2,1.7632576E-2],"categories":[],"categories_nodes":[],"categories_segments":[],"categories_sizes":[],"default_left":[0,0,0,0,0,0,0,0,0,0,0,0,0,0,0,0,0,0,0,0,0,0,0,0,0,0,0,0,0,0,0,0,0,0,0,0,0,0,0,0,0,0,0,0,0,0,0,0,0,0,0,0,0,0,0],"id":2,"left_children":[1,3,5,7,9,11,13,15,17,19,21,23,25,27,29,31,33,-1,35,37,39,41,43,45,-1,-1,-1,47,49,51,53,-1,-1,-1,-1,-1,-1,-1,-1,-1,-1,-1,-1,-1,-1,-1,-1,-1,-1,-1,-1,-1,-1,-1,-1],"loss_changes":[1.7289749E3,8.157568E1,1.969426E2,7.322827E1,4.0965546E1,6.382744E0,7.219516E1,8.614936E0,8.1875E0,6.134987E0,3.1048431E0,4.7177124E-1,9.1508836E-1,1.6040527E1,1.16535845E1,1.6309056E0,2.4412394E-2,0E0,4.696045E0,3.2477531E0,4.1520233E0,3.6689606E0,9.4503784E-1,1.7984009E-1,0E0,0E0,0E0,1.6097107E0,7.44759E0,6.612583E0,2.7482755E0,0E0,0E0,0E0,0E0,0E0,0E0,0E0,0E0,0E0,0E0,0E0,0E0,0E0,0E0,0E0,0E0,0E0,0E0,0E0,0E0,0E0,0E0,0E0,0E0],"parents":[2147483647,0,0,1,1,2,2,3,3,4,4,5,5,6,6,7,7,8,8,9,9,10,10,11,11,12,12,13,13,14,14,15,15,16,16,18,18,19,19,20,20,21,21,22,22,23,23,27,27,28,28,29,29,30,30],"right_children":[2,4,6,8,10,12,14,16,18,20,22,24,26,28,30,32,34,-1,36,38,40,42,44,46,-1,-1,-1,48,50,52,54,-1,-1,-1,-1,-1,-1,-1,-1,-1,-1,-1,-1,-1,-1,-1,-1,-1,-1,-1,-1,-1,-1,-1,-1],"split_conditions":[7E1,2.16E1,2.2E1,5.52E1,7.1E-1,7.56E1,1.6E0,1.76E1,6.41E1,6.644E1,4.02E0,7.01E1,2E-1,4.9E-1,5.07E0,5.38E1,5.38E1,-8.2363844E-2,4.9E-1,2.496E1,2.201E1,2.332E1,2.173E1,1.51E0,-6.679031E-2,1.230313E-2,-2.2858715E-2,7.95E1,2.517E1,7.79E1,8.06E1,4.631244E-2,6.2755025E-3,-1.0313355E-2,-2.6217198E-2,-6.5320335E-2,-7.825919E-2,-4.542437E-2,6.561531E-3,-3.0089159E-2,-7.13261E-3,-6.1578322E-2,-1.8062944E-2,-4.2727213E-2,-8.52071E-2,-3.7267514E-2,-6.767766E-3,4.9790185E-2,6.331547E-2,2.6418144E-2,6.173349E-2,1.2429256E-2,4.481066E-2,-1.3609017E-2,1.7632576E-2],"split_indices":[0,1,1,0,3,0,3,1,0,0,3,0,3,3,3,0,0,0,3,1,1,1,1,3,0,0,0,0,1,0,0,0,0,0,0,0,0,0,0,0,0,0,0,0,0,0,0,0,0,0,0,0,0,0,0],"split_type":[0,0,0,0,0,0,0,0,0,0,0,0,0,0,0,0,0,0,0,0,0,0,0,0,0,0,0,0,0,0,0,0,0,0,0,0,0,0,0,0,0,0,0,0,0,0,0,0,0,0,0,0,0,0,0],"sum_hessian":[2.0627705E3,1.3672887E3,6.9548175E2,1.1371721E3,2.3011652E2,6.069468E1,6.3478705E2,2.2730505E1,1.1144417E3,1.1954825E2,1.1056827E2,5.5073654E1,5.621022E0,4.318724E2,2.0291467E2,1.3360132E1,9.370373E0,7.112103E2,4.0323135E2,3.4907784E1,8.4640465E1,7.6706955E1,3.3861313E1,3.4349754E0,5.163868E1,2.4977987E0,3.1232233E0,2.895037E2,1.4236871E2,1.435575E2,5.9357185E1,9.548007E0,3.812126E0,2.187055E0,7.183318E0,1.9450237E2,2.0872897E2,3.185923E1,3.0485537E0,3.0931768E1,5.37087E1,7.041629E1,6.2906647E0,4.7305403E0,2.9130774E1,2.2490952E0,1.1858801E0,2.474281E2,4.2075592E1,1.25449646E2,1.6919065E1,1.2621954E2,1.733795E1,5.211953E1,7.237655E0],"tree_param":{"num_deleted":"0","num_feature":"4","num_nodes":"55","size_leaf_vector":"1"}},{"base_weights":[-7.3746586E-1,-1.373233E0,4.726056E-1,-1.4770608E0,-8.693906E-1,-1.1518017E0,6.284602E-1,2.6604268E-1,-1.51245E0,-1.2873994E0,-7.976492E-1,-1.5066042E0,-9.514468E-1,5.8168787E-1,9.1543394E-1,7.529063E-1,-4.6383795E-1,4.1992668E-2,-1.5255853E0,-4.8248875E-1,-7.049489E-2,-6.231879E-1,-1.0011182E0,-6.7144423E-3,-8.0720246E-2,-4.3757346E-2,-1.0033566E0,6.459443E-1,5.2590746E-1,6.0779613E-1,4.863068E-2,5.881228E-2,2.183189E-2,-9.145695E-3,-2.5078652E-2,3.385517E-2,-9.4005605E-3,-7.9224296E-2,-6.7414716E-2,-3.8690988E-2,1.8092906E-2,-5.263394E-2,-2.324146E-2,-5.1085915E-2,-5.1308963E-3,-1.313023E-2,9.755934E-3,-5.3553533E-2,-1.1665945E-2,3.3427205E-2,-2.0197094E-3,2.490386E-2,4.6317097E-2,1.659569E-2,4.3530803E-2],"categories":[],"categories_nodes":[],"categories_segments":[],"categories_sizes":[],"default_left":[0,0,0,0,0,0,0,0,0,0,0,0,0,0,0,0,0,0,0,0,0,0,0,0,0,0,0,0,0,0,0,0,0,0,0,0,0,0,0,0,0,0,0,0,0,0,0,0,0,0,0,0,0,0,0],"id":3,"left_children":[1,3,5,7,9,11,13,15,17,19,21,23,25,27,29,31,33,35,37,39,-1,41,43,-1,-1,45,47,49,51,53,-1,-1,-1,-1,-1,-1,-1,-1,-1,-1,-1,-1,-1,-1,-1,-1,-1,-1,-1,-1,-1,-1,-1,-1,-1],"loss_changes":[1.5965753E3,6.9871826E1,1.818056E2,6.988428E1,6.0155334E0,3.0429E0,8.236145E0,8.615872E0,2.260791E1,2.5510254E0,6.584427E0,2.891655E0,1.980217E0,1.6835175E0,9.8867035E-1,1.4058352E0,1.3491154E-2,1.6209335E0,9.296631E0,1.7187628E0,0E0,7.126499E0,1.5996857E0,0E0,0E0,2.2738513E-1,1.8665047E0,4.027725E0,2.965973E0,9.249835E-1,0E0,0E0,0E0,0E0,0E0,0E0,0E0,0E0,0E0,0E0,0E0,0E0,0E0,0E0,0E0,0E0,0E0,0E0,0E0,0E0,0E0,0E0,0E0,0E0,0E0],"parents":[2147483647,0,0,1,1,2,2,3,3,4,4,5,5,6,6,7,7,8,8,9,9,10,10,11,11,12,12,13,13,14,14,15,15,16,16,17,17,18,18,19,19,21,21,22,22,25,25,26,26,27,27,28,28,29,29],"right_children":[2,4,6,8,10,12,14,16,18,20,22,24,26,28,30,32,34,36,38,40,-1,42,44,-1,-1,46,48,50,52,54,-1,-1,-1,-1,-1,-1,-1,-1,-1,-1,-1,-1,-1,-1,-1,-1,-1,-1,-1,-1,-1,-1,-1,-1,-1],"split_conditions":[7E1,2.156E1,2.2E1,5.52E1,4.5E0,4.43E0,7.88E1,1.76E1,3.42E0,3.82E0,5.41E0,3.75E0,4.52E0,5.21E0,4.04E0,4.51E0,5.38E1,6.121E1,2.07E1,6.83E1,-7.049489E-2,6.603E1,2.474E1,-6.7144423E-3,-8.0720246E-2,4.45E0,7.66E1,7.83E1,2.53E1,8.19E1,4.863068E-2,5.881228E-2,2.183189E-2,-9.145695E-3,-2.5078652E-2,3.385517E-2,-9.4005605E-3,-7.9224296E-2,-6.7414716E-2,-3.8690988E-2,1.8092906E-2,-5.263394E-2,-2.324146E-2,-5.1085915E-2,-5.1308963E-3,-1.313023E-2,9.755934E-3,-5.3553533E-2,-1.1665945E-2,3.3427205E-2,-2.0197094E-3,2.490386E-2,4.6317097E-2,1.659569E-2,4.3530803E-2],"split_indices":[0,1,1,0,2,2,0,1,2,2,2,2,2,2,2,2,0,0,1,0,0,0,1,0,0,2,0,0,1,0,0,0,0,0,0,0,0,0,0,0,0,0,0,0,0,0,0,0,0,0,0,0,0,0,0],"split_type":[0,0,0,0,0,0,0,0,0,0,0,0,0,0,0,0,0,0,0,0,0,0,0,0,0,0,0,0,0,0,0,0,0,0,0,0,0,0,0,0,0,0,0,0,0,0,0,0,0,0,0,0,0,0,0],"sum_hessian":[2.0734536E3,1.3592001E3,7.142536E2,1.1253628E3,2.3383734E2,6.1970535E1,6.522831E2,2.2263235E1,1.1030995E3,3.1771624E1,2.0206572E2,2.0012074E1,4.195846E1,5.6347266E2,8.8810455E1,1.3335981E1,8.927255E0,9.22489E0,1.0938746E3,4.8489485E0,2.6922674E1,1.1097488E2,9.109085E1,1.621093E0,1.8390982E1,2.3694522E0,3.958901E1,2.5692593E2,3.065467E2,1.5742473E1,7.306798E1,4.5399394E0,8.7960415E0,1.7495803E0,7.1776743E0,1.9357675E0,7.2891216E0,8.151306E2,2.7874405E2,3.6671684E0,1.1817803E0,2.8373785E1,8.260109E1,8.891514E1,2.175714E0,1.1847261E0,1.1847261E0,3.6029762E1,3.5592458E0,2.4876065E2,8.16529E0,2.8872412E2,1.7822561E1,8.784386E0,6.9580874E0],"tree_param":{"num_deleted":"0","num_feature":"4","num_nodes":"55","size_leaf_vector":"1"}},{"base_weights":[-6.953672E-1,-1.3088075E0,4.6749142E-1,3.8447568E-1,-1.3371167E0,6.62339E-1,6.994154E-2,4.811225E-2,1.04558645E-2,-1.498653E0,-1.0662056E0,3.231537E-1,7.430253E-1,2.514753E-1,-3.4352773E-1,3.431436E-1,-2.7283573E-1,1.2801889E-1,-1.508561E0,-8.289777E-1,-1.3520387E0,-2.2862345E-1,4.1603795E-1,8.439224E-1,5.1947886E-1,6.196835E-2,4.9619362E-1,-5.5347747E-1,-5.138671E-2,-1.3838864E-3,3.4542702E-2,-2.033881E-2,-7.0329793E-3,3.2723475E-2,-1.4578374E-2,-7.744505E-2,-7.054826E-2,-6.1151262E-2,-3.4168184E-2,5.894906E-3,-6.826687E-2,2.0212868E-2,-1.7071467E-2,5.1996503E-3,2.6568389E-2,3.234912E-2,5.050649E-2,4.6483953E-2,2.0990485E-2,-2.12873E-2,5.377134E-3,1.890204E-2,3.6273703E-2,-3.3615213E-2,-1.725112E-2,2.7433887E-2,-4.9372087E-3],"categories":[],"categories_nodes":[],"categories_segments":[],"categories_sizes":[],"default_left":[0,0,0,0,0,0,0,0,0,0,0,0,0,0,0,0,0,0,0,0,0,0,0,0,0,0,0,0,0,0,0,0,0,0,0,0,0,0,0,0,0,0,0,0,0,0,0,0,0,0,0,0,0,0,0,0,0],"id":4,"left_children":[1,3,5,7,9,11,13,-1,15,17,19,21,23,25,27,29,31,33,35,37,39,41,43,45,47,49,51,53,55,-1,-1,-1,-1,-1,-1,-1,-1,-1,-1,-1,-1,-1,-1,-1,-1,-1,-1,-1,-1,-1,-1,-1,-1,-1,-1,-1,-1],"loss_changes":[1.4666384E3,6.501953E1,5.498831E1,4.9395046E0,5.6332764E1,1.2805283E1,1.7710405E1,0E0,1.4992998E0,1.3519165E1,3.2643616E1,4.8805323E0,8.229599E0,7.5629597E0,4.391382E0,9.606657E-1,9.525555E-2,1.5001352E0,1.050293E0,1.4925781E1,4.5447083E0,1.1445564E0,2.8336105E0,7.96138E0,4.6022224E0,2.122345E0,1.6577778E0,8.040695E-1,9.41786E-1,0E0,0E0,0E0,0E0,0E0,0E0,0E0,0E0,0E0,0E0,0E0,0E0,0E0,0E0,0E0,0E0,0E0,0E0,0E0,0E0,0E0,0E0,0E0,0E0,0E0,0E0,0E0,0E0],"parents":[2147483647,0,0,1,1,2,2,3,3,4,4,5,5,6,6,8,8,9,9,10,10,11,11,12,12,13,13,14,14,15,15,16,16,17,17,18,18,19,19,20,20,21,21,22,22,23,23,24,24,25,25,26,26,27,27,28,28],"right_children":[2,4,6,8,10,12,14,-1,16,18,20,22,24,26,28,30,32,34,36,38,40,42,44,46,48,50,52,54,56,-1,-1,-1,-1,-1,-1,-1,-1,-1,-1,-1,-1,-1,-1,-1,-1,-1,-1,-1,-1,-1,-1,-1,-1,-1,-1,-1,-1],"split_conditions":[7E1,5.52E1,1.6E0,4.71E0,6.49E1,7.12E1,5.07E0,4.811225E-2,5.38E1,3.42E0,7.1E-1,4.38E0,4.9E-1,7.4E1,7.53E1,4.9E-1,5.01E0,6.121E1,6.301E1,4.56E0,3.42E0,7.016E1,7.03E1,4.93E0,5.21E0,4.26E0,7.79E1,7.21E1,7.56E1,-1.3838864E-3,3.4542702E-2,-2.033881E-2,-7.0329793E-3,3.2723475E-2,-1.4578374E-2,-7.744505E-2,-7.054826E-2,-6.1151262E-2,-3.4168184E-2,5.894906E-3,-6.826687E-2,2.0212868E-2,-1.7071467E-2,5.1996503E-3,2.6568389E-2,3.234912E-2,5.050649E-2,4.6483953E-2,2.0990485E-2,-2.12873E-2,5.377134E-3,1.890204E-2,3.6273703E-2,-3.3615213E-2,-1.725112E-2,2.7433887E-2,-4.9372087E-3],"split_indices":[0,0,3,2,0,0,3,0,0,2,3,2,3,0,0,3,2,0,0,2,2,0,0,2,2,2,0,0,0,0,0,0,0,0,0,0,0,0,0,0,0,0,0,0,0,0,0,0,0,0,0,0,0,0,0,0,0],"split_type":[0,0,0,0,0,0,0,0,0,0,0,0,0,0,0,0,0,0,0,0,0,0,0,0,0,0,0,0,0,0,0,0,0,0,0,0,0,0,0,0,0,0,0,0,0,0,0,0,0,0,0,0,0,0,0,0,0],"sum_hessian":[2.0541458E3,1.3446696E3,7.0947614E2,2.1904352E1,1.3227653E3,4.7567285E2,2.338033E2,7.9896235E0,1.3914729E1,8.2582074E2,4.969445E2,9.237142E1,3.8330142E2,1.6274283E2,7.106047E1,6.302279E0,7.6124496E0,4.9274044E0,8.208933E2,2.7369275E2,2.2325174E2,1.3098521E1,7.92729E1,2.621883E2,1.2111312E2,9.2424E1,7.0318825E1,4.0825974E1,3.0234499E1,3.4951842E0,2.8070948E0,2.7491117E0,4.863338E0,1.9371216E0,2.9902828E0,5.702973E2,2.5059604E2,7.185262E1,2.0184012E2,1.9311402E0,2.2132059E2,1.5906665E0,1.1507854E1,2.1905487E1,5.7367413E1,1.22239174E2,1.3994913E2,2.2047277E1,9.906584E1,7.1855836E0,8.523842E1,4.8153286E1,2.216554E1,2.4585941E1,1.6240034E1,1.4372524E0,2.8797247E1],"tree_param":{"num_deleted":"0","num_feature":"4","num_nodes":"57","size_leaf_vector":"1"}},{"base_weights":[-6.834734E-1,-1.3297509E0,3.4144112E-1,2.6961485E-1,-1.3590528E0,-6.8307114E-1,5.9423804E-1,6.31761E-1,-3.7066236E-1,-1.4499863E0,-1.1690907E0,-7.1984303E-1,1.3312729E-1,5.421082E-1,9.2119974E-1,5.3910132E-2,2.4004251E-1,-2.3579635E-2,-6.58136E-3,-1.1258395E-1,-1.4571086E0,5.2287765E-2,-1.1813561E0,-8.4982175E-1,-4.9896768E-1,2.3017867E-2,-4.227689E-2,7.4689883E-1,5.259034E-1,5.618031E-1,9.837527E-1,-8.030384E-3,3.0152513E-2,2.7377296E-2,-1.9966505E-2,-7.303774E-2,7.510986E-3,1.5365805E-2,-6.2613385E-3,-6.2251795E-2,-4.828979E-2,-6.824479E-2,-3.967581E-2,9.991059E-4,-3.1912554E-2,-7.571867E-3,5.605472E-3,5.037866E-2,2.438332E-2,2.5613332E-2,3.7137844E-2,3.945448E-2,1.0749263E-2,5.0958868E-2,3.1314768E-2],"categories":[],"categories_nodes":[],"categories_segments":[],"categories_sizes":[],"default_left":[0,0,0,0,0,0,0,0,0,0,0,0,0,0,0,0,0,0,0,0,0,0,0,0,0,0,0,0,0,0,0,0,0,0,0,0,0,0,0,0,0,0,0,0,0,0,0,0,0,0,0,0,0,0,0],"id":5,"left_children":[1,3,5,7,9,11,13,15,17,19,21,23,25,27,29,-1,31,-1,-1,33,35,37,39,41,43,-1,45,47,49,51,53,-1,-1,-1,-1,-1,-1,-1,-1,-1,-1,-1,-1,-1,-1,-1,-1,-1,-1,-1,-1,-1,-1,-1,-1],"loss_changes":[1.3374894E3,5.839087E1,2.0278249E2,5.592819E0,1.9310547E1,4.751297E0,1.01923065E1,2.387272E0,1.5455842E-1,7.6296387E0,6.036377E0,3.8416595E0,4.517205E-1,1.4107056E0,1.3544006E0,0E0,1.4560989E0,0E0,0E0,1.2442278E0,4.9887695E0,2.61348E-1,4.2182617E0,1.5884476E0,4.16652E0,0E0,1.1504054E-1,2.040659E0,1.1187439E0,1.0054436E0,2.5976562E-1,0E0,0E0,0E0,0E0,0E0,0E0,0E0,0E0,0E0,0E0,0E0,0E0,0E0,0E0,0E0,0E0,0E0,0E0,0E0,0E0,0E0,0E0,0E0,0E0],"parents":[2147483647,0,0,1,1,2,2,3,3,4,4,5,5,6,6,7,7,8,8,9,9,10,10,11,11,12,12,13,13,14,14,16,16,19,19,20,20,21,21,22,22,23,23,24,24,26,26,27,27,28,28,29,29,30,30],"right_children":[2,4,6,8,10,12,14,16,18,20,22,24,26,28,30,-1,32,-1,-1,34,36,38,40,42,44,-1,46,48,50,52,54,-1,-1,-1,-1,-1,-1,-1,-1,-1,-1,-1,-1,-1,-1,-1,-1,-1,-1,-1,-1,-1,-1,-1,-1],"split_conditions":[2.2E1,5.52E1,7E1,1.76E1,2.069E1,2.517E1,7.88E1,4.51E0,5.61E0,3.42E0,3.42E0,6.86E1,5.01E0,4.1E0,4.04E0,5.3910132E-2,5.01E0,-2.3579635E-2,-6.58136E-3,5.86E1,7.88E1,2.103E1,2.156E1,6.41E1,2.229E1,2.3017867E-2,6.62E1,2.324E1,2.53E1,3.92E0,2.74E1,-8.030384E-3,3.0152513E-2,2.7377296E-2,-1.9966505E-2,-7.303774E-2,7.510986E-3,1.5365805E-2,-6.2613385E-3,-6.2251795E-2,-4.828979E-2,-6.824479E-2,-3.967581E-2,9.991059E-4,-3.1912554E-2,-7.571867E-3,5.605472E-3,5.037866E-2,2.438332E-2,2.5613332E-2,3.7137844E-2,3.945448E-2,1.0749263E-2,5.0958868E-2,3.1314768E-2],"split_indices":[1,0,0,1,1,1,0,2,2,2,2,0,2,2,2,0,2,0,0,0,0,1,1,0,1,0,0,1,1,2,1,0,0,0,0,0,0,0,0,0,0,0,0,0,0,0,0,0,0,0,0,0,0,0,0],"split_type":[0,0,0,0,0,0,0,0,0,0,0,0,0,0,0,0,0,0,0,0,0,0,0,0,0,0,0,0,0,0,0,0,0,0,0,0,0,0,0,0,0,0,0,0,0,0,0,0,0,0,0,0,0,0,0],"sum_hessian":[2.0175345E3,1.2371383E3,7.8039624E2,2.2110186E1,1.2150282E3,1.5411421E2,6.2628204E2,1.4130919E1,7.9792657E0,8.1720465E2,3.978235E2,1.4758325E2,6.5309534E0,5.424528E2,8.382917E1,5.785122E0,8.3457985E0,4.9262867E0,3.0529788E0,4.418024E0,8.127867E2,3.9228575E0,3.9390063E2,9.111639E1,5.646686E1,1.7121863E0,4.818767E0,3.6469624E1,5.0598322E2,1.3907161E1,6.992201E1,4.2322474E0,4.113551E0,1.0624957E0,3.3555286E0,8.11038E2,1.748653E0,1.3098416E0,2.613016E0,3.0038608E2,9.351454E1,6.688666E0,8.442772E1,1.2129737E1,4.4337128E1,2.8340347E0,1.9847324E0,1.6744862E1,1.9724764E1,4.7921042E2,2.677281E1,7.6309814E0,6.2761793E0,6.1933144E1,7.9888654E0],"tree_param":{"num_deleted":"0","num_feature":"4","num_nodes":"55","size_leaf_vector":"1"}},{"base_weights":[-6.548736E-1,-1.2261108E0,4.1102278E-1,2.4417324E-1,-1.247596E0,6.0702425E-1,1.1009278E-2,6.415982E-1,-1.8887977E-1,-1.3716712E0,-9.577225E-1,5.158549E-1,7.9233724E-1,1.8098946E-1,-3.715054E-1,4.8376746E-2,1.7868377E-1,8.26421E-3,-1.8798016E-2,-1.338306E-1,-1.3819025E0,-7.119545E-1,-1.250617E0,1.8772236E-1,6.1695397E-1,8.5014254E-1,6.024748E-1,3.0137418E-2,3.7940916E-1,-5.7020134E-1,-5.883417E-2,-1.0350634E-2,2.454129E-2,-6.601958E-3,1.0936367E-2,2.6673961E-2,-1.50835635E-2,-7.278346E-2,-6.37371E-2,-5.6910392E-2,-2.7988542E-2,3.4262206E-2,-6.372624E-2,2.3332774E-3,1.5776157E-2,4.1097034E-2,1.7367207E-2,3.5622835E-2,5.0659407E-2,1.0283313E-2,4.065658E-2,-2.03643E-2,3.8325475E-3,1.3560854E-2,2.9632693E-2,-4.235447E-2,-2.4071205E-2,2.589205E-2,-5.3954865E-3],"categories":[],"categories_nodes":[],"categories_segments":[],"categories_sizes":[],"default_left":[0,0,0,0,0,0,0,0,0,0,0,0,0,0,0,0,0,0,0,0,0,0,0,0,0,0,0,0,0,0,0,0,0,0,0,0,0,0,0,0,0,0,0,0,0,0,0,0,0,0,0,0,0,0,0,0,0,0,0],"id":6,"left_children":[1,3,5,7,9,11,13,15,17,19,21,23,25,27,29,-1,31,33,-1,35,37,39,41,43,45,47,49,51,53,55,57,-1,-1,-1,-1,-1,-1,-1,-1,-1,-1,-1,-1,-1,-1,-1,-1,-1,-1,-1,-1,-1,-1,-1,-1,-1,-1,-1,-1],"loss_changes":[1.2193604E3,4.1483643E1,5.4815063E1,3.4963684E0,4.490149E1,7.519455E0,1.5084363E1,1.4043694E0,3.7773144E-1,1.1181519E1,2.7072754E1,1.0413322E1,1.1656036E0,4.7949514E0,4.4013634E0,0E0,7.6926935E-1,2.0381407E-1,0E0,1.1089865E0,5.180176E0,1.3215324E1,9.015137E0,1.3588455E0,1.3099937E1,1.8544083E0,3.1022434E0,1.9093518E0,1.4373598E0,6.622858E-1,8.724203E-1,0E0,0E0,0E0,0E0,0E0,0E0,0E0,0E0,0E0,0E0,0E0,0E0,0E0,0E0,0E0,0E0,0E0,0E0,0E0,0E0,0E0,0E0,0E0,0E0,0E0,0E0,0E0,0E0],"parents":[2147483647,0,0,1,1,2,2,3,3,4,4,5,5,6,6,7,7,8,8,9,9,10,10,11,11,12,12,13,13,14,14,16,16,17,17,19,19,20,20,21,21,22,22,23,23,24,24,25,25,26,26,27,27,28,28,29,29,30,30],"right_children":[2,4,6,8,10,12,14,16,18,20,22,24,26,28,30,-1,32,34,-1,36,38,40,42,44,46,48,50,52,54,56,58,-1,-1,-1,-1,-1,-1,-1,-1,-1,-1,-1,-1,-1,-1,-1,-1,-1,-1,-1,-1,-1,-1,-1,-1,-1,-1,-1,-1],"split_conditions":[7E1,5.52E1,1.51E0,5.38E1,6.58E1,7.51E1,4.96E0,4.91E0,5.21E0,3.42E0,7.1E-1,4.8E0,4.9E-1,7.4E1,7.53E1,4.8376746E-2,2E-1,5.11E0,-1.8798016E-2,5.86E1,6.29E1,4.56E0,3.75E0,7.2E1,4.9E-1,5.03E0,5.41E0,4.43E0,7.79E1,4.19E0,7.56E1,-1.0350634E-2,2.454129E-2,-6.601958E-3,1.0936367E-2,2.6673961E-2,-1.50835635E-2,-7.278346E-2,-6.37371E-2,-5.6910392E-2,-2.7988542E-2,3.4262206E-2,-6.372624E-2,2.3332774E-3,1.5776157E-2,4.1097034E-2,1.7367207E-2,3.5622835E-2,5.0659407E-2,1.0283313E-2,4.065658E-2,-2.03643E-2,3.8325475E-3,1.3560854E-2,2.9632693E-2,-4.235447E-2,-2.4071205E-2,2.589205E-2,-5.3954865E-3],"split_indices":[0,0,3,0,0,0,3,2,2,2,3,2,3,0,0,0,3,2,0,0,0,2,2,0,3,2,2,2,0,2,0,0,0,0,0,0,0,0,0,0,0,0,0,0,0,0,0,0,0,0,0,0,0,0,0,0,0,0,0],"split_type":[0,0,0,0,0,0,0,0,0,0,0,0,0,0,0,0,0,0,0,0,0,0,0,0,0,0,0,0,0,0,0,0,0,0,0,0,0,0,0,0,0,0,0,0,0,0,0,0,0,0,0,0,0,0,0,0,0,0,0],"sum_hessian":[2.0008015E3,1.3025735E3,6.98228E2,1.8611065E1,1.2839625E3,4.682661E2,2.299619E2,9.45363E0,9.1574335E0,8.965E2,3.8746246E2,3.1639255E2,1.5187355E2,1.5957674E2,7.038516E1,4.9078994E0,4.5457315E0,4.924188E0,4.2332454E0,7.4646125E0,8.890354E2,2.1254584E2,1.7491661E2,7.519438E1,2.4119818E2,1.1376048E2,3.811307E1,9.1309204E1,6.826753E1,4.2532818E1,2.7852343E1,2.1839483E0,2.361783E0,3.1781373E0,1.746051E0,1.0623555E0,6.402257E0,5.191089E2,3.6992654E2,5.421503E1,1.5833081E2,1.7963936E0,1.7312022E2,3.6392376E1,3.8802002E1,1.358566E2,1.0534158E2,6.458801E1,4.917247E1,1.3902197E1,2.4210875E1,8.030677E0,8.327853E1,4.6796604E1,2.1470926E1,8.252448E0,3.428037E1,1.4352425E0,2.64171E1],"tree_param":{"num_deleted":"0","num_feature":"4","num_nodes":"59","size_leaf_vector":"1"}},{"base_weights":[-6.177432E-1,-1.2320735E0,3.222571E-1,2.4572565E-1,-1.2586914E0,-5.708651E-1,5.284979E-1,9.035805E-1,-1.511057E-1,-1.3548135E0,-1.0638794E0,-6.050771E-1,9.706212E-2,4.8703477E-1,7.904344E-1,1.1336361E0,1.082025E-2,2.9207576E-2,-2.6570186E-1,-1.0416248E-1,-1.3630935E0,1.5707812E-1,-1.079777E0,-6.818666E-2,-5.673103E-1,2.6781163E-1,-1.20315194E-1,-1.6163297E-2,4.909815E-1,4.471056E-1,4.2388428E-2,2.1640627E-2,6.715976E-2,-3.337917E-2,-4.972465E-3,2.599364E-2,-1.6546702E-2,-6.826705E-2,-1.1345106E-2,1.5693119E-2,-9.44234E-3,-6.559359E-2,-5.037399E-2,-2.2206275E-2,-3.736858E-2,-4.59363E-3,2.244998E-2,-1.165399E-2,-3.181699E-4,2.7968416E-2,2.1564756E-2,4.7329284E-2,1.6469881E-2],"categories":[],"categories_nodes":[],"categories_segments":[],"categories_sizes":[],"default_left":[0,0,0,0,0,0,0,0,0,0,0,0,0,0,0,0,0,0,0,0,0,0,0,0,0,0,0,0,0,0,0,0,0,0,0,0,0,0,0,0,0,0,0,0,0,0,0,0,0,0,0,0,0],"id":7,"left_children":[1,3,5,7,9,11,13,15,17,19,21,23,25,27,29,31,-1,-1,33,35,37,39,41,-1,43,45,47,-1,49,51,-1,-1,-1,-1,-1,-1,-1,-1,-1,-1,-1,-1,-1,-1,-1,-1,-1,-1,-1,-1,-1,-1,-1],"loss_changes":[1.1516873E3,4.7744873E1,1.4559161E2,5.924962E0,2.074353E1,3.4510689E0,6.580139E0,1.0962119E0,1.3927038E0,8.035278E0,7.857727E0,3.2765503E0,3.3269328E-1,1.9377136E0,1.3145638E0,3.1769514E-1,0E0,0E0,8.2850987E-1,1.060227E0,1.6931152E0,3.8273203E-1,5.241211E0,0E0,2.6928291E0,3.5692787E-1,5.3145725E-2,0E0,2.0199432E0,5.364466E-1,0E0,0E0,0E0,0E0,0E0,0E0,0E0,0E0,0E0,0E0,0E0,0E0,0E0,0E0,0E0,0E0,0E0,0E0,0E0,0E0,0E0,0E0,0E0],"parents":[2147483647,0,0,1,1,2,2,3,3,4,4,5,5,6,6,7,7,8,8,9,9,10,10,11,11,12,12,13,13,14,14,15,15,18,18,19,19,20,20,21,21,22,22,24,24,25,25,26,26,28,28,29,29],"right_children":[2,4,6,8,10,12,14,16,18,20,22,24,26,28,30,32,-1,-1,34,36,38,40,42,-1,44,46,48,-1,50,52,-1,-1,-1,-1,-1,-1,-1,-1,-1,-1,-1,-1,-1,-1,-1,-1,-1,-1,-1,-1,-1,-1,-1],"split_conditions":[2.2E1,5.52E1,7E1,1.67E1,2.07E1,2.517E1,7.88E1,4.91E0,4.33E0,3.42E0,3.42E0,6.411E1,5.31E0,3.7E0,4.04E0,3.99E0,1.082025E-2,2.9207576E-2,5.01E0,5.86E1,7.88E1,2.121E1,6.41E1,-6.818666E-2,5.41E0,4.91E0,5.61E0,-1.6163297E-2,5.21E0,3.42E0,4.2388428E-2,2.1640627E-2,6.715976E-2,-3.337917E-2,-4.972465E-3,2.599364E-2,-1.6546702E-2,-6.826705E-2,-1.1345106E-2,1.5693119E-2,-9.44234E-3,-6.559359E-2,-5.037399E-2,-2.2206275E-2,-3.736858E-2,-4.59363E-3,2.244998E-2,-1.165399E-2,-3.181699E-4,2.7968416E-2,2.1564756E-2,4.7329284E-2,1.6469881E-2],"split_indices":[1,0,0,1,1,1,0,2,2,2,2,0,2,2,2,2,0,0,2,0,0,1,0,0,2,2,2,0,2,2,0,0,0,0,0,0,0,0,0,0,0,0,0,0,0,0,0,0,0,0,0,0,0],"split_type":[0,0,0,0,0,0,0,0,0,0,0,0,0,0,0,0,0,0,0,0,0,0,0,0,0,0,0,0,0,0,0,0,0,0,0,0,0,0,0,0,0,0,0,0,0,0,0,0,0,0,0,0,0],"sum_hessian":[1.9926771E3,1.2049078E3,7.877694E2,2.1172997E1,1.1837347E3,1.4745406E2,6.403153E2,7.4859805E0,1.36870165E1,7.8865204E2,3.9508273E2,1.4035883E2,7.0952363E0,5.552774E2,8.503793E1,5.1216335E0,2.3643467E0,1.293075E0,1.2393942E1,5.2763186E0,7.8337573E2,4.963983E0,3.9011877E2,4.9909835E0,1.3536784E2,3.84387E0,3.2513664E0,2.2992926E0,5.529781E2,1.3427788E1,7.1610146E1,1.8845441E0,3.2370896E0,2.7444117E0,9.64953E0,1.0618364E0,4.2144823E0,7.81628E2,1.7477522E0,3.479602E0,1.4843808E0,8.858614E1,3.0153262E2,8.243699E1,5.293085E1,1.4527984E0,2.3910716E0,1.1087466E0,2.1426196E0,2.5380463E2,2.991735E2,1.2179108E0,1.2209877E1],"tree_param":{"num_deleted":"0","num_feature":"4","num_nodes":"53","size_leaf_vector":"1"}},{"base_weights":[-6.0425186E-1,-1.2075253E0,3.0398902E-1,1.5451828E-1,-1.2316076E0,-5.6506145E-1,5.0621825E-1,6.882221E-1,-3.896966E-1,-1.3823357E0,-1.1149664E0,-9.8631966E-1,-4.714307E-1,4.5488217E-1,8.118091E-1,8.806117E-1,2.9029008E-3,-4.812047E-1,-5.447139E-3,-1.34091675E-2,-6.925662E-2,-1.1945606E0,-9.798233E-1,1.1793701E-1,-1.1192452E0,-2.5340953E-1,-6.9810224E-1,4.6936178E-1,2.9519644E-1,5.193214E-1,8.5309017E-1,4.8907664E-2,5.0357427E-3,-9.8660495E-3,-2.899645E-2,-6.1240118E-2,-3.5839044E-2,-5.5787932E-2,-4.2247668E-2,-2.4852395E-2,4.0796984E-2,-5.8546074E-2,-1.4604254E-3,-7.318008E-3,-2.839535E-2,-3.7950154E-2,-9.606968E-3,2.2546044E-2,3.0795073E-2,7.5331116E-3,3.4701224E-2,1.0708849E-2,4.1611567E-2,4.4824563E-2,2.3524752E-2],"categories":[],"categories_nodes":[],"categories_segments":[],"categories_sizes":[],"default_left":[0,0,0,0,0,0,0,0,0,0,0,0,0,0,0,0,0,0,0,0,0,0,0,0,0,0,0,0,0,0,0,0,0,0,0,0,0,0,0,0,0,0,0,0,0,0,0,0,0,0,0,0,0,0,0],"id":8,"left_children":[1,3,5,7,9,11,13,15,17,19,21,23,25,27,29,31,-1,33,-1,-1,-1,35,37,39,41,43,45,47,49,51,53,-1,-1,-1,-1,-1,-1,-1,-1,-1,-1,-1,-1,-1,-1,-1,-1,-1,-1,-1,-1,-1,-1,-1,-1],"loss_changes":[1.0736682E3,3.8805542E1,1.3782974E2,6.4669514E0,1.8798462E1,5.3808556E0,9.598938E0,1.299036E0,2.3545635E-1,1.1881714E0,5.900696E0,3.9536686E0,5.9102936E0,1.124588E0,6.450386E-1,5.451484E-1,0E0,1.1421335E-1,0E0,0E0,0E0,5.0338135E0,3.6263733E0,1.9947019E0,1.28018E0,2.0835133E0,1.6974182E0,1.071228E0,2.6688395E0,1.1300163E0,8.6367035E-1,0E0,0E0,0E0,0E0,0E0,0E0,0E0,0E0,0E0,0E0,0E0,0E0,0E0,0E0,0E0,0E0,0E0,0E0,0E0,0E0,0E0,0E0,0E0,0E0],"parents":[2147483647,0,0,1,1,2,2,3,3,4,4,5,5,6,6,7,7,8,8,9,9,10,10,11,11,12,12,13,13,14,14,15,15,17,17,21,21,22,22,23,23,24,24,25,25,26,26,27,27,28,28,29,29,30,30],"right_children":[2,4,6,8,10,12,14,16,18,20,22,24,26,28,30,32,-1,34,-1,-1,-1,36,38,40,42,44,46,48,50,52,54,-1,-1,-1,-1,-1,-1,-1,-1,-1,-1,-1,-1,-1,-1,-1,-1,-1,-1,-1,-1,-1,-1,-1,-1],"split_conditions":[2.2E1,5.52E1,7E1,1.76E1,6.29E1,4.66E0,7.88E1,5.38E1,5.61E0,3.42E0,2.1E1,3.82E0,5.41E0,5.98E0,4.04E0,5.41E0,2.9029008E-3,5.38E1,-5.447139E-3,-1.34091675E-2,-6.925662E-2,6E0,5.2E0,2.213E1,2.427E1,6.902E1,6.02E0,5.78E0,2.382E1,8.19E1,2.74E1,4.8907664E-2,5.0357427E-3,-9.8660495E-3,-2.899645E-2,-6.1240118E-2,-3.5839044E-2,-5.5787932E-2,-4.2247668E-2,-2.4852395E-2,4.0796984E-2,-5.8546074E-2,-1.4604254E-3,-7.318008E-3,-2.839535E-2,-3.7950154E-2,-9.606968E-3,2.2546044E-2,3.0795073E-2,7.5331116E-3,3.4701224E-2,1.0708849E-2,4.1611567E-2,4.4824563E-2,2.3524752E-2],"split_indices":[1,0,0,1,0,2,0,0,2,2,1,2,2,2,2,2,0,0,0,0,0,2,2,1,1,0,2,2,1,0,1,0,0,0,0,0,0,0,0,0,0,0,0,0,0,0,0,0,0,0,0,0,0,0,0],"split_type":[0,0,0,0,0,0,0,0,0,0,0,0,0,0,0,0,0,0,0,0,0,0,0,0,0,0,0,0,0,0,0,0,0,0,0,0,0,0,0,0,0,0,0,0,0,0,0,0,0,0,0,0,0,0,0],"sum_hessian":[1.9578734E3,1.1762518E3,7.816216E2,2.0341928E1,1.1559099E3,1.4721077E2,6.344108E2,1.0136547E1,1.0205382E1,4.9953766E2,6.5637225E2,2.5036007E1,1.2217476E2,5.452954E2,8.9115425E1,7.461203E0,2.6753438E0,7.158265E0,3.0471172E0,1.4933512E0,4.980443E2,4.081486E2,2.4822366E2,2.7020373E0,2.233397E1,6.3355267E1,5.8819492E1,4.9818304E2,4.7112347E1,1.27015505E1,7.641388E1,6.4058204E0,1.0553826E0,2.6208029E0,4.537462E0,3.8238168E2,2.5766922E1,1.2000144E2,1.2822223E2,1.5894926E0,1.1125448E0,2.1252243E1,1.0817261E0,4.8359814E1,1.4995452E1,5.2053852E1,6.765639E0,4.4611945E2,5.2063618E1,3.559175E1,1.1520595E1,7.2833858E0,5.4181647E0,6.742239E1,8.991482E0],"tree_param":{"num_deleted":"0","num_feature":"4","num_nodes":"55","size_leaf_vector":"1"}},{"base_weights":[-5.650196E-1,-1.157044E0,3.0097476E-1,1.1906484E-1,-1.181341E0,-5.227089E-1,4.971004E-1,5.4037935E-1,-4.416251E-1,-1.2873067E0,-9.909047E-1,-8.944422E-1,-4.5341292E-1,4.5681804E-1,7.6908404E-1,7.0948154E-1,9.628851E-2,-5.015141E-1,-2.1425493E-1,1.3547742E-1,-1.296738E0,-1.0050249E0,-1.03967644E-1,-1.1077943E0,1.9750056E-1,-1.5682068E-1,-6.137881E-1,1.6285107E-1,4.7339156E-1,8.039219E-1,1.9582847E-2,3.8920328E-2,4.1624377E-3,-1.4746841E-3,1.2252569E-2,-1.1967189E-2,-3.2937698E-2,-1.3791065E-2,-4.423651E-3,3.8964037E-2,-1.4253323E-2,-6.719105E-2,-5.939549E-2,-5.5748105E-2,-4.4224158E-2,-1.2936681E-2,1.693204E-2,-2.1505151E-2,-5.8624733E-2,4.3006785E-2,-4.5404058E-2,-2.713736E-2,1.2720277E-3,-3.6440313E-2,-1.6795255E-2,-8.6385375E-3,1.3266432E-2,2.6014403E-2,2.0170728E-2,1.885279E-2,4.1906714E-2],"categories":[],"categories_nodes":[],"categories_segments":[],"categories_sizes":[],"default_left":[0,0,0,0,0,0,0,0,0,0,0,0,0,0,0,0,0,0,0,0,0,0,0,0,0,0,0,0,0,0,0,0,0,0,0,0,0,0,0,0,0,0,0,0,0,0,0,0,0,0,0,0,0,0,0,0,0,0,0,0,0],"id":9,"left_children":[1,3,5,7,9,11,13,15,17,19,21,23,25,27,29,31,33,35,37,39,41,43,45,47,49,51,53,55,57,59,-1,-1,-1,-1,-1,-1,-1,-1,-1,-1,-1,-1,-1,-1,-1,-1,-1,-1,-1,-1,-1,-1,-1,-1,-1,-1,-1,-1,-1,-1,-1],"loss_changes":[9.905888E2,3.5716553E1,1.2708243E2,5.517542E0,2.1447876E1,3.49617E0,6.6013336E0,9.2363095E-1,3.0594468E-2,9.839111E0,4.9916077E0,5.523678E0,6.072857E0,2.6278458E0,7.422867E-1,3.4133053E-1,9.7037956E-2,1.4237249E-1,5.484462E-3,1.7512248E0,2.0698242E0,4.3202515E0,6.008282E-1,3.3757782E-1,4.1294947E0,3.3099585E0,2.434698E0,1.117375E0,1.5130997E0,7.450447E-1,0E0,0E0,0E0,0E0,0E0,0E0,0E0,0E0,0E0,0E0,0E0,0E0,0E0,0E0,0E0,0E0,0E0,0E0,0E0,0E0,0E0,0E0,0E0,0E0,0E0,0E0,0E0,0E0,0E0,0E0,0E0],"parents":[2147483647,0,0,1,1,2,2,3,3,4,4,5,5,6,6,7,7,8,8,9,9,10,10,11,11,12,12,13,13,14,14,15,15,16,16,17,17,18,18,19,19,20,20,21,21,22,22,23,23,24,24,25,25,26,26,27,27,28,28,29,29],"right_children":[2,4,6,8,10,12,14,16,18,20,22,24,26,28,30,32,34,36,38,40,42,44,46,48,50,52,54,56,58,60,-1,-1,-1,-1,-1,-1,-1,-1,-1,-1,-1,-1,-1,-1,-1,-1,-1,-1,-1,-1,-1,-1,-1,-1,-1,-1,-1,-1,-1,-1,-1],"split_conditions":[2.2E1,5.52E1,7E1,1.76E1,6.48E1,4.6E0,7.88E1,5.38E1,5.61E0,3.42E0,7.56E1,6.902E1,5.21E0,7.03E1,2.74E1,5.41E0,1.73E1,1.8E1,1.83E1,6.121E1,6.3E1,5.2E0,2.121E1,3.79E0,6.97E1,4.89E0,2.283E1,4.71E0,5.49E0,3.9E0,1.9582847E-2,3.8920328E-2,4.1624377E-3,-1.4746841E-3,1.2252569E-2,-1.1967189E-2,-3.2937698E-2,-1.3791065E-2,-4.423651E-3,3.8964037E-2,-1.4253323E-2,-6.719105E-2,-5.939549E-2,-5.5748105E-2,-4.4224158E-2,-1.2936681E-2,1.693204E-2,-2.1505151E-2,-5.8624733E-2,4.3006785E-2,-4.5404058E-2,-2.713736E-2,1.2720277E-3,-3.6440313E-2,-1.6795255E-2,-8.6385375E-3,1.3266432E-2,2.6014403E-2,2.0170728E-2,1.885279E-2,4.1906714E-2],"split_indices":[1,0,0,1,0,2,0,0,2,2,0,0,2,0,1,2,1,1,1,0,0,2,1,2,0,2,1,2,2,2,0,0,0,0,0,0,0,0,0,0,0,0,0,0,0,0,0,0,0,0,0,0,0,0,0,0,0,0,0,0,0],"split_type":[0,0,0,0,0,0,0,0,0,0,0,0,0,0,0,0,0,0,0,0,0,0,0,0,0,0,0,0,0,0,0,0,0,0,0,0,0,0,0,0,0,0,0,0,0,0,0,0,0,0,0,0,0,0,0,0,0,0,0,0,0],"sum_hessian":[1.9304612E3,1.1464032E3,7.84058E2,2.134673E1,1.1250565E3,1.5046667E2,6.335913E2,1.2208913E1,9.137816E0,7.191409E2,4.059156E2,2.1770855E1,1.2869582E2,5.5419183E2,7.939949E1,8.409221E0,3.799692E0,6.278383E0,2.8594337E0,4.647616E0,7.144933E2,3.9942355E2,6.4920444E0,1.8200237E1,3.5706172E0,4.5860622E1,8.28352E1,3.015494E1,5.2403687E2,7.165544E1,7.744049E0,7.3565397E0,1.052681E0,2.4932966E0,1.3063952E0,3.2993848E0,2.978998E0,1.1189089E0,1.7405249E0,1.4993129E0,3.1483028E0,4.9080545E2,2.2368784E2,2.0458606E2,1.948375E2,5.1179104E0,1.3741341E0,2.2526743E0,1.5947563E1,2.3713467E0,1.1992705E0,1.4076558E1,3.1784065E1,5.7438286E1,2.5396906E1,6.893212E0,2.3261728E1,3.099096E2,2.1412729E2,6.2088647E0,6.544658E1],"tree_param":{"num_deleted":"0","num_feature":"4","num_nodes":"61","size_leaf_vector":"1"}},{"base_weights":[-5.477752E-1,-1.1166608E0,2.7616838E-1,1.5942566E-1,-1.1385905E0,-5.488865E-1,4.6732765E-1,5.27747E-1,-3.1413007E-1,-1.240351E0,-9.305663E-1,-4.9373E-1,-1.0828079E0,4.2871577E-1,7.1580595E-1,5.24396E-2,1.7508768E-1,-4.0208054E-1,-4.9285605E-3,7.274864E-2,-1.2475361E0,7.0569895E-2,-9.508585E-1,-7.9170036E-1,-3.915858E-1,-6.425178E-2,-3.7985504E-1,4.8480022E-1,3.6479977E-1,4.0909728E-1,7.835028E-1,-9.500137E-3,3.769436E-2,-6.743306E-3,-3.044388E-2,2.4692222E-2,-8.295986E-3,-6.261737E-2,3.835347E-3,-1.0276618E-2,1.920276E-2,-5.8346488E-2,-4.2931505E-2,-4.497539E-2,1.9770258E-3,-1.2221956E-2,-3.753149E-2,1.1848553E-2,-4.9001355E-2,2.7581919E-2,1.4603907E-2,1.7024862E-2,4.330199E-2,2.983881E-2,4.9620545E-3,4.157467E-2,1.7681258E-2],"categories":[],"categories_nodes":[],"categories_segments":[],"categories_sizes":[],"default_left":[0,0,0,0,0,0,0,0,0,0,0,0,0,0,0,0,0,0,0,0,0,0,0,0,0,0,0,0,0,0,0,0,0,0,0,0,0,0,0,0,0,0,0,0,0,0,0,0,0,0,0,0,0,0,0,0,0],"id":10,"left_children":[1,3,5,7,9,11,13,15,17,19,21,23,25,27,29,-1,31,33,-1,35,37,39,41,43,45,-1,47,49,51,53,55,-1,-1,-1,-1,-1,-1,-1,-1,-1,-1,-1,-1,-1,-1,-1,-1,-1,-1,-1,-1,-1,-1,-1,-1,-1,-1],"loss_changes":[8.977368E2,3.188208E1,1.2371694E2,3.6569066E0,2.2422974E1,3.8153725E0,5.795883E0,1.953742E0,1.3826674E-1,7.1186523E0,7.581024E0,3.8207169E0,1.3588219E0,1.8055878E0,1.4247551E0,0E0,1.8627497E0,2.682103E-1,0E0,5.8432275E-1,4.8168945E0,7.955058E-1,6.223694E0,3.0527496E0,5.260886E0,0E0,1.8323561E0,3.5940094E0,2.9028473E0,9.463098E-1,1.103962E0,0E0,0E0,0E0,0E0,0E0,0E0,0E0,0E0,0E0,0E0,0E0,0E0,0E0,0E0,0E0,0E0,0E0,0E0,0E0,0E0,0E0,0E0,0E0,0E0,0E0,0E0],"parents":[2147483647,0,0,1,1,2,2,3,3,4,4,5,5,6,6,7,7,8,8,9,9,10,10,11,11,12,12,13,13,14,14,16,16,17,17,19,19,20,20,21,21,22,22,23,23,24,24,26,26,27,27,28,28,29,29,30,30],"right_children":[2,4,6,8,10,12,14,16,18,20,22,24,26,28,30,-1,32,34,-1,36,38,40,42,44,46,-1,48,50,52,54,56,-1,-1,-1,-1,-1,-1,-1,-1,-1,-1,-1,-1,-1,-1,-1,-1,-1,-1,-1,-1,-1,-1,-1,-1,-1,-1],"split_conditions":[2.2E1,5.52E1,7E1,1.76E1,2.069E1,6.97E1,7.88E1,4.41E0,5.61E0,3.42E0,3.7E0,6.644E1,2.324E1,5.38E0,4.04E0,5.24396E-2,5.11E0,1.8E1,-4.9285605E-3,5.86E1,7.88E1,6.744E1,4.86E0,2.74E1,5.66E0,-6.425178E-2,2.362E1,2.407E1,2.55E1,3.92E0,2.74E1,-9.500137E-3,3.769436E-2,-6.743306E-3,-3.044388E-2,2.4692222E-2,-8.295986E-3,-6.261737E-2,3.835347E-3,-1.0276618E-2,1.920276E-2,-5.8346488E-2,-4.2931505E-2,-4.497539E-2,1.9770258E-3,-1.2221956E-2,-3.753149E-2,1.1848553E-2,-4.9001355E-2,2.7581919E-2,1.4603907E-2,1.7024862E-2,4.330199E-2,2.983881E-2,4.9620545E-3,4.157467E-2,1.7681258E-2],"split_indices":[1,0,0,1,1,0,0,2,2,2,2,0,1,2,2,0,2,1,0,0,0,0,2,1,2,0,1,1,1,2,1,0,0,0,0,0,0,0,0,0,0,0,0,0,0,0,0,0,0,0,0,0,0,0,0,0,0],"split_type":[0,0,0,0,0,0,0,0,0,0,0,0,0,0,0,0,0,0,0,0,0,0,0,0,0,0,0,0,0,0,0,0,0,0,0,0,0,0,0,0,0,0,0,0,0,0,0,0,0,0,0,0,0,0,0,0,0],"sum_hessian":[1.9135974E3,1.1317997E3,7.817978E2,1.9015547E1,1.112784E3,1.4671138E2,6.350864E2,1.0631873E1,8.383674E0,7.439154E2,3.688687E2,1.3471902E2,1.1992356E1,5.5202997E2,8.305645E1,3.4946566E0,7.137217E0,5.3397155E0,3.0439582E0,3.998736E0,7.399167E2,7.278878E0,3.6158984E2,3.266867E1,1.02050354E2,8.67007E0,3.3222868E0,2.9052106E2,2.6150888E2,1.6291046E1,6.67654E1,4.7884974E0,2.3487196E0,3.0503495E0,2.2893662E0,1.0597658E0,2.93897E0,7.372922E2,2.6244895E0,4.0532985E0,3.2255797E0,1.0468434E2,2.569055E2,2.8845448E1,3.823223E0,7.357712E1,2.847324E1,1.9368515E0,1.3854352E0,2.1432758E2,7.61935E1,2.5101762E2,1.049125E1,9.569097E0,6.7219486E0,5.9219982E1,7.545424E0],"tree_param":{"num_deleted":"0","num_feature":"4","num_nodes":"57","size_leaf_vector":"1"}},{"base_weights":[-5.3792256E-1,-1.0965271E0,2.5938332E-1,1.7379704E-1,-1.1230091E0,-4.945122E-1,4.3225536E-1,8.1543505E-1,-1.8612452E-1,-1.2074358E0,-9.1288656E-1,-7.5352544E-1,-4.0155572E-1,3.9135435E-1,6.970305E-1,4.553652E-2,3.0870084E-3,2.7418563E-2,-2.870532E-1,2.9963236E-2,-1.2193725E0,-9.5571786E-1,-5.1205426E-1,-5.758572E-1,-1.1454353E0,1.4699109E-1,-6.199963E-1,2.369202E-1,4.107345E-1,3.6257055E-1,7.6517266E-1,-3.4992557E-2,-5.015909E-3,2.9028652E-2,-1.1218778E-2,-6.315823E-2,-5.5824514E-2,-4.877139E-2,-1.8008295E-4,-4.0518355E-2,-4.4798567E-3,-4.108744E-2,-1.1737944E-2,-6.610071E-2,-7.487354E-3,2.6348725E-2,-6.2612044E-3,-1.572631E-2,-3.6412887E-2,9.460974E-3,2.746517E-2,2.3965936E-2,1.7692465E-2,2.5034308E-2,6.1214413E-3,4.830135E-2,3.3152856E-2],"categories":[],"categories_nodes":[],"categories_segments":[],"categories_sizes":[],"default_left":[0,0,0,0,0,0,0,0,0,0,0,0,0,0,0,0,0,0,0,0,0,0,0,0,0,0,0,0,0,0,0,0,0,0,0,0,0,0,0,0,0,0,0,0,0,0,0,0,0,0,0,0,0,0,0,0,0],"id":11,"left_children":[1,3,5,7,9,11,13,15,17,19,21,23,25,27,29,-1,-1,-1,31,33,35,37,39,41,43,45,47,49,51,53,55,-1,-1,-1,-1,-1,-1,-1,-1,-1,-1,-1,-1,-1,-1,-1,-1,-1,-1,-1,-1,-1,-1,-1,-1,-1,-1],"loss_changes":[8.4557904E2,3.7745605E1,1.0222244E2,5.615812E0,1.8297363E1,3.2238998E0,6.628273E0,5.6780005E-1,1.3414223E0,1.1513184E1,4.9622803E0,1.9544144E0,1.3262945E1,1.5615616E0,1.6366768E0,0E0,0E0,0E0,1.0628133E0,1.3065915E0,2.057129E0,5.358612E0,4.0622473E0,2.142312E0,1.6831579E0,3.3879304E0,2.3772411E0,8.521378E-1,1.7463608E0,4.73212E-1,7.720299E-1,0E0,0E0,0E0,0E0,0E0,0E0,0E0,0E0,0E0,0E0,0E0,0E0,0E0,0E0,0E0,0E0,0E0,0E0,0E0,0E0,0E0,0E0,0E0,0E0,0E0,0E0],"parents":[2147483647,0,0,1,1,2,2,3,3,4,4,5,5,6,6,7,7,8,8,9,9,10,10,11,11,12,12,13,13,14,14,18,18,19,19,20,20,21,21,22,22,23,23,24,24,25,25,26,26,27,27,28,28,29,29,30,30],"right_children":[2,4,6,8,10,12,14,16,18,20,22,24,26,28,30,-1,-1,-1,32,34,36,38,40,42,44,46,48,50,52,54,56,-1,-1,-1,-1,-1,-1,-1,-1,-1,-1,-1,-1,-1,-1,-1,-1,-1,-1,-1,-1,-1,-1,-1,-1,-1,-1],"split_conditions":[2.2E1,5.52E1,7E1,1.67E1,6.56E1,4.89E0,7.88E1,5.11E0,4.33E0,3.42E0,2.18E1,2.303E1,5.21E0,7.06E1,4.04E0,4.553652E-2,3.0870084E-3,2.7418563E-2,5.01E0,6.121E1,2.036E1,7.56E1,5.28E0,6.804E1,2.427E1,5.07E0,2.225E1,2.372E1,5.21E0,3.92E0,2.448E1,-3.4992557E-2,-5.015909E-3,2.9028652E-2,-1.1218778E-2,-6.315823E-2,-5.5824514E-2,-4.877139E-2,-1.8008295E-4,-4.0518355E-2,-4.4798567E-3,-4.108744E-2,-1.1737944E-2,-6.610071E-2,-7.487354E-3,2.6348725E-2,-6.2612044E-3,-1.572631E-2,-3.6412887E-2,9.460974E-3,2.746517E-2,2.3965936E-2,1.7692465E-2,2.5034308E-2,6.1214413E-3,4.830135E-2,3.3152856E-2],"split_indices":[1,0,0,1,0,2,0,2,2,2,1,1,2,0,2,0,0,0,2,0,1,0,2,0,1,2,1,1,2,2,1,0,0,0,0,0,0,0,0,0,0,0,0,0,0,0,0,0,0,0,0,0,0,0,0,0,0],"split_type":[0,0,0,0,0,0,0,0,0,0,0,0,0,0,0,0,0,0,0,0,0,0,0,0,0,0,0,0,0,0,0,0,0,0,0,0,0,0,0,0,0,0,0,0,0,0,0,0,0,0,0,0,0,0,0,0,0],"sum_hessian":[1.8969237E3,1.1152133E3,7.817105E2,2.2660065E1,1.0925531E3,1.4546716E2,6.362433E2,7.688342E0,1.4971723E1,7.7600806E2,3.1654507E2,3.6541637E1,1.0892553E2,5.5325726E2,8.298608E1,6.6403923E0,1.0479496E0,1.2731655E0,1.3698557E1,7.399837E0,7.686082E2,2.8473514E2,3.1809958E1,2.684232E1,9.699321E0,3.1115513E1,7.781002E1,6.3162323E1,4.900949E2,1.5115574E1,6.787051E1,3.4107952E0,1.0287762E1,1.9328332E0,5.467004E0,5.312171E2,2.3739116E2,2.7893634E2,5.7987795E0,1.810624E1,1.3703717E1,1.4779163E1,1.2063155E1,7.959939E0,1.7393816E0,1.2596402E1,1.8519112E1,2.1382492E1,5.6427525E1,5.6188156E1,6.974167E0,2.1883205E2,2.7126288E2,8.907523E0,6.2080507E0,2.0024174E1,4.7846333E1],"tree_param":{"num_deleted":"0","num_feature":"4","num_nodes":"57","size_leaf_vector":"1"}},{"base_weights":[-5.08E-1,-1.0528468E0,2.5455186E-1,1.3952179E-1,-1.075786E0,-4.8883402E-1,4.2981946E-1,5.6972206E-1,-4.0755922E-1,-1.1859084E0,-9.322972E-1,-5.240628E-1,1.7917049E-1,3.9882532E-1,6.275151E-1,3.918251E-2,3.4349385E-1,-5.210309E-1,-1.1752265E-2,-2.1485755E-1,-1.1902893E0,1.7363231E-1,-9.4469005E-1,-3.0496174E-1,-6.203385E-1,3.1183127E-2,-1.37230605E-2,6.2877975E-2,4.084487E-1,6.595824E-1,2.8761303E-1,2.691777E-2,-1.0887319E-2,-1.1253022E-2,-3.890325E-2,-1.6686816E-2,9.253064E-4,-5.9677728E-2,-1.0016637E-2,-1.1502467E-2,1.8760094E-2,-5.2785315E-2,-4.100718E-2,-2.3663228E-2,6.3981875E-3,-5.4623406E-2,-2.7396297E-2,-9.779752E-3,2.808816E-3,9.443966E-3,-5.149097E-3,-6.960483E-3,2.0574333E-2,1.8681096E-2,3.5695888E-2,2.1683006E-2,3.5534587E-3],"categories":[],"categories_nodes":[],"categories_segments":[],"categories_sizes":[],"default_left":[0,0,0,0,0,0,0,0,0,0,0,0,0,0,0,0,0,0,0,0,0,0,0,0,0,0,0,0,0,0,0,0,0,0,0,0,0,0,0,0,0,0,0,0,0,0,0,0,0,0,0,0,0,0,0,0,0],"id":12,"left_children":[1,3,5,7,9,11,13,15,17,19,21,23,25,27,29,-1,31,33,-1,35,37,39,41,43,45,-1,47,49,51,53,55,-1,-1,-1,-1,-1,-1,-1,-1,-1,-1,-1,-1,-1,-1,-1,-1,-1,-1,-1,-1,-1,-1,-1,-1,-1,-1],"loss_changes":[7.834662E2,3.0228394E1,1.026703E2,5.325714E0,1.5944702E1,3.6356544E0,3.6522217E0,3.3733368E-1,7.543707E-2,2.3256836E0,6.6496887E0,2.831852E0,7.1888304E-1,1.7631531E0,7.321205E-1,0E0,9.780694E-1,2.2630227E-1,0E0,1.15634724E-1,1.7128906E0,5.817517E-1,5.606781E0,3.389443E0,2.7699623E0,0E0,9.687417E-2,3.6617112E-1,9.519348E-1,9.2204285E-1,2.5584227E-1,0E0,0E0,0E0,0E0,0E0,0E0,0E0,0E0,0E0,0E0,0E0,0E0,0E0,0E0,0E0,0E0,0E0,0E0,0E0,0E0,0E0,0E0,0E0,0E0,0E0,0E0],"parents":[2147483647,0,0,1,1,2,2,3,3,4,4,5,5,6,6,7,7,8,8,9,9,10,10,11,11,12,12,13,13,14,14,16,16,17,17,19,19,20,20,21,21,22,22,23,23,24,24,26,26,27,27,28,28,29,29,30,30],"right_children":[2,4,6,8,10,12,14,16,18,20,22,24,26,28,30,-1,32,34,-1,36,38,40,42,44,46,-1,48,50,52,54,56,-1,-1,-1,-1,-1,-1,-1,-1,-1,-1,-1,-1,-1,-1,-1,-1,-1,-1,-1,-1,-1,-1,-1,-1,-1,-1],"split_conditions":[2.2E1,5.52E1,7E1,1.76E1,2.04E1,2.517E1,7.88E1,4.51E0,5.31E0,3.42E0,3.42E0,2.229E1,5.01E0,7.01E1,2.74E1,3.918251E-2,1.73E1,1.8E1,-1.1752265E-2,6.23E1,7.88E1,2.069E1,5.3E0,6.86E1,4.5E0,3.1183127E-2,2.74E1,5.41E0,3.7E0,4.04E0,5.07E0,2.691777E-2,-1.0887319E-2,-1.1253022E-2,-3.890325E-2,-1.6686816E-2,9.253064E-4,-5.9677728E-2,-1.0016637E-2,-1.1502467E-2,1.8760094E-2,-5.2785315E-2,-4.100718E-2,-2.3663228E-2,6.3981875E-3,-5.4623406E-2,-2.7396297E-2,-9.779752E-3,2.808816E-3,9.443966E-3,-5.149097E-3,-6.960483E-3,2.0574333E-2,1.8681096E-2,3.5695888E-2,2.1683006E-2,3.5534587E-3],"split_indices":[1,0,0,1,1,1,0,2,2,2,2,1,2,0,1,0,1,1,0,0,0,1,2,0,2,0,1,2,2,2,2,0,0,0,0,0,0,0,0,0,0,0,0,0,0,0,0,0,0,0,0,0,0,0,0,0,0],"split_type":[0,0,0,0,0,0,0,0,0,0,0,0,0,0,0,0,0,0,0,0,0,0,0,0,0,0,0,0,0,0,0,0,0,0,0,0,0,0,0,0,0,0,0,0,0,0,0,0,0,0,0,0,0,0,0,0,0],"sum_hessian":[1.8840719E3,1.0986797E3,7.853923E2,2.0641907E1,1.0780378E3,1.4950171E2,6.3589056E2,1.1532149E1,9.109757E0,6.058243E2,4.7221353E2,1.4221704E2,7.2846684E0,5.523172E2,8.357333E1,4.66079E0,6.87136E0,4.2765884E0,4.833169E0,2.9455924E0,6.0287866E2,5.088696E0,4.6712482E2,4.468713E1,9.7529915E1,1.5287396E0,5.755929E0,1.5590607E1,5.367266E2,7.5509094E1,8.06424E0,5.130749E0,1.7406108E0,2.8595126E0,1.4170758E0,1.6665274E0,1.279065E0,6.006917E2,2.186967E0,1.6476572E0,3.4410388E0,2.4302483E2,2.241E2,3.2110695E1,1.2576435E1,1.109617E1,8.643374E1,1.0987755E0,4.657153E0,8.781013E0,6.809594E0,2.7136068E0,5.34013E2,1.33142185E1,6.2194878E1,4.217274E0,3.846966E0],"tree_param":{"num_deleted":"0","num_feature":"4","num_nodes":"57","size_leaf_vector":"1"}},{"base_weights":[-5.0545263E-1,-1.0265405E0,2.276883E-1,2.4147718E-1,-1.0504487E0,-5.118258E-1,4.0237558E-1,6.909379E-1,-3.7076813E-1,-1.17223E0,-8.754847E-1,-8.8319725E-1,-3.903092E-1,3.731871E-1,6.1199003E-1,5.3801727E-2,3.579446E-1,-7.286063E-3,-2.1797126E-2,5.680595E-2,-1.1794701E0,1.3224943E-1,-8.871577E-1,-9.270502E-1,8.406772E-3,9.479053E-2,-5.7492596E-1,3.9801472E-1,1.8920295E-1,4.6338093E-1,8.537751E-1,2.2559067E-2,-1.7440243E-3,2.8401425E-2,-1.28105525E-2,-6.076006E-2,-5.4095473E-2,-3.641226E-3,1.6755732E-2,-5.0178256E-2,-3.7849616E-2,-5.3110775E-2,-3.5211388E-2,-1.6102856E-2,1.3442968E-2,-3.0988833E-2,3.7679318E-3,2.374773E-2,1.7191889E-2,-6.6513935E-4,2.6625728E-2,6.403559E-3,2.722301E-2,5.06939E-2,2.1187574E-2],"categories":[],"categories_nodes":[],"categories_segments":[],"categories_sizes":[],"default_left":[0,0,0,0,0,0,0,0,0,0,0,0,0,0,0,0,0,0,0,0,0,0,0,0,0,0,0,0,0,0,0,0,0,0,0,0,0,0,0,0,0,0,0,0,0,0,0,0,0,0,0,0,0,0,0],"id":13,"left_children":[1,3,5,7,9,11,13,15,17,19,21,23,25,27,29,-1,31,-1,-1,33,35,37,39,41,-1,43,45,47,49,51,53,-1,-1,-1,-1,-1,-1,-1,-1,-1,-1,-1,-1,-1,-1,-1,-1,-1,-1,-1,-1,-1,-1,-1,-1],"loss_changes":[7.02695E2,3.2843384E1,9.900003E1,5.954301E0,2.1459229E1,6.269718E0,3.55999E0,1.1908536E0,7.459259E-2,5.5772705E0,5.2582397E0,1.7853565E0,1.0105309E1,2.4190674E0,2.2675915E0,0E0,3.1201696E-1,0E0,0E0,8.7853676E-1,8.3154297E-1,2.6880234E-1,5.7884827E0,2.7844238E-1,0E0,2.3936777E0,2.4217281E0,1.8384857E0,4.6534977E0,1.2377214E0,1.4311676E0,0E0,0E0,0E0,0E0,0E0,0E0,0E0,0E0,0E0,0E0,0E0,0E0,0E0,0E0,0E0,0E0,0E0,0E0,0E0,0E0,0E0,0E0,0E0,0E0],"parents":[2147483647,0,0,1,1,2,2,3,3,4,4,5,5,6,6,7,7,8,8,9,9,10,10,11,11,12,12,13,13,14,14,16,16,19,19,20,20,21,21,22,22,23,23,25,25,26,26,27,27,28,28,29,29,30,30],"right_children":[2,4,6,8,10,12,14,16,18,20,22,24,26,28,30,-1,32,-1,-1,34,36,38,40,42,-1,44,46,48,50,52,54,-1,-1,-1,-1,-1,-1,-1,-1,-1,-1,-1,-1,-1,-1,-1,-1,-1,-1,-1,-1,-1,-1,-1,-1],"split_conditions":[2.2E1,5.52E1,7E1,1.76E1,6.44E1,4.88E0,2.53E1,4.51E0,5.38E1,3.42E0,3.42E0,2.517E1,5.21E0,5.9E0,5.46E0,5.3801727E-2,5.41E0,-7.286063E-3,-2.1797126E-2,1.957E1,6.29E1,6.744E1,5.2E0,6.83E1,8.406772E-3,6.72E1,2.496E1,2.317E1,2.372E1,7.74E1,8.06E1,2.2559067E-2,-1.7440243E-3,2.8401425E-2,-1.28105525E-2,-6.076006E-2,-5.4095473E-2,-3.641226E-3,1.6755732E-2,-5.0178256E-2,-3.7849616E-2,-5.3110775E-2,-3.5211388E-2,-1.6102856E-2,1.3442968E-2,-3.0988833E-2,3.7679318E-3,2.374773E-2,1.7191889E-2,-6.6513935E-4,2.6625728E-2,6.403559E-3,2.722301E-2,5.06939E-2,2.1187574E-2],"split_indices":[1,0,0,1,0,2,1,2,0,2,2,1,2,2,2,0,2,0,0,1,0,0,2,0,0,0,1,1,1,0,0,0,0,0,0,0,0,0,0,0,0,0,0,0,0,0,0,0,0,0,0,0,0,0,0],"split_type":[0,0,0,0,0,0,0,0,0,0,0,0,0,0,0,0,0,0,0,0,0,0,0,0,0,0,0,0,0,0,0,0,0,0,0,0,0,0,0,0,0,0,0,0,0,0,0,0,0,0,0,0,0,0,0],"sum_hessian":[1.8377556E3,1.073999E3,7.637566E2,1.9706879E1,1.0542921E3,1.4557124E2,6.1818536E2,1.1290085E1,8.416793E0,6.182604E2,4.360317E2,3.4343777E1,1.11227455E2,5.450661E2,7.311928E1,4.2007008E0,7.089384E0,2.6168137E0,5.7999797E0,3.580648E0,6.1467975E2,4.874613E0,4.311571E2,3.308208E1,1.2616986E0,3.079553E1,8.043193E1,4.792329E2,6.583316E1,4.709167E1,2.6027607E1,5.609434E0,1.4799502E0,1.0504133E0,2.5302348E0,4.415197E2,1.7316003E2,2.7428846E0,2.1317282E0,2.24065E2,2.070921E2,1.8246536E1,1.4835543E1,8.821135E0,2.1974396E1,7.528628E1,5.14565E0,1.9480803E2,2.844249E2,4.2012768E1,2.3820393E1,9.671985E0,3.741969E1,1.7976873E1,8.050733E0],"tree_param":{"num_deleted":"0","num_feature":"4","num_nodes":"55","size_leaf_vector":"1"}},{"base_weights":[-4.6983844E-1,-9.193316E-1,2.8205723E-1,-1.0294642E0,-5.8555126E-1,4.7296962E-1,-9.326809E-2,2.2341033E-2,-1.06256E0,-2.5608766E-1,-9.8125106E-1,5.497157E-1,3.0989912E-1,5.242116E-2,-4.5518297E-1,4.2178947E-2,-2.367815E-1,-1.1690654E0,-9.3040305E-1,-7.068036E-1,-1.212348E-1,-8.0079085E-1,-1.2333075E0,3.674689E-1,7.1420366E-1,6.815669E-1,2.1306808E-1,-9.545825E-2,2.3609678E-1,-5.1423335E-1,1.1895021E-1,-2.9215058E-3,-3.7481528E-2,-5.4331917E-2,-6.142516E-2,-3.6199268E-2,-5.3107966E-2,3.1913035E-3,-3.7304826E-2,8.120012E-4,-2.7016852E-2,-4.3171745E-2,3.704298E-2,-9.760733E-3,-6.322706E-2,7.854746E-4,2.5895713E-2,4.2776495E-2,2.9419621E-2,-2.173146E-2,3.933012E-2,6.9282465E-3,3.294926E-2,-2.2508815E-2,-2.2792998E-3,2.1277593E-2,6.44983E-3,-3.0518783E-2,-1.6542727E-2,1.812723E-2,-1.0579138E-2],"categories":[],"categories_nodes":[],"categories_segments":[],"categories_sizes":[],"default_left":[0,0,0,0,0,0,0,0,0,0,0,0,0,0,0,0,0,0,0,0,0,0,0,0,0,0,0,0,0,0,0,0,0,0,0,0,0,0,0,0,0,0,0,0,0,0,0,0,0,0,0,0,0,0,0,0,0,0,0,0,0],"id":14,"left_children":[1,3,5,7,9,11,13,15,17,19,21,23,25,27,29,-1,31,33,35,37,39,41,43,45,47,49,51,53,55,57,59,-1,-1,-1,-1,-1,-1,-1,-1,-1,-1,-1,-1,-1,-1,-1,-1,-1,-1,-1,-1,-1,-1,-1,-1,-1,-1,-1,-1,-1,-1],"loss_changes":[6.228426E2,4.17865E1,4.9484318E1,3.0159912E1,3.734778E1,5.55542E0,1.233403E1,6.0281734E0,1.0726318E1,9.561816E0,4.956421E0,9.024788E0,5.206538E0,4.5682697E0,2.3364553E0,0E0,1.9319566E0,9.2303467E-1,9.551178E0,1.1482124E0,7.1174674E0,8.269745E0,1.4609451E0,7.8786087E0,2.373085E0,3.8919382E0,3.8762622E0,1.632223E0,1.4655304E0,8.7423706E-1,6.4603555E-1,0E0,0E0,0E0,0E0,0E0,0E0,0E0,0E0,0E0,0E0,0E0,0E0,0E0,0E0,0E0,0E0,0E0,0E0,0E0,0E0,0E0,0E0,0E0,0E0,0E0,0E0,0E0,0E0,0E0,0E0],"parents":[2147483647,0,0,1,1,2,2,3,3,4,4,5,5,6,6,7,7,8,8,9,9,10,10,11,11,12,12,13,13,14,14,16,16,17,17,18,18,19,19,20,20,21,21,22,22,23,23,24,24,25,25,26,26,27,27,28,28,29,29,30,30],"right_children":[2,4,6,8,10,12,14,16,18,20,22,24,26,28,30,-1,32,34,36,38,40,42,44,46,48,50,52,54,56,58,60,-1,-1,-1,-1,-1,-1,-1,-1,-1,-1,-1,-1,-1,-1,-1,-1,-1,-1,-1,-1,-1,-1,-1,-1,-1,-1,-1,-1,-1,-1],"split_conditions":[7E1,6.65E1,1.6E0,5.58E1,7.1E-1,4.9E-1,5.01E0,4.51E0,6.301E1,4.5E0,3.49E0,5E0,5.21E0,7.4E1,8.06E1,4.2178947E-2,5.52E1,3.6E-1,3E-1,3.42E0,5.72E0,3.12E0,6.658E1,7.23E1,5.45E0,7.05E1,7.83E1,4.61E0,5.02E0,7.53E1,7.3E0,-2.9215058E-3,-3.7481528E-2,-5.4331917E-2,-6.142516E-2,-3.6199268E-2,-5.3107966E-2,3.1913035E-3,-3.7304826E-2,8.120012E-4,-2.7016852E-2,-4.3171745E-2,3.704298E-2,-9.760733E-3,-6.322706E-2,7.854746E-4,2.5895713E-2,4.2776495E-2,2.9419621E-2,-2.173146E-2,3.933012E-2,6.9282465E-3,3.294926E-2,-2.2508815E-2,-2.2792998E-3,2.1277593E-2,6.44983E-3,-3.0518783E-2,-1.6542727E-2,1.812723E-2,-1.0579138E-2],"split_indices":[0,0,3,0,3,3,3,2,0,2,3,2,2,0,0,0,0,3,3,2,2,3,0,0,2,0,0,2,2,0,3,0,0,0,0,0,0,0,0,0,0,0,0,0,0,0,0,0,0,0,0,0,0,0,0,0,0,0,0,0,0],"split_type":[0,0,0,0,0,0,0,0,0,0,0,0,0,0,0,0,0,0,0,0,0,0,0,0,0,0,0,0,0,0,0,0,0,0,0,0,0,0,0,0,0,0,0,0,0,0,0,0,0,0,0,0,0,0,0,0,0,0,0,0,0],"sum_hessian":[1.8411151E3,1.1521324E3,6.8898267E2,8.647268E2,2.874056E2,4.5651318E2,2.3246945E2,2.6389078E1,8.3833777E2,1.577274E2,1.296782E2,3.0880768E2,1.477055E2,1.663573E2,6.611216E1,5.7883906E0,2.0600687E1,4.5987674E2,3.78461E2,3.53469E1,1.223805E2,7.800642E1,5.1671795E1,1.480299E2,1.6077777E2,2.9280205E1,1.184253E2,9.242507E1,7.393222E1,6.0041176E1,6.070986E0,1.6111567E1,4.4891195E0,2.0075557E2,2.591212E2,1.4998303E2,2.2847797E2,1.6845423E0,3.366236E1,9.287628E1,2.9504225E1,7.5383194E1,2.623224E0,1.7210312E0,4.9950764E1,4.467613E1,1.0335378E2,7.298837E1,8.77894E1,2.2484403E0,2.7031763E1,1.0259468E2,1.583062E1,1.0403469E1,8.20216E1,2.56266E1,4.8305622E1,3.7862194E1,2.2178982E1,3.4393923E0,2.6315932E0],"tree_param":{"num_deleted":"0","num_feature":"4","num_nodes":"61","size_leaf_vector":"1"}},{"base_weights":[-4.637736E-1,-9.739836E-1,2.2763488E-1,1.2621409E-1,-9.9658704E-1,-3.6398318E-1,3.629416E-1,4.6402782E-1,-2.7827576E-1,-1.0804609E0,-7.7349794E-1,-3.9624748E-1,2.3485537E-1,3.329929E-1,5.537668E-1,5.0114006E-2,2.622634E-1,-3.9482205E-3,-3.3439296E-1,4.4895183E-2,-1.0876051E0,-1.030339E0,-7.115676E-1,-5.5566896E-2,-3.5443226E-1,3.1727772E-2,3.8919542E-2,3.8222438E-1,2.7556145E-1,3.4881094E-1,5.934866E-1,1.9383507E-2,-1.0970919E-2,-2.6628254E-2,-9.938209E-3,2.3012891E-2,-7.7202334E-3,-5.4600686E-2,4.5594354E-3,-3.680038E-2,-5.5467397E-2,-4.410109E-2,-2.8389817E-2,-1.12454295E-2,-2.7250683E-2,-5.846047E-3,8.71723E-3,2.065838E-2,7.622997E-3,1.2631175E-2,4.6339978E-2,2.7203316E-2,4.0550227E-3,4.7215786E-2,2.7506484E-2],"categories":[],"categories_nodes":[],"categories_segments":[],"categories_sizes":[],"default_left":[0,0,0,0,0,0,0,0,0,0,0,0,0,0,0,0,0,0,0,0,0,0,0,0,0,0,0,0,0,0,0,0,0,0,0,0,0,0,0,0,0,0,0,0,0,0,0,0,0,0,0,0,0,0,0],"id":15,"left_children":[1,3,5,7,9,11,13,15,17,19,21,23,25,27,29,-1,31,-1,33,35,37,39,41,-1,43,-1,45,47,49,51,53,-1,-1,-1,-1,-1,-1,-1,-1,-1,-1,-1,-1,-1,-1,-1,-1,-1,-1,-1,-1,-1,-1,-1,-1],"loss_changes":[6.3006287E2,2.567871E1,6.088327E1,3.0769339E0,1.800586E1,2.8320312E0,3.3483276E0,1.054497E0,9.039557E-2,5.9122314E0,3.6992645E0,3.639408E0,5.920533E-1,1.412468E0,4.633541E-1,0E0,6.998414E-1,0E0,1.04851425E-1,5.314184E-1,3.8660278E0,3.9055252E-1,5.08062E0,0E0,3.0593452E0,0E0,1.5439872E-1,1.9736061E0,3.520609E0,7.814301E-1,5.080452E-1,0E0,0E0,0E0,0E0,0E0,0E0,0E0,0E0,0E0,0E0,0E0,0E0,0E0,0E0,0E0,0E0,0E0,0E0,0E0,0E0,0E0,0E0,0E0,0E0],"parents":[2147483647,0,0,1,1,2,2,3,3,4,4,5,5,6,6,7,7,8,8,9,9,10,10,11,11,12,12,13,13,14,14,16,16,18,18,19,19,20,20,21,21,22,22,24,24,26,26,27,27,28,28,29,29,30,30],"right_children":[2,4,6,8,10,12,14,16,18,20,22,24,26,28,30,-1,32,-1,34,36,38,40,42,-1,44,-1,46,48,50,52,54,-1,-1,-1,-1,-1,-1,-1,-1,-1,-1,-1,-1,-1,-1,-1,-1,-1,-1,-1,-1,-1,-1,-1,-1],"split_conditions":[2.2E1,5.52E1,7E1,1.76E1,2.09E1,2.496E1,7.88E1,4.22E0,1.8E1,3.42E0,6.41E1,6.421E1,5.01E0,5.31E0,4.04E0,5.0114006E-2,1.73E1,-3.9482205E-3,5.31E0,5.86E1,7.88E1,2.092E1,5.1E0,-5.5566896E-2,5.41E0,3.1727772E-2,6.62E1,7.7E1,2.56E1,3.92E0,4.19E0,1.9383507E-2,-1.0970919E-2,-2.6628254E-2,-9.938209E-3,2.3012891E-2,-7.7202334E-3,-5.4600686E-2,4.5594354E-3,-3.680038E-2,-5.5467397E-2,-4.410109E-2,-2.8389817E-2,-1.12454295E-2,-2.7250683E-2,-5.846047E-3,8.71723E-3,2.065838E-2,7.622997E-3,1.2631175E-2,4.6339978E-2,2.7203316E-2,4.0550227E-3,4.7215786E-2,2.7506484E-2],"split_indices":[1,0,0,1,1,1,0,2,1,2,0,0,2,2,2,0,1,0,2,0,0,1,2,0,2,0,0,0,1,2,2,0,0,0,0,0,0,0,0,0,0,0,0,0,0,0,0,0,0,0,0,0,0,0,0],"split_type":[0,0,0,0,0,0,0,0,0,0,0,0,0,0,0,0,0,0,0,0,0,0,0,0,0,0,0,0,0,0,0,0,0,0,0,0,0,0,0,0,0,0,0,0,0,0,0,0,0,0,0,0,0,0,0],"sum_hessian":[1.7844486E3,1.0265325E3,7.5791614E2,2.0573172E1,1.00595935E3,1.4076074E2,6.171554E2,1.1130353E1,9.442818E0,7.283002E2,2.7765915E2,1.3388556E2,6.875189E0,5.3580896E2,8.134647E1,1.9529204E0,9.177432E0,2.6034126E0,6.839405E0,4.56104E0,7.2373914E2,5.0905193E1,2.2675395E2,5.9834805E0,1.2790208E2,1.5252206E0,5.349968E0,2.8545532E2,2.5035364E2,1.4793465E1,6.655301E1,7.4365E0,1.7409325E0,1.5898211E0,5.249584E0,1.0543292E0,3.5067105E0,7.211158E2,2.623332E0,1.295596E1,3.7949234E1,1.0139996E2,1.25354E2,7.744722E1,5.0454853E1,2.5510185E0,2.7989495E0,2.508713E2,3.4584003E1,2.4317636E2,7.1772666E0,7.9574113E0,6.8360534E0,5.034622E0,6.1518383E1],"tree_param":{"num_deleted":"0","num_feature":"4","num_nodes":"55","size_leaf_vector":"1"}},{"base_weights":[-4.419696E-1,-8.7683105E-1,2.611143E-1,-9.9399734E-1,-6.373132E-1,4.4914043E-1,-1.3867895E-1,-1.2713901E-2,-1.0287095E0,-3.7456253E-1,-9.948891E-1,5.466146E-1,2.512E-1,8.442048E-3,-4.533068E-1,4.4416737E-2,-1.9962454E-1,-1.1180582E0,-9.0123457E-1,-7.4835175E-1,-2.2435573E-1,2.8572807E-2,-1.0182364E0,2.962091E-1,7.700731E-1,1.9088477E-1,6.931067E-1,-5.3208776E-2,3.57321E-1,-5.200447E-1,1.4035697E-2,-2.050787E-3,-4.0884722E-2,1.1705975E-4,-5.6246426E-2,-3.6041893E-2,-5.252227E-2,-5.1001158E-2,-2.9396102E-2,-5.853432E-3,-2.7184352E-2,-4.4417508E-2,-6.362588E-2,-1.75289E-3,1.9671733E-2,4.4025607E-2,2.7416442E-2,2.5061894E-2,5.6512933E-3,6.2238947E-3,4.40855E-2,-5.7830927E-3,3.2354097E-3,9.9837845E-3,3.4509305E-2,-3.3366565E-2,-2.2061205E-2,-5.542842E-3,1.29465405E-2],"categories":[],"categories_nodes":[],"categories_segments":[],"categories_sizes":[],"default_left":[0,0,0,0,0,0,0,0,0,0,0,0,0,0,0,0,0,0,0,0,0,0,0,0,0,0,0,0,0,0,0,0,0,0,0,0,0,0,0,0,0,0,0,0,0,0,0,0,0,0,0,0,0,0,0,0,0,0,0],"id":16,"left_children":[1,3,5,7,9,11,13,15,17,19,21,23,25,27,29,-1,31,33,35,37,39,-1,41,43,45,47,49,51,53,55,57,-1,-1,-1,-1,-1,-1,-1,-1,-1,-1,-1,-1,-1,-1,-1,-1,-1,-1,-1,-1,-1,-1,-1,-1,-1,-1,-1,-1],"loss_changes":[5.448204E2,3.0257446E1,5.1287914E1,2.5103882E1,3.3861084E1,8.80954E0,1.012893E1,4.590775E0,7.103821E0,1.1714666E1,6.2038116E0,1.7109917E1,3.9951477E0,3.2458997E0,2.181592E0,0E0,2.1741333E0,3.1936035E0,7.2810516E0,2.0257835E0,5.1575546E0,0E0,3.8842773E0,4.7722216E0,3.5116882E0,3.2691784E0,1.8439837E0,9.528179E-1,1.05125E0,4.1404152E-1,3.2492208E-1,0E0,0E0,0E0,0E0,0E0,0E0,0E0,0E0,0E0,0E0,0E0,0E0,0E0,0E0,0E0,0E0,0E0,0E0,0E0,0E0,0E0,0E0,0E0,0E0,0E0,0E0,0E0,0E0],"parents":[2147483647,0,0,1,1,2,2,3,3,4,4,5,5,6,6,7,7,8,8,9,9,10,10,11,11,12,12,13,13,14,14,16,16,17,17,18,18,19,19,20,20,22,22,23,23,24,24,25,25,26,26,27,27,28,28,29,29,30,30],"right_children":[2,4,6,8,10,12,14,16,18,20,22,24,26,28,30,-1,32,34,36,38,40,-1,42,44,46,48,50,52,54,56,58,-1,-1,-1,-1,-1,-1,-1,-1,-1,-1,-1,-1,-1,-1,-1,-1,-1,-1,-1,-1,-1,-1,-1,-1,-1,-1,-1,-1],"split_conditions":[7E1,6.56E1,1.62E0,5.58E1,8.2E-1,4.9E-1,5.01E0,4.22E0,6.289E1,4.68E0,3.42E0,5E0,7.83E1,7.79E1,7.88E1,4.4416737E-2,5.52E1,3.42E0,4.9E-1,6.68E1,5.72E0,2.8572807E-2,4.02E0,7.15E1,5.64E0,5.21E0,5.9E-1,7.4E1,4.22E0,4.53E0,5.01E0,-2.050787E-3,-4.0884722E-2,1.1705975E-4,-5.6246426E-2,-3.6041893E-2,-5.252227E-2,-5.1001158E-2,-2.9396102E-2,-5.853432E-3,-2.7184352E-2,-4.4417508E-2,-6.362588E-2,-1.75289E-3,1.9671733E-2,4.4025607E-2,2.7416442E-2,2.5061894E-2,5.6512933E-3,6.2238947E-3,4.40855E-2,-5.7830927E-3,3.2354097E-3,9.9837845E-3,3.4509305E-2,-3.3366565E-2,-2.2061205E-2,-5.542842E-3,1.29465405E-2],"split_indices":[0,0,3,0,3,3,3,2,0,2,2,2,0,0,0,0,0,2,3,0,2,0,3,0,2,2,3,0,3,2,2,0,0,0,0,0,0,0,0,0,0,0,0,0,0,0,0,0,0,0,0,0,0,0,0,0,0,0,0],"split_type":[0,0,0,0,0,0,0,0,0,0,0,0,0,0,0,0,0,0,0,0,0,0,0,0,0,0,0,0,0,0,0,0,0,0,0,0,0,0,0,0,0,0,0,0,0,0,0,0,0,0,0,0,0,0,0,0,0,0,0],"sum_hessian":[1.7802003E3,1.0997509E3,6.804494E2,7.363812E2,3.6336963E2,4.6270972E2,2.177397E2,2.5205662E1,7.111756E2,2.1063803E2,1.5273161E2,3.0885504E2,1.5385468E2,1.4902724E2,6.871246E1,3.6855998E0,2.1520061E1,4.1354562E2,2.9762994E2,5.923923E1,1.513988E2,1.8983296E0,1.5083328E2,1.4674243E2,1.621126E2,1.366372E2,1.7217466E1,1.2736747E2,2.1659775E1,6.0027573E1,8.68489E0,1.7973955E1,3.546107E0,2.5244231E0,4.110212E2,1.373744E2,1.6025554E2,2.00049E1,3.9234333E1,1.1434757E2,3.7051228E1,1.0281113E2,4.802215E1,3.344115E1,1.13301285E2,1.06232834E2,5.587976E1,2.6313051E1,1.1032416E2,4.701796E0,1.251567E1,8.327902E1,4.4088444E1,1.5784219E1,5.8755555E0,1.8322731E1,4.170484E1,6.1141176E0,2.570772E0],"tree_param":{"num_deleted":"0","num_feature":"4","num_nodes":"59","size_leaf_vector":"1"}},{"base_weights":[-4.3608937E-1,-9.3589497E-1,2.0511311E-1,4.696718E-2,-9.622541E-1,4.0673152E-1,-2.1767478E-1,6.224781E-1,-4.714071E-1,-1.0550284E0,-7.8838366E-1,-1.11091904E-1,5.254749E-1,-9.2666304E-1,-5.2228265E-2,3.6194196E-1,4.4298973E-2,-5.409837E-1,5.3124814E-3,-5.5987377E-2,-9.732854E-1,-5.4433846E-1,-1.0979255E0,3.9532043E-2,-4.7418416E-1,6.348069E-1,3.1337604E-1,-1.0240515E0,-9.792989E-2,7.3815584E-2,-3.4368393E-1,2.6076308E-2,5.420714E-3,-1.6500423E-2,-4.1907918E-2,-4.3833E-2,-5.267526E-2,-3.2043394E-2,-1.0795596E-2,-1.1134728E-2,-5.5150878E-2,1.7431412E-2,-4.6878736E-3,-3.096104E-2,-5.48628E-3,1.4054643E-2,3.2181825E-2,1.1514479E-2,4.3460656E-2,-3.9143816E-2,-6.171423E-2,5.610689E-2,-3.408221E-2,1.2406248E-3,1.6565394E-2,-2.1363376E-2,2.5016947E-3],"categories":[],"categories_nodes":[],"categories_segments":[],"categories_sizes":[],"default_left":[0,0,0,0,0,0,0,0,0,0,0,0,0,0,0,0,0,0,0,0,0,0,0,0,0,0,0,0,0,0,0,0,0,0,0,0,0,0,0,0,0,0,0,0,0,0,0,0,0,0,0,0,0,0,0,0,0],"id":17,"left_children":[1,3,5,7,9,11,13,15,17,19,21,23,25,27,29,31,-1,33,-1,-1,35,37,39,41,43,45,47,49,51,53,55,-1,-1,-1,-1,-1,-1,-1,-1,-1,-1,-1,-1,-1,-1,-1,-1,-1,-1,-1,-1,-1,-1,-1,-1,-1,-1],"loss_changes":[5.626476E2,2.5601746E1,6.569101E1,8.264215E0,1.4665649E1,3.2121384E1,2.9177237E1,5.78125E-1,6.453109E-1,2.2087402E0,2.495288E1,5.383622E0,9.64151E0,3.6995888E0,7.4854817E0,2.7820885E-1,0E0,5.521052E-1,0E0,0E0,1.2713013E0,5.9202347E0,4.1448975E-1,2.9272015E0,1.45648E0,6.90567E-1,6.557065E0,1.1644783E0,5.0782833E0,1.7909399E0,2.0447388E0,0E0,0E0,0E0,0E0,0E0,0E0,0E0,0E0,0E0,0E0,0E0,0E0,0E0,0E0,0E0,0E0,0E0,0E0,0E0,0E0,0E0,0E0,0E0,0E0,0E0,0E0],"parents":[2147483647,0,0,1,1,2,2,3,3,4,4,5,5,6,6,7,7,8,8,9,9,10,10,11,11,12,12,13,13,14,14,15,15,17,17,20,20,21,21,22,22,23,23,24,24,25,25,26,26,27,27,28,28,29,29,30,30],"right_children":[2,4,6,8,10,12,14,16,18,20,22,24,26,28,30,32,-1,34,-1,-1,36,38,40,42,44,46,48,50,52,54,56,-1,-1,-1,-1,-1,-1,-1,-1,-1,-1,-1,-1,-1,-1,-1,-1,-1,-1,-1,-1,-1,-1,-1,-1,-1,-1],"split_conditions":[2.2E1,5.58E1,1.64E0,1.76E1,2.07E1,7E1,7E1,4.9E-1,1.3E0,6.27E1,7.1E-1,6.2E-1,4.9E-1,2.332E1,5.07E0,1.67E1,4.4298973E-2,5.52E1,5.3124814E-3,-5.5987377E-2,3.6E-1,2.159E1,6.004E1,2.225E1,1.3E0,2.207E1,2.517E1,3.91E0,2.72E0,7.79E1,2.54E1,2.6076308E-2,5.420714E-3,-1.6500423E-2,-4.1907918E-2,-4.3833E-2,-5.267526E-2,-3.2043394E-2,-1.0795596E-2,-1.1134728E-2,-5.5150878E-2,1.7431412E-2,-4.6878736E-3,-3.096104E-2,-5.48628E-3,1.4054643E-2,3.2181825E-2,1.1514479E-2,4.3460656E-2,-3.9143816E-2,-6.171423E-2,5.610689E-2,-3.408221E-2,1.2406248E-3,1.6565394E-2,-2.1363376E-2,2.5016947E-3],"split_indices":[1,0,3,1,1,0,0,3,3,0,3,3,3,1,3,1,0,0,0,0,3,1,0,1,3,1,1,3,3,0,1,0,0,0,0,0,0,0,0,0,0,0,0,0,0,0,0,0,0,0,0,0,0,0,0,0,0],"split_type":[0,0,0,0,0,0,0,0,0,0,0,0,0,0,0,0,0,0,0,0,0,0,0,0,0,0,0,0,0,0,0,0,0,0,0,0,0,0,0,0,0,0,0,0,0,0,0,0,0,0,0,0,0,0,0,0,0],"sum_hessian":[1.75406E3,9.8545575E2,7.686043E2,2.5717974E1,9.5973773E2,5.204506E2,2.4815367E2,1.2092157E1,1.3625816E1,6.225093E2,3.3722845E2,9.709542E1,4.233552E2,4.608113E1,2.0207254E2,7.2737985E0,4.8183594E0,1.2217724E1,1.408093E0,3.4034622E2,2.8216306E2,1.9010599E2,1.4712247E2,6.925644E1,2.783898E1,2.7803943E2,1.4531578E2,4.102446E1,5.05667E0,1.4158777E2,6.0484764E1,3.815215E0,3.458583E0,8.379379E0,3.8383439E0,1.3340448E2,1.4875859E2,1.4618788E2,4.391811E1,1.1097429E0,1.4601273E2,2.0379997E1,4.8876446E1,1.9414103E1,8.424877E0,7.5712237E0,2.704682E2,1.2764912E2,1.7666666E1,2.1306221E1,1.9718239E1,1.3378707E0,3.7187994E0,1.1987151E2,2.171626E1,4.9822567E1,1.0662197E1],"tree_param":{"num_deleted":"0","num_feature":"4","num_nodes":"57","size_leaf_vector":"1"}},{"base_weights":[-4.036903E-1,-8.8833183E-1,2.0284995E-1,-1.5454464E-2,-9.1032404E-1,-3.43174E-1,3.2608917E-1,4.4599425E-2,-3.1181294E-1,-1.0153571E0,-7.161554E-1,-6.839632E-1,-2.697403E-1,2.925965E-1,5.4050857E-1,-3.8580015E-2,-5.945927E-1,-1.0209559E0,7.258187E-2,3.669416E-1,-7.2899735E-1,7.027893E-2,-8.0162954E-1,1.1695694E-2,-4.256007E-1,3.229047E-1,1.9988897E-1,3.331122E-1,6.1621493E-1,1.5929623E-2,-8.686609E-3,-4.4580016E-2,-1.626361E-2,-5.43741E-2,-4.6777014E-2,-6.8104016E-3,1.4470036E-2,2.6162824E-2,-4.5975535E-3,-4.7253262E-2,-3.1769667E-2,-2.8959919E-2,2.8165821E-2,-1.553745E-2,-5.1092155E-2,-1.63305E-2,6.7279823E-3,-7.499911E-3,-2.624671E-2,1.6661458E-2,-4.8192474E-3,6.0836053E-3,2.6276523E-2,6.2659876E-3,2.7526198E-2,3.690923E-2,2.5455533E-2],"categories":[],"categories_nodes":[],"categories_segments":[],"categories_sizes":[],"default_left":[0,0,0,0,0,0,0,0,0,0,0,0,0,0,0,0,0,0,0,0,0,0,0,0,0,0,0,0,0,0,0,0,0,0,0,0,0,0,0,0,0,0,0,0,0,0,0,0,0,0,0,0,0,0,0,0,0],"id":18,"left_children":[1,3,5,7,9,11,13,-1,15,17,19,21,23,25,27,29,31,33,35,37,39,41,43,45,47,49,51,53,55,-1,-1,-1,-1,-1,-1,-1,-1,-1,-1,-1,-1,-1,-1,-1,-1,-1,-1,-1,-1,-1,-1,-1,-1,-1,-1,-1,-1],"loss_changes":[5.120095E2,1.8568787E1,5.22057E1,6.94958E0,1.8529541E1,3.3951569E0,4.3813324E0,0E0,1.4791832E0,3.79187E0,4.9250946E0,2.2490683E0,5.239506E0,1.4777298E0,1.1170425E0,5.842688E-1,4.6864104E-1,2.4335327E0,2.2315037E-1,3.772897E-1,6.0993805E0,1.6883737E0,2.0015488E0,1.8522942E0,2.0245333E0,1.8157806E0,3.4474244E0,1.0467646E0,4.1477776E-1,0E0,0E0,0E0,0E0,0E0,0E0,0E0,0E0,0E0,0E0,0E0,0E0,0E0,0E0,0E0,0E0,0E0,0E0,0E0,0E0,0E0,0E0,0E0,0E0,0E0,0E0,0E0,0E0],"parents":[2147483647,0,0,1,1,2,2,3,3,4,4,5,5,6,6,8,8,9,9,10,10,11,11,12,12,13,13,14,14,15,15,16,16,17,17,18,18,19,19,20,20,21,21,22,22,23,23,24,24,25,25,26,26,27,27,28,28],"right_children":[2,4,6,8,10,12,14,-1,16,18,20,22,24,26,28,30,32,34,36,38,40,42,44,46,48,50,52,54,56,-1,-1,-1,-1,-1,-1,-1,-1,-1,-1,-1,-1,-1,-1,-1,-1,-1,-1,-1,-1,-1,-1,-1,-1,-1,-1,-1,-1],"split_conditions":[2.2E1,5.58E1,7E1,4.51E0,2.069E1,4.66E0,7.88E1,4.4599425E-2,1.8E1,7.88E1,3.42E0,3.82E0,5.21E0,2.407E1,4.4E0,1.67E1,5.31E0,1.981E1,1.981E1,2.121E1,4.9E0,2.213E1,2.225E1,4.89E0,2.229E1,7.79E1,5.72E0,8.19E1,5.14E0,1.5929623E-2,-8.686609E-3,-4.4580016E-2,-1.626361E-2,-5.43741E-2,-4.6777014E-2,-6.8104016E-3,1.4470036E-2,2.6162824E-2,-4.5975535E-3,-4.7253262E-2,-3.1769667E-2,-2.8959919E-2,2.8165821E-2,-1.553745E-2,-5.1092155E-2,-1.63305E-2,6.7279823E-3,-7.499911E-3,-2.624671E-2,1.6661458E-2,-4.8192474E-3,6.0836053E-3,2.6276523E-2,6.2659876E-3,2.7526198E-2,3.690923E-2,2.5455533E-2],"split_indices":[1,0,0,2,1,2,0,0,1,0,2,2,2,1,2,1,2,1,1,1,2,1,1,2,1,0,2,0,2,0,0,0,0,0,0,0,0,0,0,0,0,0,0,0,0,0,0,0,0,0,0,0,0,0,0,0,0],"split_type":[0,0,0,0,0,0,0,0,0,0,0,0,0,0,0,0,0,0,0,0,0,0,0,0,0,0,0,0,0,0,0,0,0,0,0,0,0,0,0,0,0,0,0,0,0,0,0,0,0,0,0,0,0,0,0,0,0],"sum_hessian":[1.7401849E3,9.670345E2,7.7315045E2,2.3807518E1,9.432269E2,1.4204056E2,6.3110986E2,5.3662753E0,1.8441242E1,6.0936755E2,3.3385938E2,2.3707127E1,1.1833343E2,5.478927E2,8.321716E1,9.956913E0,8.48433E0,6.0630896E2,3.0586112E0,3.5889816E0,3.302704E2,3.2536888E0,2.0453438E1,4.2505856E1,7.582757E1,4.1103345E2,1.3685927E2,2.36977E1,5.9519463E1,2.3607552E0,7.5961576E0,2.9359734E0,5.5483565E0,3.3424814E2,2.7206082E2,1.7475567E0,1.3110546E0,2.5724545E0,1.0165272E0,9.708073E1,2.3318967E2,1.328674E0,1.9250147E0,7.0807595E0,1.3372677E1,1.0882529E1,3.1623327E1,2.0754335E1,5.5073235E1,4.0135587E2,9.67759E0,1.1146078E2,2.5398485E1,1.2922944E1,1.0774756E1,2.5073595E1,3.4445866E1],"tree_param":{"num_deleted":"0","num_feature":"4","num_nodes":"57","size_leaf_vector":"1"}},{"base_weights":[-4.1978753E-1,-8.8458925E-1,1.6715789E-1,-7.290416E-1,-1.0337659E0,4.8935482E-1,-7.602157E-2,-8.8267046E-1,-4.0632415E-1,3.8849607E-1,-1.0514226E0,-4.4864513E-2,5.745658E-1,-6.011077E-1,5.2004606E-2,-7.8400336E-2,-9.1673803E-1,3.514144E-1,-4.2755133E-1,3.6640782E-2,-7.5157927E-3,-1.0538237E0,-5.2358257E-3,-7.237945E-1,3.9535627E-2,3.3809817E-1,5.932665E-1,1.9330902E-1,-7.3985946E-1,1.5361795E-1,-3.8603413E-1,1.1051233E-2,-9.199572E-3,-5.08446E-2,-3.8376633E-2,-2.6541695E-2,5.963059E-2,-3.9315343E-2,-1.7344674E-2,-5.5720013E-2,-4.9191028E-2,-5.098216E-2,4.970034E-3,7.1120868E-3,-2.3959411E-2,2.3111146E-2,-2.1164304E-2,3.575429E-2,2.6213408E-2,-1.0003581E-2,3.3621736E-2,-2.7564272E-2,-5.8253318E-2,4.815877E-3,2.4974057E-2,-2.2352075E-2,-1.6089762E-3],"categories":[],"categories_nodes":[],"categories_segments":[],"categories_sizes":[],"default_left":[0,0,0,0,0,0,0,0,0,0,0,0,0,0,0,0,0,0,0,0,0,0,0,0,0,0,0,0,0,0,0,0,0,0,0,0,0,0,0,0,0,0,0,0,0,0,0,0,0,0,0,0,0,0,0,0,0],"id":19,"left_children":[1,3,5,7,9,11,13,15,17,19,21,23,25,27,29,31,33,35,37,-1,-1,39,-1,41,43,45,47,49,51,53,55,-1,-1,-1,-1,-1,-1,-1,-1,-1,-1,-1,-1,-1,-1,-1,-1,-1,-1,-1,-1,-1,-1,-1,-1,-1,-1],"loss_changes":[4.598179E2,2.1068909E1,5.8445663E1,2.2635529E1,1.2403931E1,1.4627823E1,2.8648283E1,8.513992E0,2.5859928E0,1.332294E0,9.627075E-1,2.6103082E0,1.0230942E0,9.349787E0,1.5333815E1,4.7784522E-1,3.710495E0,4.102964E0,4.002804E0,0E0,0E0,9.000244E-1,0E0,1.3271873E0,2.2535965E0,2.3319821E0,1.7694244E0,2.624752E0,5.0758514E0,5.4863954E0,1.3866768E0,0E0,0E0,0E0,0E0,0E0,0E0,0E0,0E0,0E0,0E0,0E0,0E0,0E0,0E0,0E0,0E0,0E0,0E0,0E0,0E0,0E0,0E0,0E0,0E0,0E0,0E0],"parents":[2147483647,0,0,1,1,2,2,3,3,4,4,5,5,6,6,7,7,8,8,9,9,10,10,11,11,12,12,13,13,14,14,15,15,16,16,17,17,18,18,21,21,23,23,24,24,25,25,26,26,27,27,28,28,29,29,30,30],"right_children":[2,4,6,8,10,12,14,16,18,20,22,24,26,28,30,32,34,36,38,-1,-1,40,-1,42,44,46,48,50,52,54,56,-1,-1,-1,-1,-1,-1,-1,-1,-1,-1,-1,-1,-1,-1,-1,-1,-1,-1,-1,-1,-1,-1,-1,-1,-1,-1],"split_conditions":[2.2E1,4.9E-1,4.9E-1,2.069E1,5.52E1,6.92E1,7E1,5.52E1,6.146E1,5.38E1,7.88E1,6.41E1,7.016E1,6.2E-1,5.07E0,1.67E1,1.987E1,6.1E1,6.41E1,3.6640782E-2,-7.5157927E-3,2.038E1,-5.2358257E-3,2.496E1,2.324E1,2E-1,7.29E1,6.85E1,4.01E0,7.79E1,2.53E1,1.1051233E-2,-9.199572E-3,-5.08446E-2,-3.8376633E-2,-2.6541695E-2,5.963059E-2,-3.9315343E-2,-1.7344674E-2,-5.5720013E-2,-4.9191028E-2,-5.098216E-2,4.970034E-3,7.1120868E-3,-2.3959411E-2,2.3111146E-2,-2.1164304E-2,3.575429E-2,2.6213408E-2,-1.0003581E-2,3.3621736E-2,-2.7564272E-2,-5.8253318E-2,4.815877E-3,2.4974057E-2,-2.2352075E-2,-1.6089762E-3],"split_indices":[1,3,3,1,0,0,0,0,0,0,0,0,0,3,3,1,1,0,0,0,0,1,0,1,1,3,0,0,3,0,1,0,0,0,0,0,0,0,0,0,0,0,0,0,0,0,0,0,0,0,0,0,0,0,0,0,0],"split_type":[0,0,0,0,0,0,0,0,0,0,0,0,0,0,0,0,0,0,0,0,0,0,0,0,0,0,0,0,0,0,0,0,0,0,0,0,0,0,0,0,0,0,0,0,0,0,0,0,0,0,0,0,0,0,0,0,0],"sum_hessian":[1.6839259E3,9.394606E2,7.4446533E2,4.6279144E2,4.766691E2,3.1977368E2,4.2469165E2,3.123587E2,1.5043274E2,5.5875235E0,4.7108157E2,4.4054314E1,2.757194E2,8.252572E1,3.4216592E2,1.2827497E1,2.9953122E2,3.6754816E0,1.4675725E2,3.1893559E0,2.3981674E0,4.6977698E2,1.3046054E0,4.033374E0,4.002094E1,2.1605083E1,2.5411429E2,1.221219E1,7.031353E1,2.782651E2,6.3900803E1,3.0592263E0,9.7682705E0,1.7574637E2,1.2378485E2,1.9740506E0,1.7014308E0,2.5332579E1,1.21424675E2,2.4384682E2,2.2593015E2,2.7914953E0,1.2418785E0,3.4012356E1,6.0085826E0,1.8914469E1,2.690615E0,8.850011E1,1.6561418E2,7.025998E0,5.186192E0,5.0301804E1,2.0011724E1,2.3981293E2,3.845219E1,5.427927E1,9.6215315E0],"tree_param":{"num_deleted":"0","num_feature":"4","num_nodes":"57","size_leaf_vector":"1"}},{"base_weights":[-3.8780147E-1,-8.3529294E-1,1.7722382E-1,2.9398876E-1,-8.537163E-1,4.0721184E-1,-1.5722656E-1,8.12207E-1,4.4726375E-2,-9.316221E-1,-5.719969E-1,4.588317E-1,7.462207E-2,-3.1784225E-2,-4.8857275E-1,5.504557E-2,-7.352362E-3,-2.1807379E-1,2.779972E-1,-8.165902E-1,-1.0236511E0,-2.1797475E-1,-8.97238E-1,5.2983934E-1,2.4756746E-1,-9.748298E-2,5.3165674E-1,-1.971089E-1,2.0431516E-1,-6.458725E-1,-7.42314E-2,2.149882E-2,-3.7446063E-2,-8.922474E-3,3.210565E-2,-4.8585854E-2,-3.3011273E-2,-4.364136E-3,-5.1483195E-2,-2.8384283E-2,6.8600737E-3,1.3533734E-2,-4.6085697E-2,1.4758669E-2,3.653004E-2,5.0824553E-2,6.450602E-3,-6.7577297E-3,3.242692E-2,3.23369E-2,-1.3439968E-2,3.9304893E-2,-1.0990442E-2,1.9035159E-2,1.773517E-3,-3.974085E-2,-2.2376133E-2,2.266495E-3,-1.7035441E-2],"categories":[],"categories_nodes":[],"categories_segments":[],"categories_sizes":[],"default_left":[0,0,0,0,0,0,0,0,0,0,0,0,0,0,0,0,0,0,0,0,0,0,0,0,0,0,0,0,0,0,0,0,0,0,0,0,0,0,0,0,0,0,0,0,0,0,0,0,0,0,0,0,0,0,0,0,0,0,0],"id":20,"left_children":[1,3,5,7,9,11,13,15,17,19,21,23,25,27,29,-1,-1,31,33,35,37,39,41,43,45,47,49,51,53,55,57,-1,-1,-1,-1,-1,-1,-1,-1,-1,-1,-1,-1,-1,-1,-1,-1,-1,-1,-1,-1,-1,-1,-1,-1,-1,-1,-1,-1],"loss_changes":[4.1411005E2,1.9263E1,5.578544E1,1.9545667E0,1.9206726E1,7.3398438E0,1.2283199E1,1.5320404E0,7.634844E-1,6.605957E0,2.2536758E1,5.443596E0,4.6849003E0,8.4598875E0,5.243536E0,0E0,0E0,2.369523E0,1.1971189E0,7.0569763E0,2.086731E0,1.1983587E1,3.1816864E0,1.2846451E1,8.561904E0,1.3139263E0,1.6723919E0,3.0156775E0,2.6468832E0,1.3789959E0,7.632232E-1,0E0,0E0,0E0,0E0,0E0,0E0,0E0,0E0,0E0,0E0,0E0,0E0,0E0,0E0,0E0,0E0,0E0,0E0,0E0,0E0,0E0,0E0,0E0,0E0,0E0,0E0,0E0,0E0],"parents":[2147483647,0,0,1,1,2,2,3,3,4,4,5,5,6,6,7,7,8,8,9,9,10,10,11,11,12,12,13,13,14,14,17,17,18,18,19,19,20,20,21,21,22,22,23,23,24,24,25,25,26,26,27,27,28,28,29,29,30,30],"right_children":[2,4,6,8,10,12,14,16,18,20,22,24,26,28,30,-1,-1,32,34,36,38,40,42,44,46,48,50,52,54,56,58,-1,-1,-1,-1,-1,-1,-1,-1,-1,-1,-1,-1,-1,-1,-1,-1,-1,-1,-1,-1,-1,-1,-1,-1,-1,-1,-1,-1],"split_conditions":[2.2E1,1.73E1,1.02E0,4.51E0,2.108E1,5.83E0,4.9E0,1.67E1,5.07E0,3.6E-1,4.9E-1,4.9E-1,2.382E1,2.362E1,2.484E1,5.504557E-2,-7.352362E-3,1.67E1,1.67E1,1.981E1,3.42E0,5E0,3.42E0,4.9E0,5.01E0,6.52E0,7.1E-1,3.75E0,2.21E0,2.324E1,8.7E0,2.149882E-2,-3.7446063E-2,-8.922474E-3,3.210565E-2,-4.8585854E-2,-3.3011273E-2,-4.364136E-3,-5.1483195E-2,-2.8384283E-2,6.8600737E-3,1.3533734E-2,-4.6085697E-2,1.4758669E-2,3.653004E-2,5.0824553E-2,6.450602E-3,-6.7577297E-3,3.242692E-2,3.23369E-2,-1.3439968E-2,3.9304893E-2,-1.0990442E-2,1.9035159E-2,1.773517E-3,-3.974085E-2,-2.2376133E-2,2.266495E-3,-1.7035441E-2],"split_indices":[1,1,3,2,1,2,3,1,2,3,3,3,1,1,1,0,0,1,1,1,2,2,2,2,2,2,3,2,3,1,3,0,0,0,0,0,0,0,0,0,0,0,0,0,0,0,0,0,0,0,0,0,0,0,0,0,0,0,0],"split_type":[0,0,0,0,0,0,0,0,0,0,0,0,0,0,0,0,0,0,0,0,0,0,0,0,0,0,0,0,0,0,0,0,0,0,0,0,0,0,0,0,0,0,0,0,0,0,0,0,0,0,0,0,0,0,0,0,0,0,0],"sum_hessian":[1.636223E3,9.128117E2,7.234114E2,1.44127E1,8.98399E2,4.2851877E2,2.948926E2,3.94746E0,1.046524E1,7.0197125E2,1.9642773E2,3.7061725E2,5.7901497E1,2.1470476E2,8.018784E1,2.9207382E0,1.0267217E0,4.951775E0,5.5134645E0,3.1638193E2,3.8558932E2,9.485215E1,1.01575584E2,2.7625705E2,9.4360214E1,4.2633682E1,1.5267815E1,1.2637671E2,8.832805E1,5.7717354E1,2.2470493E1,2.3153055E0,2.6364696E0,2.672808E0,2.8406565E0,1.5620201E2,1.601799E2,2.5592442E0,3.830301E2,4.7492313E1,4.735984E1,1.8785505E0,9.969704E1,1.2851212E2,1.4774493E2,1.1593492E1,8.276672E1,4.136378E1,1.2699013E0,1.3516582E1,1.7512336E0,2.0929816E0,1.2428372E2,4.258539E1,4.574266E1,3.1246578E1,2.6470774E1,1.6083948E1,6.386545E0],"tree_param":{"num_deleted":"0","num_feature":"4","num_nodes":"59","size_leaf_vector":"1"}},{"base_weights":[-3.6273208E-1,-7.4970484E-1,2.2229794E-1,-8.882963E-1,-5.492066E-1,3.9063206E-1,-1.1225779E-1,1.6306461E-1,-9.365678E-1,-3.1189054E-1,-8.6908174E-1,4.549798E-1,2.5655213E-1,6.2830485E-3,-3.7841305E-1,9.188898E-1,-8.4689625E-2,3.753737E-2,-9.45956E-1,-6.751687E-1,-1.9039388E-1,-7.474053E-1,-1.1287583E0,2.7599016E-1,5.912868E-1,2.0015478E-1,7.131251E-1,-5.4435626E-2,3.7408343E-1,-4.7637668E-1,-2.3732755E-1,5.257572E-2,1.7683083E-2,1.4858638E-2,-1.5630828E-2,1.1342683E-2,-1.0047413E-2,-4.9924083E-2,-4.1413493E-2,8.765261E-3,-3.5114188E-2,-5.0359196E-3,-2.6200369E-2,3.984767E-2,-3.8397282E-2,-2.8139545E-2,-5.8130056E-2,5.263747E-3,2.5078613E-2,3.2759253E-2,7.8021507E-3,5.5904415E-2,8.21943E-3,6.861561E-3,4.5613207E-2,-5.7213265E-3,4.2140833E-3,9.08181E-3,4.4249065E-2,-7.5992993E-3,-2.421662E-2,-1.4907417E-2,-3.9900225E-3],"categories":[],"categories_nodes":[],"categories_segments":[],"categories_sizes":[],"default_left":[0,0,0,0,0,0,0,0,0,0,0,0,0,0,0,0,0,0,0,0,0,0,0,0,0,0,0,0,0,0,0,0,0,0,0,0,0,0,0,0,0,0,0,0,0,0,0,0,0,0,0,0,0,0,0,0,0,0,0,0,0,0,0],"id":21,"left_children":[1,3,5,7,9,11,13,15,17,19,21,23,25,27,29,31,33,35,37,39,41,43,45,47,49,51,53,55,57,59,61,-1,-1,-1,-1,-1,-1,-1,-1,-1,-1,-1,-1,-1,-1,-1,-1,-1,-1,-1,-1,-1,-1,-1,-1,-1,-1,-1,-1,-1,-1,-1,-1],"loss_changes":[3.7362628E2,2.7108032E1,3.7073406E1,2.9871735E1,3.0740181E1,3.6591797E0,6.970891E0,5.050996E0,5.157013E0,1.029151E1,4.6362915E0,7.0202026E0,3.5707817E0,3.454958E0,8.278341E-1,1.2592888E-1,1.9134517E0,3.303754E-1,2.6020203E0,1.4785233E0,5.281662E0,4.4521713E0,3.680725E-1,4.921259E0,4.5219307E0,4.0760694E0,1.6484289E0,1.1154063E0,1.9943347E0,2.7514458E-2,2.625866E-1,0E0,0E0,0E0,0E0,0E0,0E0,0E0,0E0,0E0,0E0,0E0,0E0,0E0,0E0,0E0,0E0,0E0,0E0,0E0,0E0,0E0,0E0,0E0,0E0,0E0,0E0,0E0,0E0,0E0,0E0,0E0,0E0],"parents":[2147483647,0,0,1,1,2,2,3,3,4,4,5,5,6,6,7,7,8,8,9,9,10,10,11,11,12,12,13,13,14,14,15,15,16,16,17,17,18,18,19,19,20,20,21,21,22,22,23,23,24,24,25,25,26,26,27,27,28,28,29,29,30,30],"right_children":[2,4,6,8,10,12,14,16,18,20,22,24,26,28,30,32,34,36,38,40,42,44,46,48,50,52,54,56,58,60,62,-1,-1,-1,-1,-1,-1,-1,-1,-1,-1,-1,-1,-1,-1,-1,-1,-1,-1,-1,-1,-1,-1,-1,-1,-1,-1,-1,-1,-1,-1,-1,-1],"split_conditions":[7E1,6.49E1,1.6E0,5.58E1,7.1E-1,4.9E-1,5.01E0,4.51E0,3.42E0,4.56E0,3.91E0,4.9E0,7.83E1,7.79E1,7.53E1,4.22E0,5.38E1,3.62E0,6.301E1,3.42E0,5.72E0,3.75E0,4.08E0,7.53E1,5.98E0,4.63E0,5.9E-1,7.42E1,4.22E0,5.07E0,7.88E1,5.257572E-2,1.7683083E-2,1.4858638E-2,-1.5630828E-2,1.1342683E-2,-1.0047413E-2,-4.9924083E-2,-4.1413493E-2,8.765261E-3,-3.5114188E-2,-5.0359196E-3,-2.6200369E-2,3.984767E-2,-3.8397282E-2,-2.8139545E-2,-5.8130056E-2,5.263747E-3,2.5078613E-2,3.2759253E-2,7.8021507E-3,5.5904415E-2,8.21943E-3,6.861561E-3,4.5613207E-2,-5.7213265E-3,4.2140833E-3,9.08181E-3,4.4249065E-2,-7.5992993E-3,-2.421662E-2,-1.4907417E-2,-3.9900225E-3],"split_indices":[0,0,3,0,3,3,3,2,2,2,3,2,0,0,0,2,0,3,0,2,2,2,2,0,2,2,3,0,3,3,0,0,0,0,0,0,0,0,0,0,0,0,0,0,0,0,0,0,0,0,0,0,0,0,0,0,0,0,0,0,0,0,0],"split_type":[0,0,0,0,0,0,0,0,0,0,0,0,0,0,0,0,0,0,0,0,0,0,0,0,0,0,0,0,0,0,0,0,0,0,0,0,0,0,0,0,0,0,0,0,0,0,0,0,0,0,0,0,0,0,0,0,0,0,0,0,0,0,0],"sum_hessian":[1.6486246E3,9.921065E2,6.565182E2,5.845881E2,4.075184E2,4.3664798E2,2.1987021E2,2.5557755E1,5.5903033E2,2.3508405E2,1.7243436E2,2.93431E2,1.4321701E2,1.527946E2,6.7075615E1,5.640716E0,1.9917038E1,5.307741E0,5.537226E2,5.7775806E1,1.7730824E2,1.2005738E2,5.237697E1,1.2816182E2,1.6526918E2,1.2875159E2,1.4465422E1,1.3187576E2,2.0918839E1,3.818506E1,2.8890554E1,3.8718843E0,1.7688318E0,7.33103E0,1.2586009E1,2.9860828E0,2.3216581E0,3.7767462E2,1.7604797E2,1.6162513E0,5.6159554E1,1.4077086E2,3.6537388E1,1.0796944E0,1.18977684E2,3.9499428E0,4.8427025E1,7.37877E1,5.437411E1,1.4367142E2,2.1597757E1,3.6936476E0,1.2505794E2,4.150791E0,1.031463E1,9.218411E1,3.9691643E1,1.6179716E1,4.739122E0,1.3953232E0,3.6789738E1,2.019907E1,8.691484E0],"tree_param":{"num_deleted":"0","num_feature":"4","num_nodes":"63","size_leaf_vector":"1"}},{"base_weights":[-3.594425E-1,-8.16322E-1,1.8721546E-1,7.9613194E-2,-8.4216845E-1,-2.3419172E-1,2.8328288E-1,5.9794664E-1,-3.4135458E-1,-9.4772846E-1,-6.56909E-1,-5.4748493E-1,-1.5229487E-1,2.5851208E-1,5.0202495E-1,8.01811E-1,2.3158862E-1,-4.0650994E-1,1.10413395E-2,-9.5319957E-1,1.3628183E-1,3.391386E-1,-6.721197E-1,-3.0661792E-1,-5.7156682E-2,8.4938996E-2,-4.0264523E-1,2.4318096E-1,5.299859E-1,2.1862514E-1,5.662846E-1,1.8529551E-2,4.5599777E-2,-2.1321364E-2,2.4342678E-2,-1.1441382E-2,-3.6941957E-2,-4.809122E-2,-1.6357167E-2,-5.3071664E-3,1.598638E-2,2.2262726E-2,-3.1777923E-3,-4.524638E-2,-2.8511956E-2,2.1852015E-2,-2.211686E-2,-3.788525E-2,7.3427493E-3,-2.6030174E-2,7.1856976E-3,1.555518E-2,8.352084E-3,1.4696352E-2,5.3129334E-2,1.932623E-2,-6.055635E-4,3.1327523E-2,7.326444E-3],"categories":[],"categories_nodes":[],"categories_segments":[],"categories_sizes":[],"default_left":[0,0,0,0,0,0,0,0,0,0,0,0,0,0,0,0,0,0,0,0,0,0,0,0,0,0,0,0,0,0,0,0,0,0,0,0,0,0,0,0,0,0,0,0,0,0,0,0,0,0,0,0,0,0,0,0,0,0,0],"id":22,"left_children":[1,3,5,7,9,11,13,15,17,19,21,23,25,27,29,31,33,35,-1,37,39,41,43,45,-1,47,49,51,53,55,57,-1,-1,-1,-1,-1,-1,-1,-1,-1,-1,-1,-1,-1,-1,-1,-1,-1,-1,-1,-1,-1,-1,-1,-1,-1,-1,-1,-1],"loss_changes":[4.0605005E2,2.0571594E1,3.0052588E1,5.8210187E0,1.6209717E1,3.458836E0,3.1410294E0,7.031002E-1,6.334052E-1,3.3683472E0,5.0106354E0,3.6989403E0,6.6166763E0,2.136509E0,9.7511387E-1,5.9990883E-3,1.1584177E0,6.3708305E-1,0E0,2.6197205E0,1.9479194E-1,2.5960296E-1,6.8668213E0,2.3596687E0,0E0,3.1233554E0,3.5613909E0,2.6220264E0,3.2391305E0,4.9987644E-1,1.1366272E0,0E0,0E0,0E0,0E0,0E0,0E0,0E0,0E0,0E0,0E0,0E0,0E0,0E0,0E0,0E0,0E0,0E0,0E0,0E0,0E0,0E0,0E0,0E0,0E0,0E0,0E0,0E0,0E0],"parents":[2147483647,0,0,1,1,2,2,3,3,4,4,5,5,6,6,7,7,8,8,9,9,10,10,11,11,12,12,13,13,14,14,15,15,16,16,17,17,19,19,20,20,21,21,22,22,23,23,25,25,26,26,27,27,28,28,29,29,30,30],"right_children":[2,4,6,8,10,12,14,16,18,20,22,24,26,28,30,32,34,36,-1,38,40,42,44,46,-1,48,50,52,54,56,58,-1,-1,-1,-1,-1,-1,-1,-1,-1,-1,-1,-1,-1,-1,-1,-1,-1,-1,-1,-1,-1,-1,-1,-1,-1,-1,-1,-1],"split_conditions":[2.2E1,5.58E1,7E1,1.73E1,2.07E1,4.8E0,7.95E1,4.91E0,1.899E1,7.56E1,3.42E0,2.303E1,5.41E0,2.56E1,4.02E0,3.99E0,5.01E0,5.52E1,1.10413395E-2,6.35E0,1.921E1,2.121E1,4.88E0,3.82E0,-5.7156682E-2,6.355E1,2.318E1,5.38E0,5.71E0,3.92E0,2.74E1,1.8529551E-2,4.5599777E-2,-2.1321364E-2,2.4342678E-2,-1.1441382E-2,-3.6941957E-2,-4.809122E-2,-1.6357167E-2,-5.3071664E-3,1.598638E-2,2.2262726E-2,-3.1777923E-3,-4.524638E-2,-2.8511956E-2,2.1852015E-2,-2.211686E-2,-3.788525E-2,7.3427493E-3,-2.6030174E-2,7.1856976E-3,1.555518E-2,8.352084E-3,1.4696352E-2,5.3129334E-2,1.932623E-2,-6.055635E-4,3.1327523E-2,7.326444E-3],"split_indices":[1,0,0,1,1,2,0,2,1,0,2,1,2,1,2,2,2,0,0,2,1,1,2,2,0,0,1,2,2,2,1,0,0,0,0,0,0,0,0,0,0,0,0,0,0,0,0,0,0,0,0,0,0,0,0,0,0,0,0],"split_type":[0,0,0,0,0,0,0,0,0,0,0,0,0,0,0,0,0,0,0,0,0,0,0,0,0,0,0,0,0,0,0,0,0,0,0,0,0,0,0,0,0,0,0,0,0,0,0,0,0,0,0,0,0,0,0,0,0,0,0],"sum_hessian":[1.6241698E3,8.844669E2,7.397029E2,2.4741814E1,8.597251E2,1.3705644E2,6.026465E2,1.0900153E1,1.38416605E1,5.4504517E2,3.1467996E2,2.7224625E1,1.0983181E2,5.4330347E2,5.9343002E1,6.239506E0,4.660648E0,1.2652208E1,1.1894522E0,5.4242816E2,2.6170065E0,4.4128723E0,3.102671E2,2.0464144E1,6.7604804E0,5.6732445E1,5.309937E1,5.1605566E2,2.7247772E1,1.1782356E1,4.7560646E1,2.1578555E0,4.08165E0,1.1152513E0,3.5453963E0,9.344603E0,3.307606E0,5.345279E2,7.9002576E0,1.3088031E0,1.3082036E0,3.4088912E0,1.0039811E0,9.204717E1,2.1821991E2,2.815694E0,1.764845E1,3.1140625E0,5.361838E1,4.3709652E1,9.389714E0,2.7111362E2,2.4494206E2,1.9955143E1,7.29263E0,6.4290013E0,5.353355E0,4.1158688E1,6.4019566E0],"tree_param":{"num_deleted":"0","num_feature":"4","num_nodes":"59","size_leaf_vector":"1"}},{"base_weights":[-3.4753704E-1,-7.238535E-1,1.9901149E-1,-8.290881E-1,-4.399324E-1,4.5389315E-1,-1.0013039E-3,5.1800884E-2,-8.6159927E-1,-1.6146055E-1,-8.516266E-1,2.415515E-1,6.2498397E-1,9.133794E-2,-3.6212885E-1,4.6548244E-2,-1.0860279E-1,-7.125214E-1,-9.754296E-1,-4.6100968E-1,-1.2958091E-2,4.4155046E-1,-8.9581275E-1,-4.0983878E-2,3.4774497E-1,7.71507E-1,4.9893558E-1,5.4017078E-2,3.5432914E-1,-4.8359472E-1,-2.0923029E-1,1.1336519E-2,-1.634696E-2,-4.3664917E-2,-2.664108E-2,-3.196086E-3,-4.919697E-2,-2.648657E-2,5.527724E-2,1.2041984E-2,-1.7621089E-2,4.7722604E-2,-1.2257307E-2,-4.8284482E-2,-1.902226E-2,7.884195E-4,-2.2338483E-2,2.6126442E-2,1.1200139E-2,2.176264E-2,4.144296E-2,-2.407044E-2,2.6487032E-2,6.766356E-3,-1.9349189E-3,-1.7384348E-2,2.179483E-2,-2.9299885E-2,-1.8507447E-2,1.1743787E-2,-1.2505226E-2],"categories":[],"categories_nodes":[],"categories_segments":[],"categories_sizes":[],"default_left":[0,0,0,0,0,0,0,0,0,0,0,0,0,0,0,0,0,0,0,0,0,0,0,0,0,0,0,0,0,0,0,0,0,0,0,0,0,0,0,0,0,0,0,0,0,0,0,0,0,0,0,0,0,0,0,0,0,0,0,0,0],"id":23,"left_children":[1,3,5,7,9,11,13,15,17,19,21,23,25,27,29,-1,31,33,35,37,39,41,43,45,47,49,51,53,55,57,59,-1,-1,-1,-1,-1,-1,-1,-1,-1,-1,-1,-1,-1,-1,-1,-1,-1,-1,-1,-1,-1,-1,-1,-1,-1,-1,-1,-1,-1,-1],"loss_changes":[3.2777838E2,2.782901E1,3.3154976E1,1.9728546E1,2.9360947E1,1.0237675E1,1.221761E1,3.6840818E0,1.0554321E1,6.876485E0,6.314377E0,3.8914537E0,2.5281754E0,2.8447762E0,1.2844067E0,0E0,1.7128778E0,7.9342804E0,2.831787E0,6.103141E0,9.085277E0,1.6752906E0,3.2515335E0,8.40624E-1,1.9166183E0,1.0105858E0,2.9010792E0,1.9404678E0,2.2176523E0,2.5724125E-1,6.903086E-1,0E0,0E0,0E0,0E0,0E0,0E0,0E0,0E0,0E0,0E0,0E0,0E0,0E0,0E0,0E0,0E0,0E0,0E0,0E0,0E0,0E0,0E0,0E0,0E0,0E0,0E0,0E0,0E0,0E0,0E0],"parents":[2147483647,0,0,1,1,2,2,3,3,4,4,5,5,6,6,7,7,8,8,9,9,10,10,11,11,12,12,13,13,14,14,16,16,17,17,18,18,19,19,20,20,21,21,22,22,23,23,24,24,25,25,26,26,27,27,28,28,29,29,30,30],"right_children":[2,4,6,8,10,12,14,16,18,20,22,24,26,28,30,-1,32,34,36,38,40,42,44,46,48,50,52,54,56,58,60,-1,-1,-1,-1,-1,-1,-1,-1,-1,-1,-1,-1,-1,-1,-1,-1,-1,-1,-1,-1,-1,-1,-1,-1,-1,-1,-1,-1,-1,-1],"split_conditions":[7E1,6.65E1,4.9E-1,5.58E1,8.2E-1,4.9E0,4.9E0,4.22E0,3.6E-1,4.88E0,3.82E0,7.2E1,5.31E0,7.83E1,7.53E1,4.6548244E-2,5.38E1,6.298E1,3.42E0,5.9E-1,5.51E0,3.31E0,5.81E0,7.177E1,4.2E0,7.07E1,5.36E0,1.62E0,5.9E-1,7.177E1,7.56E1,1.1336519E-2,-1.634696E-2,-4.3664917E-2,-2.664108E-2,-3.196086E-3,-4.919697E-2,-2.648657E-2,5.527724E-2,1.2041984E-2,-1.7621089E-2,4.7722604E-2,-1.2257307E-2,-4.8284482E-2,-1.902226E-2,7.884195E-4,-2.2338483E-2,2.6126442E-2,1.1200139E-2,2.176264E-2,4.144296E-2,-2.407044E-2,2.6487032E-2,6.766356E-3,-1.9349189E-3,-1.7384348E-2,2.179483E-2,-2.9299885E-2,-1.8507447E-2,1.1743787E-2,-1.2505226E-2],"split_indices":[0,0,3,0,3,2,3,2,3,2,2,0,2,0,0,0,0,0,2,3,2,3,2,0,2,0,2,3,3,0,0,0,0,0,0,0,0,0,0,0,0,0,0,0,0,0,0,0,0,0,0,0,0,0,0,0,0,0,0,0,0],"split_type":[0,0,0,0,0,0,0,0,0,0,0,0,0,0,0,0,0,0,0,0,0,0,0,0,0,0,0,0,0,0,0,0,0,0,0,0,0,0,0,0,0,0,0,0,0,0,0,0,0,0,0,0,0,0,0,0,0,0,0,0,0],"sum_hessian":[1.5919691E3,9.4262006E2,6.49349E2,6.86318E2,2.5630206E2,2.8495453E2,3.643945E2,2.4407373E1,6.6191064E2,1.537184E2,1.02583664E2,1.2822531E2,1.5672922E2,2.9078796E2,7.3606544E1,3.0247877E0,2.1382586E1,2.8972797E2,3.7218268E2,5.025103E1,1.0346738E2,3.092216E0,9.949145E1,3.5196518E1,9.302879E1,7.011008E1,8.661913E1,2.5570628E2,3.5081673E1,3.981434E1,3.3792206E1,8.416938E0,1.2965648E1,1.50878E2,1.3884996E2,3.5212784E0,3.6866138E2,4.877329E1,1.4777412E0,5.9370182E1,4.4097195E1,1.5469004E0,1.5453157E0,8.684292E1,1.2648524E1,3.1721205E1,3.4753137E0,3.722557E1,5.5803226E1,1.1467221E1,5.8642857E1,2.19325E0,8.442589E1,1.3598763E2,1.1971866E2,3.312223E0,3.176945E1,1.8736345E1,2.1077991E1,2.4479945E0,3.1344213E1],"tree_param":{"num_deleted":"0","num_feature":"4","num_nodes":"61","size_leaf_vector":"1"}},{"base_weights":[-3.2823354E-1,-6.862379E-1,1.9069606E-1,-8.4482706E-1,-4.6864575E-1,3.3705196E-1,-1.0436721E-1,1.5408054E-1,-8.84909E-1,-2.5255454E-1,-8.005662E-1,4.0821362E-1,1.9818316E-1,1.6877549E-2,-3.333604E-1,6.586773E-1,-2.4772441E-2,-7.704046E-1,-9.691667E-1,-5.8650964E-1,-1.5228398E-1,-7.071331E-1,-5.6675058E-2,2.6083726E-1,5.129449E-1,7.3736346E-1,1.3170782E-1,-3.8212363E-2,3.3013678E-1,-4.6300715E-1,-1.3238402E-1,1.1644957E-2,4.05217E-2,-1.08057875E-2,3.099636E-3,-5.2148044E-2,-3.587643E-2,-5.2589453E-3,-4.8752513E-2,-3.1458437E-2,1.697963E-2,-1.363204E-2,2.4509782E-3,2.3997352E-2,-3.6372196E-2,4.966146E-3,2.2758415E-2,2.930812E-2,9.55649E-3,-1.01368455E-2,4.1932885E-2,-6.348051E-3,9.0466E-3,5.0794664E-3,-3.3396536E-3,9.303561E-3,3.8263965E-2,-2.8335083E-2,-1.9413216E-2,3.0813315E-3,-1.1859994E-2],"categories":[],"categories_nodes":[],"categories_segments":[],"categories_sizes":[],"default_left":[0,0,0,0,0,0,0,0,0,0,0,0,0,0,0,0,0,0,0,0,0,0,0,0,0,0,0,0,0,0,0,0,0,0,0,0,0,0,0,0,0,0,0,0,0,0,0,0,0,0,0,0,0,0,0,0,0,0,0,0,0],"id":24,"left_children":[1,3,5,7,9,11,13,15,17,19,21,23,25,27,29,31,33,35,37,39,41,43,-1,45,47,49,51,53,55,57,59,-1,-1,-1,-1,-1,-1,-1,-1,-1,-1,-1,-1,-1,-1,-1,-1,-1,-1,-1,-1,-1,-1,-1,-1,-1,-1,-1,-1,-1,-1],"loss_changes":[2.949785E2,3.202011E1,2.8048971E1,2.1841644E1,2.836361E1,4.2065315E0,5.998431E0,1.9806104E0,4.2832947E0,8.037179E0,4.0693207E0,4.2793007E0,5.241273E0,2.464495E0,1.8868933E0,1.8162584E-1,2.961833E-1,2.507019E0,1.4044495E0,2.413765E0,4.5681486E0,3.361229E0,0E0,3.746707E0,3.8018227E0,1.7060347E0,1.7267606E0,4.9315047E-1,1.1961777E0,1.291256E-1,6.3931394E-1,0E0,0E0,0E0,0E0,0E0,0E0,0E0,0E0,0E0,0E0,0E0,0E0,0E0,0E0,0E0,0E0,0E0,0E0,0E0,0E0,0E0,0E0,0E0,0E0,0E0,0E0,0E0,0E0,0E0,0E0],"parents":[2147483647,0,0,1,1,2,2,3,3,4,4,5,5,6,6,7,7,8,8,9,9,10,10,11,11,12,12,13,13,14,14,15,15,16,16,17,17,18,18,19,19,20,20,21,21,23,23,24,24,25,25,26,26,27,27,28,28,29,29,30,30],"right_children":[2,4,6,8,10,12,14,16,18,20,22,24,26,28,30,32,34,36,38,40,42,44,-1,46,48,50,52,54,56,58,60,-1,-1,-1,-1,-1,-1,-1,-1,-1,-1,-1,-1,-1,-1,-1,-1,-1,-1,-1,-1,-1,-1,-1,-1,-1,-1,-1,-1,-1,-1],"split_conditions":[7E1,6.49E1,1.62E0,5.52E1,8.2E-1,4.9E-1,4.9E0,4.51E0,3.6E-1,4.56E0,4.99E0,4.8E0,5.01E0,7.79E1,7.53E1,3.99E0,5.01E0,4.4E0,3.42E0,2E-1,6.79E1,3.75E0,-5.6675058E-2,7.51E1,5.83E0,7.07E1,5.9E-1,7.07E1,4.22E0,7.105E1,5.9E0,1.1644957E-2,4.05217E-2,-1.08057875E-2,3.099636E-3,-5.2148044E-2,-3.587643E-2,-5.2589453E-3,-4.8752513E-2,-3.1458437E-2,1.697963E-2,-1.363204E-2,2.4509782E-3,2.3997352E-2,-3.6372196E-2,4.966146E-3,2.2758415E-2,2.930812E-2,9.55649E-3,-1.01368455E-2,4.1932885E-2,-6.348051E-3,9.0466E-3,5.0794664E-3,-3.3396536E-3,9.303561E-3,3.8263965E-2,-2.8335083E-2,-1.9413216E-2,3.0813315E-3,-1.1859994E-2],"split_indices":[0,0,3,0,3,3,3,2,3,2,3,2,2,0,0,2,2,2,2,3,0,2,0,0,2,0,3,0,3,0,3,0,0,0,0,0,0,0,0,0,0,0,0,0,0,0,0,0,0,0,0,0,0,0,0,0,0,0,0,0,0],"split_type":[0,0,0,0,0,0,0,0,0,0,0,0,0,0,0,0,0,0,0,0,0,0,0,0,0,0,0,0,0,0,0,0,0,0,0,0,0,0,0,0,0,0,0,0,0,0,0,0,0,0,0,0,0,0,0,0,0,0,0,0,0],"sum_hessian":[1.5860875E3,9.3838367E2,6.477039E2,5.4111584E2,3.972678E2,4.328576E2,2.148463E2,2.0765354E1,5.203505E2,2.4168425E2,1.5558354E2,2.8491617E2,1.4794145E2,1.4107681E2,7.376948E1,4.732054E0,1.6033298E1,2.2488292E2,2.954676E2,5.4689484E1,1.8699477E2,1.2392878E2,3.1654766E1,1.1981074E2,1.6510542E2,1.5130002E1,1.3281145E2,1.2072422E2,2.03526E1,4.4049835E1,2.9719648E1,1.9094551E0,2.822599E0,4.5370107E0,1.1496288E1,3.349642E1,1.9138649E2,2.1261184E0,2.933415E2,5.258776E1,2.1017241E0,1.1680448E2,7.019028E1,1.7040474E0,1.2222473E2,6.625517E1,5.3555565E1,1.338347E2,3.1270723E1,1.374252E0,1.3755751E1,2.0980658E1,1.11830795E2,2.0057766E1,1.0066645E2,1.6362852E1,3.9897485E0,1.5694303E1,2.8355532E1,1.0568942E1,1.9150705E1],"tree_param":{"num_deleted":"0","num_feature":"4","num_nodes":"61","size_leaf_vector":"1"}},{"base_weights":[-3.1633905E-1,-7.443267E-1,1.5951988E-1,8.1568025E-2,-7.6510864E-1,-2.4535333E-1,2.4808615E-1,3.6317173E-1,-3.0073285E-1,-9.473855E-1,-6.6427284E-1,-7.859424E-1,-1.7119996E-1,2.3253609E-1,3.8809463E-1,3.7193354E-2,1.8173641E-1,-4.8369537E-3,-4.1234645E-1,8.0979755E-3,-9.5429194E-1,2.3645762E-1,-6.7605007E-1,-9.7843874E-1,-1.3515835E-1,-2.490739E-3,-3.779841E-1,3.1181934E-1,1.9504718E-1,1.895673E-1,7.324809E-1,1.936589E-2,-1.6131721E-3,-3.5804447E-2,-7.907489E-3,-4.88147E-2,-3.140076E-2,-3.08457E-3,1.8189473E-2,-3.9714277E-2,-2.8736262E-2,-1.1249096E-2,-5.3926475E-2,2.4140969E-2,-4.2737495E-2,-2.7178286E-3,2.9057233E-2,-2.649567E-2,-3.4660106E-3,3.39991E-2,1.3633552E-2,8.626626E-3,2.3778649E-2,1.1590942E-2,-6.662766E-3,4.8578124E-2,5.72197E-3],"categories":[],"categories_nodes":[],"categories_segments":[],"categories_sizes":[],"default_left":[0,0,0,0,0,0,0,0,0,0,0,0,0,0,0,0,0,0,0,0,0,0,0,0,0,0,0,0,0,0,0,0,0,0,0,0,0,0,0,0,0,0,0,0,0,0,0,0,0,0,0,0,0,0,0,0,0],"id":25,"left_children":[1,3,5,7,9,11,13,15,17,19,21,23,25,27,29,-1,31,-1,33,-1,35,37,39,41,43,45,47,49,51,53,55,-1,-1,-1,-1,-1,-1,-1,-1,-1,-1,-1,-1,-1,-1,-1,-1,-1,-1,-1,-1,-1,-1,-1,-1,-1,-1],"loss_changes":[3.1883472E2,1.4206757E1,2.6662031E1,2.384132E0,1.4147308E1,5.223199E0,1.2360497E0,7.365664E-1,1.7663902E-1,2.3304596E0,5.6861877E0,1.8525448E0,4.1439505E0,1.5762596E0,3.922432E0,0E0,4.467523E-1,0E0,3.3768392E-1,0E0,1.414032E0,3.0582535E-1,5.707199E0,6.673498E-1,2.5369444E0,2.0426526E0,2.4663024E0,2.3391094E0,2.2967358E0,5.6324124E-1,3.0468206E0,0E0,0E0,0E0,0E0,0E0,0E0,0E0,0E0,0E0,0E0,0E0,0E0,0E0,0E0,0E0,0E0,0E0,0E0,0E0,0E0,0E0,0E0,0E0,0E0,0E0,0E0],"parents":[2147483647,0,0,1,1,2,2,3,3,4,4,5,5,6,6,7,7,8,8,9,9,10,10,11,11,12,12,13,13,14,14,16,16,18,18,20,20,21,21,22,22,23,23,24,24,25,25,26,26,27,27,28,28,29,29,30,30],"right_children":[2,4,6,8,10,12,14,16,18,20,22,24,26,28,30,-1,32,-1,34,-1,36,38,40,42,44,46,48,50,52,54,56,-1,-1,-1,-1,-1,-1,-1,-1,-1,-1,-1,-1,-1,-1,-1,-1,-1,-1,-1,-1,-1,-1,-1,-1,-1,-1],"split_conditions":[2.2E1,5.52E1,7E1,1.76E1,1.981E1,4.56E0,2.55E1,4.51E0,1.8E1,3.42E0,3.42E0,6.902E1,5.41E0,2.3E1,5.46E0,3.7193354E-2,1.67E1,-4.8369537E-3,5.31E0,8.0979755E-3,6.64E1,2.069E1,5.2E0,6.54E1,6.97E1,2.412E1,2.283E1,4.1E0,7.95E1,5.25E0,8.06E1,1.936589E-2,-1.6131721E-3,-3.5804447E-2,-7.907489E-3,-4.88147E-2,-3.140076E-2,-3.08457E-3,1.8189473E-2,-3.9714277E-2,-2.8736262E-2,-1.1249096E-2,-5.3926475E-2,2.4140969E-2,-4.2737495E-2,-2.7178286E-3,2.9057233E-2,-2.649567E-2,-3.4660106E-3,3.39991E-2,1.3633552E-2,8.626626E-3,2.3778649E-2,1.1590942E-2,-6.662766E-3,4.8578124E-2,5.72197E-3],"split_indices":[1,0,0,1,1,2,1,2,1,2,2,0,2,1,2,0,1,0,2,0,0,1,2,0,0,1,1,2,0,2,0,0,0,0,0,0,0,0,0,0,0,0,0,0,0,0,0,0,0,0,0,0,0,0,0,0,0],"split_type":[0,0,0,0,0,0,0,0,0,0,0,0,0,0,0,0,0,0,0,0,0,0,0,0,0,0,0,0,0,0,0,0,0,0,0,0,0,0,0,0,0,0,0,0,0,0,0,0,0,0,0,0,0,0,0,0,0],"sum_hessian":[1.563928E3,8.230829E2,7.4084515E2,2.0131063E1,8.0295184E2,1.3265477E2,6.0819037E2,1.1621026E1,8.510037E0,2.82996E2,5.199558E2,1.4843632E1,1.1781114E2,5.497889E2,5.8401497E1,2.7503085E0,8.870718E0,3.6697135E0,4.8403244E0,1.6120521E0,2.8138394E2,6.4645367E0,5.134913E2,1.1066714E1,3.7769167E0,6.543591E1,5.237523E1,1.7415668E2,3.756322E2,3.8029305E1,2.0372192E1,4.111276E0,4.7594414E0,1.377394E0,3.4629304E0,2.6174152E2,1.9642416E1,2.088888E0,4.3756485E0,2.3381494E2,2.7967636E2,1.6785811E0,9.388133E0,2.2089393E0,1.5679774E0,6.0928272E1,4.5076375E0,3.4618603E1,1.7756628E1,1.516558E1,1.589911E2,3.492193E2,2.6412893E1,3.387729E1,4.152014E0,1.42772255E1,6.094968E0],"tree_param":{"num_deleted":"0","num_feature":"4","num_nodes":"57","size_leaf_vector":"1"}},{"base_weights":[-2.8956324E-1,-7.243143E-1,1.7302592E-1,1.3399903E-1,-7.502199E-1,4.4489884E-1,-9.544572E-2,5.8315367E-1,-2.2305451E-1,-9.337404E-1,-6.1380315E-1,2.4643159E-1,5.2114516E-1,-6.3799894E-1,2.900672E-2,3.5505492E-2,2.5099045E-1,-1.3825959E-1,-4.066326E-1,-9.4080204E-1,4.4327136E-2,-4.220245E-1,-8.106659E-1,-4.5727724E-1,2.9034716E-1,6.18474E-1,4.318712E-1,-3.9973766E-1,-1.0067627E0,1.0664646E-1,-2.6491538E-1,3.0217057E-2,-1.848723E-2,-3.505876E-3,-1.8275894E-2,-3.570702E-2,2.1123157E-3,-4.4171374E-2,-5.533886E-2,-1.1007736E-2,1.4746907E-2,-3.3007864E-2,-1.0364434E-2,-8.9174695E-3,-4.092587E-2,-4.0476553E-2,1.1245227E-2,2.5926078E-2,1.15769645E-2,2.5580074E-3,3.284441E-2,-1.0791697E-2,2.2455148E-2,-2.3007302E-2,4.136309E-2,1.1306702E-2,-5.4681893E-2,3.1383508E-3,2.6017874E-2,-1.645513E-2,1.2352964E-3],"categories":[],"categories_nodes":[],"categories_segments":[],"categories_sizes":[],"default_left":[0,0,0,0,0,0,0,0,0,0,0,0,0,0,0,0,0,0,0,0,0,0,0,0,0,0,0,0,0,0,0,0,0,0,0,0,0,0,0,0,0,0,0,0,0,0,0,0,0,0,0,0,0,0,0,0,0,0,0,0,0],"id":26,"left_children":[1,3,5,7,9,11,13,15,17,19,21,23,25,27,29,-1,31,33,35,37,39,41,43,45,47,49,51,53,55,57,59,-1,-1,-1,-1,-1,-1,-1,-1,-1,-1,-1,-1,-1,-1,-1,-1,-1,-1,-1,-1,-1,-1,-1,-1,-1,-1,-1,-1,-1,-1],"loss_changes":[3.0631677E2,1.7556458E1,5.3941353E1,3.954777E0,1.8508942E1,5.4262695E0,2.5161547E1,2.7884626E-1,1.6186607E-1,2.2731323E0,1.6274689E1,3.3398862E0,2.0293427E0,5.705843E0,6.9620385E0,0E0,1.2200882E0,1.462422E-1,5.7007766E-1,2.0772095E0,2.8173324E-1,1.1370262E1,9.268646E-1,1.7402443E0,1.198885E0,2.671524E0,1.6725025E0,3.6340008E0,3.0994911E0,4.3435664E0,1.1937499E0,0E0,0E0,0E0,0E0,0E0,0E0,0E0,0E0,0E0,0E0,0E0,0E0,0E0,0E0,0E0,0E0,0E0,0E0,0E0,0E0,0E0,0E0,0E0,0E0,0E0,0E0,0E0,0E0,0E0,0E0],"parents":[2147483647,0,0,1,1,2,2,3,3,4,4,5,5,6,6,7,7,8,8,9,9,10,10,11,11,12,12,13,13,14,14,16,16,17,17,18,18,19,19,20,20,21,21,22,22,23,23,24,24,25,25,26,26,27,27,28,28,29,29,30,30],"right_children":[2,4,6,8,10,12,14,16,18,20,22,24,26,28,30,-1,32,34,36,38,40,42,44,46,48,50,52,54,56,58,60,-1,-1,-1,-1,-1,-1,-1,-1,-1,-1,-1,-1,-1,-1,-1,-1,-1,-1,-1,-1,-1,-1,-1,-1,-1,-1,-1,-1,-1,-1],"split_conditions":[2.19E1,5.58E1,6.9E-1,1.73E1,6.301E1,7.07E1,7E1,1.67E1,5.52E1,2.156E1,4.9E-1,6.432E1,7.39E1,3.1E0,5.07E0,3.5505492E-2,6.2E-1,1.883E1,1.83E1,1.15E0,4.9E-1,2.069E1,1.862E1,2.496E1,6.703E1,2.21E1,7.4E1,3E0,6.55E1,7.83E1,2.54E1,3.0217057E-2,-1.848723E-2,-3.505876E-3,-1.8275894E-2,-3.570702E-2,2.1123157E-3,-4.4171374E-2,-5.533886E-2,-1.1007736E-2,1.4746907E-2,-3.3007864E-2,-1.0364434E-2,-8.9174695E-3,-4.092587E-2,-4.0476553E-2,1.1245227E-2,2.5926078E-2,1.15769645E-2,2.5580074E-3,3.284441E-2,-1.0791697E-2,2.2455148E-2,-2.3007302E-2,4.136309E-2,1.1306702E-2,-5.4681893E-2,3.1383508E-3,2.6017874E-2,-1.645513E-2,1.2352964E-3],"split_indices":[1,0,3,1,0,0,0,1,0,1,3,0,0,3,3,0,3,1,1,3,3,1,1,1,0,1,0,3,0,0,1,0,0,0,0,0,0,0,0,0,0,0,0,0,0,0,0,0,0,0,0,0,0,0,0,0,0,0,0,0,0],"split_type":[0,0,0,0,0,0,0,0,0,0,0,0,0,0,0,0,0,0,0,0,0,0,0,0,0,0,0,0,0,0,0,0,0,0,0,0,0,0,0,0,0,0,0,0,0,0,0,0,0,0,0,0,0,0,0,0,0,0,0,0,0],"sum_hessian":[1.5214989E3,7.8405853E2,7.374404E2,2.2848902E1,7.612096E2,3.6607275E2,3.7136768E2,9.838875E0,1.3010027E1,3.22077E2,4.3913263E2,1.0277756E2,2.632952E2,6.8521255E1,3.028464E2,6.29502E0,3.5438552E0,1.0098607E1,2.9114196E0,3.198061E2,2.2708883E0,2.2403108E2,2.1510153E2,5.484267E0,9.729329E1,1.2312897E2,1.4016623E2,4.2892235E1,2.5629025E1,2.4006912E2,6.277728E1,2.275148E0,1.2687073E0,8.775778E0,1.3228294E0,1.3770912E0,1.5343285E0,2.4235207E2,7.745403E1,1.1639956E0,1.1068926E0,1.0524483E2,1.18786255E2,2.9290257E0,2.1217252E2,3.4936132E0,1.9906539E0,1.8335266E1,7.895802E1,7.956495E0,1.1517247E2,3.3337107E0,1.3683252E2,4.147528E1,1.4169536E0,1.5815341E0,2.404749E1,2.180896E2,2.1979528E1,5.127676E1,1.1500519E1],"tree_param":{"num_deleted":"0","num_feature":"4","num_nodes":"61","size_leaf_vector":"1"}},{"base_weights":[-2.9239213E-1,-6.2826276E-1,1.6709931E-1,-7.6941425E-1,-3.791827E-1,2.9031473E-1,-7.5349964E-2,7.4317925E-2,-8.054185E-1,-1.7453068E-1,-7.7951956E-1,3.5171133E-1,1.6257896E-1,3.509868E-2,-2.8640085E-1,5.9239566E-1,-1.7636395E-1,-9.019742E-1,-6.7983353E-1,-3.629436E-1,-5.118216E-2,